{"learner":{"attributes":{"best_iteration":"299","best_ntree_limit":"300","scikit_learn":"{\"use_label_encoder\": null, \"n_estimators\": 300, \"objective\": \"multi:softprob\", \"max_depth\": 6, \"max_leaves\": null, \"max_bin\": null, \"grow_policy\": null, \"learning_rate\": 0.05, \"verbosity\": null, \"booster\": null, \"tree_method\": null, \"gamma\": null, \"min_child_weight\": null, \"max_delta_step\": null, \"subsample\": 0.8, \"sampling_method\": null, \"colsample_bytree\": 0.8, \"colsample_bylevel\": null, \"colsample_bynode\": null, \"reg_alpha\": null, \"reg_lambda\": null, \"scale_pos_weight\": null, \"base_score\": null, \"missing\": NaN, \"num_parallel_tree\": null, \"random_state\": 42, \"n_jobs\": null, \"monotone_constraints\": null, \"interaction_constraints\": null, \"importance_type\": null, \"gpu_id\": null, \"validate_parameters\": null, \"predictor\": null, \"enable_categorical\": false, \"feature_types\": null, \"max_cat_to_onehot\": null, \"max_cat_threshold\": null, \"eval_metric\": null, \"early_stopping_rounds\": null, \"callbacks\": null, \"classes_\": [0, 1, 2, 3], \"n_classes_\": 4, \"_estimator_type\": \"classifier\"}"},"feature_names":[],"feature_types":[],"gradient_booster":{"model":{"gbtree_model_param":{"num_parallel_tree":"1","num_trees":"1200","size_leaf_vector":"0"},"tree_info":[0,1,2,3,0,1,2,3,0,1,2,3,0,1,2,3,0,1,2,3,0,1,2,3,0,1,2,3,0,1,2,3,0,1,2,3,0,1,2,3,0,1,2,3,0,1,2,3,0,1,2,3,0,1,2,3,0,1,2,3,0,1,2,3,0,1,2,3,0,1,2,3,0,1,2,3,0,1,2,3,0,1,2,3,0,1,2,3,0,1,2,3,0,1,2,3,0,1,2,3,0,1,2,3,0,1,2,3,0,1,2,3,0,1,2,3,0,1,2,3,0,1,2,3,0,1,2,3,0,1,2,3,0,1,2,3,0,1,2,3,0,1,2,3,0,1,2,3,0,1,2,3,0,1,2,3,0,1,2,3,0,1,2,3,0,1,2,3,0,1,2,3,0,1,2,3,0,1,2,3,0,1,2,3,0,1,2,3,0,1,2,3,0,1,2,3,0,1,2,3,0,1,2,3,0,1,2,3,0,1,2,3,0,1,2,3,0,1,2,3,0,1,2,3,0,1,2,3,0,1,2,3,0,1,2,3,0,1,2,3,0,1,2,3,0,1,2,3,0,1,2,3,0,1,2,3,0,1,2,3,0,1,2,3,0,1,2,3,0,1,2,3,0,1,2,3,0,1,2,3,0,1,2,3,0,1,2,3,0,1,2,3,0,1,2,3,0,1,2,3,0,1,2,3,0,1,2,3,0,1,2,3,0,1,2,3,0,1,2,3,0,1,2,3,0,1,2,3,0,1,2,3,0,1,2,3,0,1,2,3,0,1,2,3,0,1,2,3,0,1,2,3,0,1,2,3,0,1,2,3,0,1,2,3,0,1,2,3,0,1,2,3,0,1,2,3,0,1,2,3,0,1,2,3,0,1,2,3,0,1,2,3,0,1,2,3,0,1,2,3,0,1,2,3,0,1,2,3,0,1,2,3,0,1,2,3,0,1,2,3,0,1,2,3,0,1,2,3,0,1,2,3,0,1,2,3,0,1,2,3,0,1,2,3,0,1,2,3,0,1,2,3,0,1,2,3,0,1,2,3,0,1,2,3,0,1,2,3,0,1,2,3,0,1,2,3,0,1,2,3,0,1,2,3,0,1,2,3,0,1,2,3,0,1,2,3,0,1,2,3,0,1,2,3,0,1,2,3,0,1,2,3,0,1,2,3,0,1,2,3,0,1,2,3,0,1,2,3,0,1,2,3,0,1,2,3,0,1,2,3,0,1,2,3,0,1,2,3,0,1,2,3,0,1,2,3,0,1,2,3,0,1,2,3,0,1,2,3,0,1,2,3,0,1,2,3,0,1,2,3,0,1,2,3,0,1,2,3,0,1,2,3,0,1,2,3,0,1,2,3,0,1,2,3,0,1,2,3,0,1,2,3,0,1,2,3,0,1,2,3,0,1,2,3,0,1,2,3,0,1,2,3,0,1,2,3,0,1,2,3,0,1,2,3,0,1,2,3,0,1,2,3,0,1,2,3,0,1,2,3,0,1,2,3,0,1,2,3,0,1,2,3,0,1,2,3,0,1,2,3,0,1,2,3,0,1,2,3,0,1,2,3,0,1,2,3,0,1,2,3,0,1,2,3,0,1,2,3,0,1,2,3,0,1,2,3,0,1,2,3,0,1,2,3,0,1,2,3,0,1,2,3,0,1,2,3,0,1,2,3,0,1,2,3,0,1,2,3,0,1,2,3,0,1,2,3,0,1,2,3,0,1,2,3,0,1,2,3,0,1,2,3,0,1,2,3,0,1,2,3,0,1,2,3,0,1,2,3,0,1,2,3,0,1,2,3,0,1,2,3,0,1,2,3,0,1,2,3,0,1,2,3,0,1,2,3,0,1,2,3,0,1,2,3,0,1,2,3,0,1,2,3,0,1,2,3,0,1,2,3,0,1,2,3,0,1,2,3,0,1,2,3,0,1,2,3,0,1,2,3,0,1,2,3,0,1,2,3,0,1,2,3,0,1,2,3,0,1,2,3,0,1,2,3,0,1,2,3,0,1,2,3,0,1,2,3,0,1,2,3,0,1,2,3,0,1,2,3,0,1,2,3,0,1,2,3,0,1,2,3,0,1,2,3,0,1,2,3,0,1,2,3,0,1,2,3,0,1,2,3,0,1,2,3,0,1,2,3,0,1,2,3,0,1,2,3,0,1,2,3,0,1,2,3,0,1,2,3,0,1,2,3,0,1,2,3,0,1,2,3,0,1,2,3,0,1,2,3,0,1,2,3,0,1,2,3,0,1,2,3,0,1,2,3,0,1,2,3,0,1,2,3,0,1,2,3,0,1,2,3,0,1,2,3,0,1,2,3,0,1,2,3,0,1,2,3,0,1,2,3,0,1,2,3,0,1,2,3,0,1,2,3,0,1,2,3,0,1,2,3,0,1,2,3,0,1,2,3,0,1,2,3,0,1,2,3,0,1,2,3,0,1,2,3,0,1,2,3,0,1,2,3,0,1,2,3,0,1,2,3,0,1,2,3,0,1,2,3,0,1,2,3,0,1,2,3,0,1,2,3,0,1,2,3,0,1,2,3,0,1,2,3,0,1,2,3,0,1,2,3,0,1,2,3,0,1,2,3,0,1,2,3,0,1,2,3,0,1,2,3,0,1,2,3,0,1,2,3,0,1,2,3,0,1,2,3,0,1,2,3,0,1,2,3,0,1,2,3,0,1,2,3,0,1,2,3,0,1,2,3],"trees":[{"base_weights":[2.4702593E-3,-6.661008E-1,1.0586658E0,-6.630137E-1,1.6136464E0,-6.549451E-1,1.8642734E0,-6.3013697E-1,1.9531687E0,-5.714286E-1,1.9855708E0,-4.347826E-1,1.9958614E0],"categories":[],"categories_nodes":[],"categories_segments":[],"categories_sizes":[],"default_left":[1,0,1,0,1,0,1,0,1,0,1,0,0],"id":0,"left_children":[1,-1,3,-1,5,-1,7,-1,9,-1,11,-1,-1],"loss_changes":[1.3585276E3,0E0,7.1363306E2,0E0,3.2203674E2,0E0,1.1395862E2,0E0,4.130957E1,0E0,1.2950806E1,0E0,0E0],"parents":[2147483647,0,0,2,2,4,4,6,6,8,8,10,10],"right_children":[2,-1,4,-1,6,-1,8,-1,10,-1,12,-1,-1],"split_conditions":[5E-1,-3.330504E-2,5E-1,-3.3150684E-2,5E-1,-3.2747254E-2,5E-1,-3.1506848E-2,5E-1,-2.857143E-2,5E-1,-2.173913E-2,9.979307E-2],"split_indices":[42,0,3,0,57,0,78,0,73,0,44,0,0],"split_type":[0,0,0,0,0,0,0,0,0,0,0,0,0],"sum_hessian":[1.921875E3,1.177125E3,7.4475E2,1.815E2,5.6325E2,5.5875E1,5.07375E2,1.725E1,4.90125E2,6E0,4.84125E2,1.875E0,4.8225E2],"tree_param":{"num_deleted":"0","num_feature":"80","num_nodes":"13","size_leaf_vector":"0"}},{"base_weights":[3.7659893E-3,-6.6610366E-1,1.0727763E0,-6.6295266E-1,1.6237799E0,-6.5393794E-1,1.8535514E0,-6.3414633E-1,1.9533113E0,-5.8064514E-1,1.9897093E0,-3.529412E-1,1.9958742E0],"categories":[],"categories_nodes":[],"categories_segments":[],"categories_sizes":[],"default_left":[1,0,1,0,1,0,1,0,1,0,1,0,0],"id":1,"left_children":[1,-1,3,-1,5,-1,7,-1,9,-1,11,-1,-1],"loss_changes":[1.3792919E3,0E0,7.107201E2,0E0,2.961223E2,0E0,1.283341E2,0E0,4.6590576E1,0E0,7.7214355E0,0E0,0E0],"parents":[2147483647,0,0,2,2,4,4,6,6,8,8,10,10],"right_children":[2,-1,4,-1,6,-1,8,-1,10,-1,12,-1,-1],"split_conditions":[5E-1,-3.3305183E-2,5E-1,-3.3147633E-2,5E-1,-3.26969E-2,5E-1,-3.1707317E-2,5E-1,-2.9032258E-2,5E-1,-1.764706E-2,9.979371E-2],"split_indices":[45,0,24,0,66,0,40,0,59,0,27,0,0],"split_type":[0,0,0,0,0,0,0,0,0,0,0,0,0],"sum_hessian":[1.924125E3,1.183125E3,7.41E2,1.785E2,5.625E2,5.1375E1,5.11125E2,1.95E1,4.91625E2,6.75E0,4.84875E2,1.125E0,4.8375E2],"tree_param":{"num_deleted":"0","num_feature":"80","num_nodes":"13","size_leaf_vector":"0"}},{"base_weights":[-1.44937E-2,-6.66104E-1,1.04208E0,-6.630212E-1,1.6082897E0,-6.544622E-1,1.8546189E0,-6.335404E-1,1.955894E0,-5.762712E-1,1.9914849E0],"categories":[],"categories_nodes":[],"categories_segments":[],"categories_sizes":[],"default_left":[1,0,1,0,1,0,1,0,1,0,0],"id":2,"left_children":[1,-1,3,-1,5,-1,7,-1,9,-1,-1],"loss_changes":[1.3188644E3,0E0,7.065652E2,0E0,3.071466E2,0E0,1.260365E2,0E0,4.4056885E1,0E0,0E0],"parents":[2147483647,0,0,2,2,4,4,6,6,8,8],"right_children":[2,-1,4,-1,6,-1,8,-1,10,-1,-1],"split_conditions":[5E-1,-3.33052E-2,5E-1,-3.315106E-2,5E-1,-3.272311E-2,5E-1,-3.167702E-2,5E-1,-2.881356E-2,9.9574246E-2],"split_indices":[62,0,67,0,76,0,17,0,56,0,0],"split_type":[0,0,0,0,0,0,0,0,0,0,0],"sum_hessian":[1.913625E3,1.183875E3,7.2975E2,1.81875E2,5.47875E2,5.3625E1,4.9425E2,1.9125E1,4.75125E2,6.375E0,4.6875E2],"tree_param":{"num_deleted":"0","num_feature":"80","num_nodes":"11","size_leaf_vector":"0"}},{"base_weights":[1.0725965E-2,-6.660948E-1,1.067649E0,-6.629986E-1,1.621741E0,-6.543779E-1,1.8595122E0,-6.3414633E-1,1.959432E0,-5.6E-1,1.9876987E0,-3.529412E-1,1.9938351E0],"categories":[],"categories_nodes":[],"categories_segments":[],"categories_sizes":[],"default_left":[1,0,1,0,1,0,1,0,1,0,1,0,0],"id":3,"left_children":[1,-1,3,-1,5,-1,7,-1,9,-1,11,-1,-1],"loss_changes":[1.3679191E3,0E0,7.169225E2,0E0,3.073982E2,0E0,1.2894019E2,0E0,3.6222412E1,0E0,7.7093506E0,0E0,0E0],"parents":[2147483647,0,0,2,2,4,4,6,6,8,8,10,10],"right_children":[2,-1,4,-1,6,-1,8,-1,10,-1,12,-1,-1],"split_conditions":[5E-1,-3.330474E-2,5E-1,-3.314993E-2,5E-1,-3.2718893E-2,5E-1,-3.1707317E-2,5E-1,-2.8E-2,5E-1,-1.764706E-2,9.9691756E-2],"split_indices":[64,0,36,0,43,0,58,0,8,0,4,0,0],"split_type":[0,0,0,0,0,0,0,0,0,0,0,0,0],"sum_hessian":[1.91025E3,1.16475E3,7.455E2,1.8075E2,5.6475E2,5.325E1,5.115E2,1.95E1,4.92E2,5.25E0,4.8675E2,1.125E0,4.85625E2],"tree_param":{"num_deleted":"0","num_feature":"80","num_nodes":"13","size_leaf_vector":"0"}},{"base_weights":[-7.266486E-3,-6.58543E-1,9.686104E-1,-6.556672E-1,1.4829257E0,-6.4729327E-1,1.7026293E0,-6.2142885E-1,1.7781208E0,-5.6798375E-1,1.807917E0],"categories":[],"categories_nodes":[],"categories_segments":[],"categories_sizes":[],"default_left":[1,0,1,0,1,0,1,0,1,0,0],"id":4,"left_children":[1,-1,3,-1,5,-1,7,-1,9,-1,-1],"loss_changes":[1.2260089E3,0E0,6.459748E2,0E0,2.7569702E2,0E0,9.4467285E1,0E0,3.7074097E1,0E0,0E0],"parents":[2147483647,0,0,2,2,4,4,6,6,8,8],"right_children":[2,-1,4,-1,6,-1,8,-1,10,-1,-1],"split_conditions":[5E-1,-3.292715E-2,5E-1,-3.278336E-2,5E-1,-3.2364663E-2,5E-1,-3.1071443E-2,5E-1,-2.8399188E-2,9.039585E-2],"split_indices":[73,0,37,0,9,0,3,0,23,0,0],"split_type":[0,0,0,0,0,0,0,0,0,0,0],"sum_hessian":[1.9270006E3,1.1559038E3,7.7109686E2,1.8537682E2,5.8572003E2,5.457934E1,5.311407E2,1.6482536E1,5.146582E2,6.227821E0,5.0843036E2],"tree_param":{"num_deleted":"0","num_feature":"80","num_nodes":"11","size_leaf_vector":"0"}},{"base_weights":[2.1435241E-3,-6.585484E-1,9.79404E-1,-6.5548944E-1,1.4693885E0,-6.473895E-1,1.6838982E0,-6.279777E-1,1.7737925E0,-5.630589E-1,1.8012521E0,-4.2633823E-1,1.8099607E0],"categories":[],"categories_nodes":[],"categories_segments":[],"categories_sizes":[],"default_left":[1,0,1,0,1,0,1,0,1,0,1,0,0],"id":5,"left_children":[1,-1,3,-1,5,-1,7,-1,9,-1,11,-1,-1],"loss_changes":[1.2480457E3,0E0,6.255462E2,0E0,2.7362354E2,0E0,1.1443091E2,0E0,3.4709717E1,0E0,1.0844482E1,0E0,0E0],"parents":[2147483647,0,0,2,2,4,4,6,6,8,8,10,10],"right_children":[2,-1,4,-1,6,-1,8,-1,10,-1,12,-1,-1],"split_conditions":[5E-1,-3.292742E-2,5E-1,-3.2774474E-2,5E-1,-3.2369476E-2,5E-1,-3.139889E-2,5E-1,-2.8152946E-2,5E-1,-2.1316912E-2,9.049804E-2],"split_indices":[15,0,75,0,38,0,61,0,51,0,24,0,0],"split_type":[0,0,0,0,0,0,0,0,0,0,0,0,0],"sum_hessian":[1.9309535E3,1.1522698E3,7.786836E2,1.7948204E2,5.992016E2,5.4948906E1,5.442527E2,2.0146448E1,5.241062E2,5.860535E0,5.1824567E2,1.8313982E0,5.164143E2],"tree_param":{"num_deleted":"0","num_feature":"80","num_nodes":"13","size_leaf_vector":"0"}},{"base_weights":[7.998372E-3,-6.5858614E-1,1.005639E0,-6.5552074E-1,1.509746E0,-6.462651E-1,1.7112188E0,-6.19796E-1,1.7824053E0,-5.370312E-1,1.8030441E0,-3.9174423E-1,1.8099998E0],"categories":[],"categories_nodes":[],"categories_segments":[],"categories_sizes":[],"default_left":[1,0,1,0,1,0,1,0,1,0,1,0,0],"id":6,"left_children":[1,-1,3,-1,5,-1,7,-1,9,-1,11,-1,-1],"loss_changes":[1.2770642E3,0E0,6.4509784E2,0E0,2.575631E2,0E0,9.074695E1,0E0,2.6074951E1,0E0,8.648682E0,0E0,0E0],"parents":[2147483647,0,0,2,2,4,4,6,6,8,8,10,10],"right_children":[2,-1,4,-1,6,-1,8,-1,10,-1,12,-1,-1],"split_conditions":[5E-1,-3.292931E-2,5E-1,-3.277604E-2,5E-1,-3.2313254E-2,5E-1,-3.09898E-2,5E-1,-2.6851559E-2,5E-1,-1.9587211E-2,9.049999E-2],"split_indices":[19,0,7,0,2,0,17,0,74,0,11,0,0],"split_type":[0,0,0,0,0,0,0,0,0,0,0,0,0],"sum_hessian":[1.9183674E3,1.1501931E3,7.6817426E2,1.787727E2,5.8940155E2,5.0182167E1,5.392194E2,1.5750751E1,5.234686E2,4.3961773E0,5.1907245E2,1.4651E0,5.1760736E2],"tree_param":{"num_deleted":"0","num_feature":"80","num_nodes":"13","size_leaf_vector":"0"}},{"base_weights":[4.5259744E-3,-6.5853447E-1,9.877601E-1,-6.55479E-1,1.4874005E0,-6.4712834E-1,1.6978695E0,-6.250783E-1,1.7803168E0,-5.53489E-1,1.8045783E0,-3.4625006E-1,1.8098313E0],"categories":[],"categories_nodes":[],"categories_segments":[],"categories_sizes":[],"default_left":[1,0,1,0,1,0,1,0,1,0,1,0,0],"id":7,"left_children":[1,-1,3,-1,5,-1,7,-1,9,-1,11,-1,-1],"loss_changes":[1.2556462E3,0E0,6.378587E2,0E0,2.6847217E2,0E0,1.0491919E2,0E0,3.0651367E1,0E0,6.4851074E0,0E0,0E0],"parents":[2147483647,0,0,2,2,4,4,6,6,8,8,10,10],"right_children":[2,-1,4,-1,6,-1,8,-1,10,-1,12,-1,-1],"split_conditions":[5E-1,-3.2926723E-2,5E-1,-3.2773953E-2,5E-1,-3.235642E-2,5E-1,-3.1253915E-2,5E-1,-2.7674451E-2,5E-1,-1.7312502E-2,9.049156E-2],"split_indices":[43,0,36,0,79,0,58,0,52,0,20,0,0],"split_type":[0,0,0,0,0,0,0,0,0,0,0,0,0],"sum_hessian":[1.9240065E3,1.1492922E3,7.747143E2,1.8056204E2,5.941522E2,5.314035E1,5.410119E2,1.8318125E1,5.226938E2,5.153399E0,5.1754034E2,1.1027474E0,5.164376E2],"tree_param":{"num_deleted":"0","num_feature":"80","num_nodes":"13","size_leaf_vector":"0"}},{"base_weights":[-7.916696E-3,-6.5129715E-1,9.113302E-1,-6.481539E-1,1.3491877E0,-6.403544E-1,1.5472702E0,-6.1925054E-1,1.624321E0,-5.548666E-1,1.6486498E0,-4.445665E-1,1.6579072E0],"categories":[],"categories_nodes":[],"categories_segments":[],"categories_sizes":[],"default_left":[1,0,1,0,1,0,1,0,1,0,1,0,0],"id":8,"left_children":[1,-1,3,-1,5,-1,7,-1,9,-1,11,-1,-1],"loss_changes":[1.131069E3,0E0,5.385461E2,0E0,2.4340637E2,0E0,9.4440674E1,0E0,2.9584717E1,0E0,1.1105225E1,0E0,0E0],"parents":[2147483647,0,0,2,2,4,4,6,6,8,8,10,10],"right_children":[2,-1,4,-1,6,-1,8,-1,10,-1,12,-1,-1],"split_conditions":[5E-1,-3.256486E-2,5E-1,-3.2407697E-2,5E-1,-3.201772E-2,5E-1,-3.0962527E-2,5E-1,-2.774333E-2,5E-1,-2.2228325E-2,8.289536E-2],"split_indices":[70,0,33,0,9,0,39,0,23,0,73,0,0],"split_type":[0,0,0,0,0,0,0,0,0,0,0,0,0],"sum_hessian":[1.9104418E3,1.1240272E3,7.8641455E2,1.7229263E2,6.1412195E2,5.5404617E1,5.5871735E2,1.8946323E1,5.39771E2,5.7187815E0,5.3405225E2,2.1444373E0,5.319078E2],"tree_param":{"num_deleted":"0","num_feature":"80","num_nodes":"13","size_leaf_vector":"0"}},{"base_weights":[-5.121769E-3,-6.5129113E-1,9.2567337E-1,-6.481482E-1,1.3727359E0,-6.395808E-1,1.5600761E0,-6.180142E-1,1.6349941E0,-5.4337716E-1,1.6564587E0],"categories":[],"categories_nodes":[],"categories_segments":[],"categories_sizes":[],"default_left":[1,0,1,0,1,0,1,0,1,0,0],"id":9,"left_children":[1,-1,3,-1,5,-1,7,-1,9,-1,-1],"loss_changes":[1.1452858E3,0E0,5.498776E2,0E0,2.3019519E2,0E0,9.1816284E1,0E0,2.6067383E1,0E0,0E0],"parents":[2147483647,0,0,2,2,4,4,6,6,8,8],"right_children":[2,-1,4,-1,6,-1,8,-1,10,-1,-1],"split_conditions":[5E-1,-3.2564558E-2,5E-1,-3.240741E-2,5E-1,-3.197904E-2,5E-1,-3.0900711E-2,5E-1,-2.7168859E-2,8.282294E-2],"split_indices":[28,0,40,0,35,0,15,0,66,0,0],"split_type":[0,0,0,0,0,0,0,0,0,0,0],"sum_hessian":[1.9022013E3,1.1229417E3,7.792596E2,1.7228926E2,6.0697034E2,5.1488815E1,5.554815E2,1.8230083E1,5.372514E2,5.0048914E0,5.322465E2],"tree_param":{"num_deleted":"0","num_feature":"80","num_nodes":"11","size_leaf_vector":"0"}},{"base_weights":[-9.214844E-3,-6.5130264E-1,9.1121274E-1,-6.4844483E-1,1.3657906E0,-6.3969916E-1,1.555395E0,-6.1670023E-1,1.627263E0,-5.5981815E-1,1.6533054E0,-3.3735487E-1,1.6579629E0],"categories":[],"categories_nodes":[],"categories_segments":[],"categories_sizes":[],"default_left":[1,0,1,0,1,0,1,0,1,0,1,0,0],"id":10,"left_children":[1,-1,3,-1,5,-1,7,-1,9,-1,11,-1,-1],"loss_changes":[1.12802E3,0E0,5.569725E2,0E0,2.3205432E2,0E0,8.7712524E1,0E0,3.1564941E1,0E0,5.4903564E0,0E0,0E0],"parents":[2147483647,0,0,2,2,4,4,6,6,8,8,10,10],"right_children":[2,-1,4,-1,6,-1,8,-1,10,-1,12,-1,-1],"split_conditions":[5E-1,-3.256513E-2,5E-1,-3.242224E-2,5E-1,-3.198496E-2,5E-1,-3.0835012E-2,5E-1,-2.7990907E-2,5E-1,-1.6867744E-2,8.289815E-2],"split_indices":[2,0,0,0,11,0,13,0,62,0,46,0,0],"split_type":[0,0,0,0,0,0,0,0,0,0,0,0,0],"sum_hessian":[1.9066742E3,1.1233328E3,7.833415E2,1.7669026E2,6.0665125E2,5.2195335E1,5.544559E2,1.7514893E1,5.36941E2,6.077152E0,5.3086383E2,1.0724145E0,5.2979144E2],"tree_param":{"num_deleted":"0","num_feature":"80","num_nodes":"13","size_leaf_vector":"0"}},{"base_weights":[4.044231E-3,-6.512761E-1,9.192646E-1,-6.4830375E-1,1.3688234E0,-6.397696E-1,1.5560501E0,-6.180701E-1,1.6293888E0,-5.4941696E-1,1.6518887E0,-3.8358954E-1,1.6579638E0],"categories":[],"categories_nodes":[],"categories_segments":[],"categories_sizes":[],"default_left":[1,0,1,0,1,0,1,0,1,0,1,0,0],"id":11,"left_children":[1,-1,3,-1,5,-1,7,-1,9,-1,11,-1,-1],"loss_changes":[1.1456901E3,0E0,5.625872E2,0E0,2.3405627E2,0E0,9.144385E1,0E0,2.7819092E1,0E0,7.35791E0,0E0,0E0],"parents":[2147483647,0,0,2,2,4,4,6,6,8,8,10,10],"right_children":[2,-1,4,-1,6,-1,8,-1,10,-1,12,-1,-1],"split_conditions":[5E-1,-3.2563806E-2,5E-1,-3.241519E-2,5E-1,-3.1988483E-2,5E-1,-3.0903507E-2,5E-1,-2.7470848E-2,5E-1,-1.9179476E-2,8.289819E-2],"split_indices":[4,0,49,0,68,0,8,0,18,0,10,0,0],"split_type":[0,0,0,0,0,0,0,0,0,0,0,0,0],"sum_hessian":[1.9082413E3,1.1121808E3,7.960605E2,1.7732011E2,6.1874036E2,5.255085E1,5.661895E2,1.8233418E1,5.479561E2,5.361388E0,5.425947E2,1.4296932E0,5.4116504E2],"tree_param":{"num_deleted":"0","num_feature":"80","num_nodes":"13","size_leaf_vector":"0"}},{"base_weights":[-3.24788E-4,-6.443079E-1,8.622579E-1,-6.4129424E-1,1.2725906E0,-6.3255847E-1,1.4396359E0,-6.0927266E-1,1.5024086E0,-5.517655E-1,1.525076E0,-3.7568003E-1,1.5304828E0],"categories":[],"categories_nodes":[],"categories_segments":[],"categories_sizes":[],"default_left":[1,0,1,0,1,0,1,0,1,0,1,0,0],"id":12,"left_children":[1,-1,3,-1,5,-1,7,-1,9,-1,11,-1,-1],"loss_changes":[1.0498684E3,0E0,4.9924213E2,0E0,2.0299915E2,0E0,7.604248E1,0E0,2.7244873E1,0E0,6.341675E0,0E0,0E0],"parents":[2147483647,0,0,2,2,4,4,6,6,8,8,10,10],"right_children":[2,-1,4,-1,6,-1,8,-1,10,-1,12,-1,-1],"split_conditions":[5E-1,-3.2215398E-2,5E-1,-3.2064714E-2,5E-1,-3.1627923E-2,5E-1,-3.0463634E-2,5E-1,-2.7588276E-2,5E-1,-1.8784001E-2,7.652414E-2],"split_indices":[44,0,63,0,23,0,9,0,73,0,1,0,0],"split_type":[0,0,0,0,0,0,0,0,0,0,0,0,0],"sum_hessian":[1.8879906E3,1.0811119E3,8.0687866E2,1.7287234E2,6.3400635E2,5.0884346E1,5.8312195E2,1.7075325E1,5.6604663E2,5.9232717E0,5.6012335E2,1.3945377E0,5.587288E2],"tree_param":{"num_deleted":"0","num_feature":"80","num_nodes":"13","size_leaf_vector":"0"}},{"base_weights":[-4.7932067E-3,-6.4432037E-1,8.667458E-1,-6.412549E-1,1.2668434E0,-6.3270867E-1,1.4316896E0,-6.125212E-1,1.5000751E0,-5.520838E-1,1.5225587E0,-4.575977E-1,1.5319502E0],"categories":[],"categories_nodes":[],"categories_segments":[],"categories_sizes":[],"default_left":[1,0,1,0,1,0,1,0,1,0,1,0,0],"id":13,"left_children":[1,-1,3,-1,5,-1,7,-1,9,-1,11,-1,-1],"loss_changes":[1.0682817E3,0E0,4.9023517E2,0E0,2.0175732E2,0E0,8.3468994E1,0E0,2.7218262E1,0E0,1.1222168E1,0E0,0E0],"parents":[2147483647,0,0,2,2,4,4,6,6,8,8,10,10],"right_children":[2,-1,4,-1,6,-1,8,-1,10,-1,12,-1,-1],"split_conditions":[5E-1,-3.221602E-2,5E-1,-3.2062747E-2,5E-1,-3.1635433E-2,5E-1,-3.0626059E-2,5E-1,-2.760419E-2,5E-1,-2.2879886E-2,7.659751E-2],"split_indices":[28,0,45,0,38,0,40,0,27,0,32,0,0],"split_type":[0,0,0,0,0,0,0,0,0,0,0,0,0],"sum_hessian":[1.9146355E3,1.1044564E3,8.101791E2,1.6975519E2,6.404239E2,5.0912437E1,5.895115E2,1.8825134E1,5.7068634E2,5.929447E0,5.6475684E2,2.4406033E0,5.623163E2],"tree_param":{"num_deleted":"0","num_feature":"80","num_nodes":"13","size_leaf_vector":"0"}},{"base_weights":[-6.595159E-3,-6.443261E-1,8.739845E-1,-6.414146E-1,1.2752554E0,-6.330925E-1,1.4464756E0,-6.0886395E-1,1.5079155E0,-5.470479E-1,1.5291946E0],"categories":[],"categories_nodes":[],"categories_segments":[],"categories_sizes":[],"default_left":[1,0,1,0,1,0,1,0,1,0,0],"id":14,"left_children":[1,-1,3,-1,5,-1,7,-1,9,-1,-1],"loss_changes":[1.0801716E3,0E0,4.9209894E2,0E0,2.0974207E2,0E0,7.501758E1,0E0,2.5763428E1,0E0,0E0],"parents":[2147483647,0,0,2,2,4,4,6,6,8,8],"right_children":[2,-1,4,-1,6,-1,8,-1,10,-1,-1],"split_conditions":[5E-1,-3.2216307E-2,5E-1,-3.207073E-2,5E-1,-3.1654626E-2,5E-1,-3.0443197E-2,5E-1,-2.7352396E-2,7.645973E-2],"split_indices":[62,0,7,0,17,0,0,0,56,0,0],"split_type":[0,0,0,0,0,0,0,0,0,0,0],"sum_hessian":[1.9214727E3,1.1145585E3,8.069141E2,1.6880893E2,6.3810516E2,5.231598E1,5.857892E2,1.6744007E1,5.690452E2,5.578815E0,5.634664E2],"tree_param":{"num_deleted":"0","num_feature":"80","num_nodes":"11","size_leaf_vector":"0"}},{"base_weights":[1.0580403E-3,-6.443128E-1,8.784642E-1,-6.41191E-1,1.2795159E0,-6.328023E-1,1.4452484E0,-6.0870415E-1,1.5065268E0,-5.518231E-1,1.5290896E0],"categories":[],"categories_nodes":[],"categories_segments":[],"categories_sizes":[],"default_left":[1,0,1,0,1,0,1,0,1,0,0],"id":15,"left_children":[1,-1,3,-1,5,-1,7,-1,9,-1,-1],"loss_changes":[1.0771298E3,0E0,4.921535E2,0E0,2.0317432E2,0E0,7.487244E1,0E0,2.7355225E1,0E0,0E0],"parents":[2147483647,0,0,2,2,4,4,6,6,8,8],"right_children":[2,-1,4,-1,6,-1,8,-1,10,-1,-1],"split_conditions":[5E-1,-3.221564E-2,5E-1,-3.205955E-2,5E-1,-3.1640116E-2,5E-1,-3.0435208E-2,5E-1,-2.7591154E-2,7.645448E-2],"split_indices":[64,0,58,0,55,0,18,0,72,0,0],"split_type":[0,0,0,0,0,0,0,0,0,0,0],"sum_hessian":[1.9002084E3,1.0950308E3,8.051776E2,1.6799942E2,6.3717816E2,5.059263E1,5.865856E2,1.673465E1,5.698509E2,5.9243903E0,5.639265E2],"tree_param":{"num_deleted":"0","num_feature":"80","num_nodes":"11","size_leaf_vector":"0"}},{"base_weights":[-5.048404E-3,-6.376406E-1,8.2932603E-1,-6.343518E-1,1.1923448E0,-6.2566495E-1,1.3425981E0,-6.030855E-1,1.4003507E0,-5.400349E-1,1.4195982E0,-3.6884108E-1,1.4244716E0],"categories":[],"categories_nodes":[],"categories_segments":[],"categories_sizes":[],"default_left":[1,0,1,0,1,0,1,0,1,0,1,0,0],"id":16,"left_children":[1,-1,3,-1,5,-1,7,-1,9,-1,11,-1,-1],"loss_changes":[9.910421E2,0E0,4.309726E2,0E0,1.7815454E2,0E0,6.825232E1,0E0,2.2536377E1,0E0,5.5583496E0,0E0,0E0],"parents":[2147483647,0,0,2,2,4,4,6,6,8,8,10,10],"right_children":[2,-1,4,-1,6,-1,8,-1,10,-1,12,-1,-1],"split_conditions":[5E-1,-3.188203E-2,5E-1,-3.171759E-2,5E-1,-3.128325E-2,5E-1,-3.0154277E-2,5E-1,-2.7001744E-2,5E-1,-1.8442055E-2,7.122358E-2],"split_indices":[70,0,33,0,9,0,39,0,71,0,22,0,0],"split_type":[0,0,0,0,0,0,0,0,0,0,0,0,0],"sum_hessian":[1.8756165E3,1.0669385E3,8.08678E2,1.6055974E2,6.481182E2,4.9234528E1,5.9888367E2,1.6991673E1,5.81892E2,5.4495854E0,5.7644244E2,1.3635534E0,5.7507886E2],"tree_param":{"num_deleted":"0","num_feature":"80","num_nodes":"13","size_leaf_vector":"0"}},{"base_weights":[1.0028986E-2,-6.3761336E-1,8.3019423E-1,-6.3450366E-1,1.1951925E0,-6.259036E-1,1.3405644E0,-6.0657656E-1,1.4034542E0,-5.393489E-1,1.4221711E0,-3.2312924E-1,1.4257298E0],"categories":[],"categories_nodes":[],"categories_segments":[],"categories_sizes":[],"default_left":[1,0,1,0,1,0,1,0,1,0,1,0,0],"id":17,"left_children":[1,-1,3,-1,5,-1,7,-1,9,-1,11,-1,-1],"loss_changes":[1.0018911E3,0E0,4.4568268E2,0E0,1.7730286E2,0E0,7.648047E1,0E0,2.253357E1,0E0,4.1447754E0,0E0,0E0],"parents":[2147483647,0,0,2,2,4,4,6,6,8,8,10,10],"right_children":[2,-1,4,-1,6,-1,8,-1,10,-1,12,-1,-1],"split_conditions":[5E-1,-3.188067E-2,5E-1,-3.1725183E-2,5E-1,-3.129518E-2,5E-1,-3.0328829E-2,5E-1,-2.6967445E-2,5E-1,-1.6156463E-2,7.128649E-2],"split_indices":[45,0,28,0,61,0,40,0,38,0,30,0,0],"split_type":[0,0,0,0,0,0,0,0,0,0,0,0,0],"sum_hessian":[1.8841869E3,1.0529493E3,8.312375E2,1.6567273E2,6.6556476E2,4.895776E1,6.16607E2,1.9021883E1,5.975851E2,5.4367733E0,5.921483E2,1.0222223E0,5.911261E2],"tree_param":{"num_deleted":"0","num_feature":"80","num_nodes":"13","size_leaf_vector":"0"}},{"base_weights":[-4.890557E-3,-6.376606E-1,8.307346E-1,-6.3457745E-1,1.2091062E0,-6.257386E-1,1.3597394E0,-5.966069E-1,1.408723E0,-5.2181834E-1,1.4244461E0],"categories":[],"categories_nodes":[],"categories_segments":[],"categories_sizes":[],"default_left":[1,0,1,0,1,0,1,0,1,0,0],"id":18,"left_children":[1,-1,3,-1,5,-1,7,-1,9,-1,-1],"loss_changes":[9.9487274E2,0E0,4.5030188E2,0E0,1.7905182E2,0E0,5.7968628E1,0E0,1.8405884E1,0E0,0E0],"parents":[2147483647,0,0,2,2,4,4,6,6,8,8],"right_children":[2,-1,4,-1,6,-1,8,-1,10,-1,-1],"split_conditions":[5E-1,-3.188303E-2,5E-1,-3.1728875E-2,5E-1,-3.1286933E-2,5E-1,-2.9830346E-2,5E-1,-2.6090918E-2,7.1222305E-2],"split_indices":[7,0,0,0,56,0,17,0,2,0,0],"split_type":[0,0,0,0,0,0,0,0,0,0,0],"sum_hessian":[1.8795238E3,1.0697224E3,8.0980133E2,1.6605324E2,6.437481E2,4.860023E1,5.951478E2,1.4264419E1,5.808834E2,4.432697E0,5.7645074E2],"tree_param":{"num_deleted":"0","num_feature":"80","num_nodes":"11","size_leaf_vector":"0"}},{"base_weights":[6.690678E-4,-6.376174E-1,8.2921934E-1,-6.34676E-1,1.1956263E0,-6.25993E-1,1.3439978E0,-6.053438E-1,1.4054881E0,-5.335823E-1,1.423251E0],"categories":[],"categories_nodes":[],"categories_segments":[],"categories_sizes":[],"default_left":[1,0,1,0,1,0,1,0,1,0,0],"id":19,"left_children":[1,-1,3,-1,5,-1,7,-1,9,-1,-1],"loss_changes":[1.00041614E3,0E0,4.4228204E2,0E0,1.7887598E2,0E0,7.3898926E1,0E0,2.111853E1,0E0,0E0],"parents":[2147483647,0,0,2,2,4,4,6,6,8,8],"right_children":[2,-1,4,-1,6,-1,8,-1,10,-1,-1],"split_conditions":[5E-1,-3.188087E-2,5E-1,-3.17338E-2,5E-1,-3.129965E-2,5E-1,-3.0267192E-2,5E-1,-2.6679117E-2,7.116255E-2],"split_indices":[64,0,52,0,53,0,18,0,68,0,0],"split_type":[0,0,0,0,0,0,0,0,0,0,0],"sum_hessian":[1.8896738E3,1.0675222E3,8.2215173E2,1.644394E2,6.5771234E2,4.9293747E1,6.084186E2,1.8334673E1,5.900839E2,5.0928264E0,5.849911E2],"tree_param":{"num_deleted":"0","num_feature":"80","num_nodes":"11","size_leaf_vector":"0"}},{"base_weights":[-4.758704E-3,-6.3123375E-1,7.828111E-1,-6.2794757E-1,1.1215825E0,-6.1891115E-1,1.2572516E0,-5.9798247E-1,1.3130523E0,-5.196944E-1,1.3283397E0,-3.9375013E-1,1.3338581E0],"categories":[],"categories_nodes":[],"categories_segments":[],"categories_sizes":[],"default_left":[1,0,1,0,1,0,1,0,1,0,1,0,0],"id":20,"left_children":[1,-1,3,-1,5,-1,7,-1,9,-1,11,-1,-1],"loss_changes":[9.0840735E2,0E0,3.9054688E2,0E0,1.5617834E2,0E0,6.40224E1,0E0,1.7314148E1,0E0,6.119751E0,0E0,0E0],"parents":[2147483647,0,0,2,2,4,4,6,6,8,8,10,10],"right_children":[2,-1,4,-1,6,-1,8,-1,10,-1,12,-1,-1],"split_conditions":[5E-1,-3.1561688E-2,5E-1,-3.139738E-2,5E-1,-3.0945558E-2,5E-1,-2.9899124E-2,5E-1,-2.598472E-2,5E-1,-1.9687507E-2,6.669291E-2],"split_indices":[23,0,73,0,37,0,3,0,47,0,70,0,0],"split_type":[0,0,0,0,0,0,0,0,0,0,0,0,0],"sum_hessian":[1.8391428E3,1.024444E3,8.1469885E2,1.5758945E2,6.571094E2,4.7259335E1,6.0985004E2,1.7523418E1,5.923266E2,4.626939E0,5.876997E2,1.6525317E0,5.860472E2],"tree_param":{"num_deleted":"0","num_feature":"80","num_nodes":"13","size_leaf_vector":"0"}},{"base_weights":[1.0168126E-3,-6.312364E-1,7.7748615E-1,-6.280967E-1,1.1184251E0,-6.1978614E-1,1.2587504E0,-5.988349E-1,1.3138808E0,-5.316346E-1,1.3308225E0,-3.5969308E-1,1.3350995E0],"categories":[],"categories_nodes":[],"categories_segments":[],"categories_sizes":[],"default_left":[1,0,1,0,1,0,1,0,1,0,1,0,0],"id":21,"left_children":[1,-1,3,-1,5,-1,7,-1,9,-1,11,-1,-1],"loss_changes":[9.256675E2,0E0,4.062466E2,0E0,1.6698944E2,0E0,6.539191E1,0E0,1.9873047E1,0E0,4.8740234E0,0E0,0E0],"parents":[2147483647,0,0,2,2,4,4,6,6,8,8,10,10],"right_children":[2,-1,4,-1,6,-1,8,-1,10,-1,12,-1,-1],"split_conditions":[5E-1,-3.1561818E-2,5E-1,-3.1404834E-2,5E-1,-3.0989308E-2,5E-1,-2.9941743E-2,5E-1,-2.6581733E-2,5E-1,-1.7984655E-2,6.6754974E-2],"split_indices":[30,0,40,0,35,0,75,0,51,0,15,0,0],"split_type":[0,0,0,0,0,0,0,0,0,0,0,0,0],"sum_hessian":[1.8835575E3,1.0382953E3,8.4526227E2,1.6483948E2,6.804228E2,5.0571854E1,6.2985095E2,1.7869982E1,6.1198096E2,5.2904744E0,6.066905E2,1.3213613E0,6.0536914E2],"tree_param":{"num_deleted":"0","num_feature":"80","num_nodes":"13","size_leaf_vector":"0"}},{"base_weights":[1.5509702E-3,-6.312535E-1,7.985266E-1,-6.2797666E-1,1.1361505E0,-6.1854374E-1,1.2685978E0,-5.9370625E-1,1.3167263E0,-5.1997066E-1,1.3318331E0],"categories":[],"categories_nodes":[],"categories_segments":[],"categories_sizes":[],"default_left":[1,0,1,0,1,0,1,0,1,0,0],"id":22,"left_children":[1,-1,3,-1,5,-1,7,-1,9,-1,-1],"loss_changes":[9.3470966E2,0E0,3.957779E2,0E0,1.5501959E2,0E0,5.611914E1,0E0,1.740039E1,0E0,0E0],"parents":[2147483647,0,0,2,2,4,4,6,6,8,8],"right_children":[2,-1,4,-1,6,-1,8,-1,10,-1,-1],"split_conditions":[5E-1,-3.1562675E-2,5E-1,-3.1398833E-2,5E-1,-3.0927187E-2,5E-1,-2.9685313E-2,5E-1,-2.5998533E-2,6.659166E-2],"split_indices":[19,0,0,0,7,0,11,0,77,0,0],"split_type":[0,0,0,0,0,0,0,0,0,0,0],"sum_hessian":[1.8513706E3,1.032091E3,8.192797E2,1.5663158E2,6.6264813E2,4.62498E1,6.163984E2,1.5243013E1,6.0115533E2,4.631515E0,5.965238E2],"tree_param":{"num_deleted":"0","num_feature":"80","num_nodes":"11","size_leaf_vector":"0"}},{"base_weights":[-3.1817153E-3,-6.312431E-1,7.8359383E-1,-6.2806785E-1,1.1317453E0,-6.1968225E-1,1.2722809E0,-5.914963E-1,1.3187482E0,-5.129866E-1,1.3329219E0],"categories":[],"categories_nodes":[],"categories_segments":[],"categories_sizes":[],"default_left":[1,0,1,0,1,0,1,0,1,0,0],"id":23,"left_children":[1,-1,3,-1,5,-1,7,-1,9,-1,-1],"loss_changes":[9.147569E2,0E0,4.0458713E2,0E0,1.6312903E2,0E0,5.3685608E1,0E0,1.6166138E1,0E0,0E0],"parents":[2147483647,0,0,2,2,4,4,6,6,8,8],"right_children":[2,-1,4,-1,6,-1,8,-1,10,-1,-1],"split_conditions":[5E-1,-3.1562157E-2,5E-1,-3.1403393E-2,5E-1,-3.0984113E-2,5E-1,-2.9574815E-2,5E-1,-2.564933E-2,6.664609E-2],"split_indices":[36,0,64,0,72,0,53,0,26,0,0],"split_type":[0,0,0,0,0,0,0,0,0,0,0],"sum_hessian":[1.8491964E3,1.0284281E3,8.207684E2,1.6221715E2,6.585512E2,4.8664112E1,6.098871E2,1.4550363E1,5.9533673E2,4.3010345E0,5.910357E2],"tree_param":{"num_deleted":"0","num_feature":"80","num_nodes":"11","size_leaf_vector":"0"}},{"base_weights":[-5.9859534E-3,-6.25069E-1,7.4397045E-1,-6.220569E-1,1.0735205E0,-6.125202E-1,1.1950024E0,-5.8865106E-1,1.2411976E0,-5.1241916E-1,1.2550814E0],"categories":[],"categories_nodes":[],"categories_segments":[],"categories_sizes":[],"default_left":[1,0,1,0,1,0,1,0,1,0,0],"id":24,"left_children":[1,-1,3,-1,5,-1,7,-1,9,-1,-1],"loss_changes":[8.5418756E2,0E0,3.7519547E2,0E0,1.3809265E2,0E0,5.230194E1,0E0,1.5504883E1,0E0,0E0],"parents":[2147483647,0,0,2,2,4,4,6,6,8,8],"right_children":[2,-1,4,-1,6,-1,8,-1,10,-1,-1],"split_conditions":[5E-1,-3.1253453E-2,5E-1,-3.1102845E-2,5E-1,-3.0626012E-2,5E-1,-2.9432554E-2,5E-1,-2.5620958E-2,6.275407E-2],"split_indices":[73,0,37,0,9,0,5,0,70,0,0],"split_type":[0,0,0,0,0,0,0,0,0,0,0],"sum_hessian":[1.8377885E3,1.00682715E3,8.309613E2,1.6133199E2,6.6962933E2,4.473349E1,6.248958E2,1.5479263E1,6.0941656E2,4.504942E0,6.049116E2],"tree_param":{"num_deleted":"0","num_feature":"80","num_nodes":"11","size_leaf_vector":"0"}},{"base_weights":[-2.5906777E-3,-6.2505627E-1,7.5126314E-1,-6.220084E-1,1.0710772E0,-6.1229974E-1,1.191555E0,-5.8931524E-1,1.2391793E0,-5.185834E-1,1.2539643E0],"categories":[],"categories_nodes":[],"categories_segments":[],"categories_sizes":[],"default_left":[1,0,1,0,1,0,1,0,1,0,0],"id":25,"left_children":[1,-1,3,-1,5,-1,7,-1,9,-1,-1],"loss_changes":[8.619983E2,0E0,3.6555017E2,0E0,1.374721E2,0E0,5.412378E1,0E0,1.6593689E1,0E0,0E0],"parents":[2147483647,0,0,2,2,4,4,6,6,8,8],"right_children":[2,-1,4,-1,6,-1,8,-1,10,-1,-1],"split_conditions":[5E-1,-3.1252813E-2,5E-1,-3.110042E-2,5E-1,-3.0614987E-2,5E-1,-2.9465763E-2,5E-1,-2.5929172E-2,6.2698215E-2],"split_indices":[28,0,12,0,32,0,61,0,14,0,0],"split_type":[0,0,0,0,0,0,0,0,0,0,0],"sum_hessian":[1.8349769E3,1.0051687E3,8.298083E2,1.5656747E2,6.732408E2,4.4692513E1,6.285483E2,1.6074642E1,6.1247363E2,4.8245244E0,6.076491E2],"tree_param":{"num_deleted":"0","num_feature":"80","num_nodes":"11","size_leaf_vector":"0"}},{"base_weights":[-9.256938E-3,-6.251141E-1,7.560468E-1,-6.2184536E-1,1.0754302E0,-6.118633E-1,1.1938622E0,-5.896237E-1,1.2400955E0,-5.143143E-1,1.2540357E0],"categories":[],"categories_nodes":[],"categories_segments":[],"categories_sizes":[],"default_left":[1,0,1,0,1,0,1,0,1,0,0],"id":26,"left_children":[1,-1,3,-1,5,-1,7,-1,9,-1,-1],"loss_changes":[8.7376276E2,0E0,3.6445465E2,0E0,1.349076E2,0E0,5.2493774E1,0E0,1.5617859E1,0E0,0E0],"parents":[2147483647,0,0,2,2,4,4,6,6,8,8],"right_children":[2,-1,4,-1,6,-1,8,-1,10,-1,-1],"split_conditions":[5E-1,-3.1255703E-2,5E-1,-3.109227E-2,5E-1,-3.0593166E-2,5E-1,-2.9481186E-2,5E-1,-2.5715714E-2,6.2701784E-2],"split_indices":[19,0,0,0,7,0,56,0,60,0,0],"split_type":[0,0,0,0,0,0,0,0,0,0,0],"sum_hessian":[1.8518691E3,1.0262255E3,8.256436E2,1.5518657E2,6.7045703E2,4.370002E1,6.26757E2,1.5539899E1,6.112171E2,4.5353622E0,6.0668176E2],"tree_param":{"num_deleted":"0","num_feature":"80","num_nodes":"11","size_leaf_vector":"0"}},{"base_weights":[-1.4464068E-3,-6.2510234E-1,7.5150377E-1,-6.219089E-1,1.063082E0,-6.132841E-1,1.1918861E0,-5.905257E-1,1.2403857E0,-5.1818746E-1,1.2550945E0],"categories":[],"categories_nodes":[],"categories_segments":[],"categories_sizes":[],"default_left":[1,0,1,0,1,0,1,0,1,0,0],"id":27,"left_children":[1,-1,3,-1,5,-1,7,-1,9,-1,-1],"loss_changes":[8.6509735E2,0E0,3.5781674E2,0E0,1.4770056E2,0E0,5.5403625E1,0E0,1.658429E1,0E0,0E0],"parents":[2147483647,0,0,2,2,4,4,6,6,8,8],"right_children":[2,-1,4,-1,6,-1,8,-1,10,-1,-1],"split_conditions":[5E-1,-3.125512E-2,5E-1,-3.1095445E-2,5E-1,-3.0664206E-2,5E-1,-2.9526284E-2,5E-1,-2.5909374E-2,6.275473E-2],"split_indices":[53,0,18,0,10,0,34,0,52,0,0],"split_type":[0,0,0,0,0,0,0,0,0,0,0],"sum_hessian":[1.8402714E3,1.0066499E3,8.336214E2,1.5396397E2,6.796574E2,4.8227158E1,6.3143024E2,1.6430088E1,6.150002E2,4.8173375E0,6.101828E2],"tree_param":{"num_deleted":"0","num_feature":"80","num_nodes":"11","size_leaf_vector":"0"}},{"base_weights":[1.0469311E-3,-6.192135E-1,7.1118164E-1,-6.1608106E-1,1.0074362E0,-6.0720164E-1,1.1251473E0,-5.834273E-1,1.1694065E0,-5.216496E-1,1.1846542E0,-3.77759E-1,1.1891868E0],"categories":[],"categories_nodes":[],"categories_segments":[],"categories_sizes":[],"default_left":[1,0,1,0,1,0,1,0,1,0,1,0,0],"id":28,"left_children":[1,-1,3,-1,5,-1,7,-1,9,-1,11,-1,-1],"loss_changes":[7.974968E2,0E0,3.325374E2,0E0,1.3191486E2,0E0,4.937451E1,0E0,1.681018E1,0E0,4.85907E0,0E0,0E0],"parents":[2147483647,0,0,2,2,4,4,6,6,8,8,10,10],"right_children":[2,-1,4,-1,6,-1,8,-1,10,-1,12,-1,-1],"split_conditions":[5E-1,-3.0960677E-2,5E-1,-3.0804053E-2,5E-1,-3.0360082E-2,5E-1,-2.9171366E-2,5E-1,-2.608248E-2,5E-1,-1.888795E-2,5.945934E-2],"split_indices":[42,0,22,0,31,0,39,0,9,0,1,0,0],"split_type":[0,0,0,0,0,0,0,0,0,0,0,0,0],"sum_hessian":[1.8085653E3,9.654394E2,8.431259E2,1.5365407E2,6.894718E2,4.6566277E1,6.429056E2,1.5925837E1,6.2697974E2,5.3059735E0,6.2167377E2,1.5600778E0,6.2011365E2],"tree_param":{"num_deleted":"0","num_feature":"80","num_nodes":"13","size_leaf_vector":"0"}},{"base_weights":[9.72273E-4,-6.1921895E-1,7.2603846E-1,-6.1584044E-1,1.0152384E0,-6.067251E-1,1.1291034E0,-5.853308E-1,1.1756481E0,-4.979492E-1,1.187249E0],"categories":[],"categories_nodes":[],"categories_segments":[],"categories_sizes":[],"default_left":[1,0,1,0,1,0,1,0,1,0,0],"id":29,"left_children":[1,-1,3,-1,5,-1,7,-1,9,-1,-1],"loss_changes":[8.245055E2,0E0,3.2866144E2,0E0,1.2918866E2,0E0,5.259723E1,0E0,1.2893494E1,0E0,0E0],"parents":[2147483647,0,0,2,2,4,4,6,6,8,8],"right_children":[2,-1,4,-1,6,-1,8,-1,10,-1,-1],"split_conditions":[5E-1,-3.0960947E-2,5E-1,-3.0792022E-2,5E-1,-3.0336255E-2,5E-1,-2.926654E-2,5E-1,-2.4897462E-2,5.936245E-2],"split_indices":[66,0,40,0,35,0,28,0,15,0,0],"split_type":[0,0,0,0,0,0,0,0,0,0,0],"sum_hessian":[1.8315398E3,9.872411E2,8.4429865E2,1.494989E2,6.9479974E2,4.529278E1,6.49507E2,1.6861252E1,6.3264575E2,4.0665317E0,6.285792E2],"tree_param":{"num_deleted":"0","num_feature":"80","num_nodes":"11","size_leaf_vector":"0"}},{"base_weights":[1.7458323E-4,-6.1923325E-1,7.1527594E-1,-6.1608064E-1,1.0062426E0,-6.069221E-1,1.1224979E0,-5.8517534E-1,1.1694311E0,-5.167933E-1,1.1838484E0,-4.041995E-1,1.1893097E0],"categories":[],"categories_nodes":[],"categories_segments":[],"categories_sizes":[],"default_left":[1,0,1,0,1,0,1,0,1,0,1,0,0],"id":30,"left_children":[1,-1,3,-1,5,-1,7,-1,9,-1,11,-1,-1],"loss_changes":[7.999631E2,0E0,3.25347E2,0E0,1.297641E2,0E0,5.2169006E1,0E0,1.5819031E1,0E0,5.8624268E0,0E0,0E0],"parents":[2147483647,0,0,2,2,4,4,6,6,8,8,10,10],"right_children":[2,-1,4,-1,6,-1,8,-1,10,-1,12,-1,-1],"split_conditions":[5E-1,-3.0961663E-2,5E-1,-3.0804032E-2,5E-1,-3.0346105E-2,5E-1,-2.9258767E-2,5E-1,-2.5839666E-2,5E-1,-2.0209976E-2,5.9465487E-2],"split_indices":[29,0,74,0,2,0,19,0,77,0,11,0,0],"split_type":[0,0,0,0,0,0,0,0,0,0,0,0,0],"sum_hessian":[1.8040328E3,9.6676904E2,8.3726373E2,1.4996442E2,6.872993E2,4.5917984E1,6.4138135E2,1.684928E1,6.245321E2,4.9991016E0,6.1953296E2,1.8730354E0,6.1766E2],"tree_param":{"num_deleted":"0","num_feature":"80","num_nodes":"13","size_leaf_vector":"0"}},{"base_weights":[5.644455E-3,-6.191805E-1,7.3113257E-1,-6.1633873E-1,1.0234822E0,-6.0690784E-1,1.1388981E0,-5.7823783E-1,1.1759768E0,-4.9084473E-1,1.1866084E0],"categories":[],"categories_nodes":[],"categories_segments":[],"categories_sizes":[],"default_left":[1,0,1,0,1,0,1,0,1,0,0],"id":31,"left_children":[1,-1,3,-1,5,-1,7,-1,9,-1,-1],"loss_changes":[8.338856E2,0E0,3.3595267E2,0E0,1.3238147E2,0E0,4.231433E1,0E0,1.19313965E1,0E0,0E0],"parents":[2147483647,0,0,2,2,4,4,6,6,8,8],"right_children":[2,-1,4,-1,6,-1,8,-1,10,-1,-1],"split_conditions":[5E-1,-3.0959025E-2,5E-1,-3.0816937E-2,5E-1,-3.0345393E-2,5E-1,-2.8911892E-2,5E-1,-2.4542237E-2,5.9330422E-2],"split_indices":[64,0,69,0,72,0,68,0,18,0,0],"split_type":[0,0,0,0,0,0,0,0,0,0,0],"sum_hessian":[1.8375776E3,9.873614E2,8.502162E2,1.5138017E2,6.9883606E2,4.59188E1,6.5291724E2,1.349217E1,6.3942505E2,3.766404E0,6.356587E2],"tree_param":{"num_deleted":"0","num_feature":"80","num_nodes":"11","size_leaf_vector":"0"}},{"base_weights":[-1.1590373E-3,-6.1358154E-1,6.9122046E-1,-6.105369E-1,9.795414E-1,-5.9927255E-1,1.0767069E0,-5.747457E-1,1.1146564E0,-5.0394315E-1,1.1271061E0],"categories":[],"categories_nodes":[],"categories_segments":[],"categories_sizes":[],"default_left":[1,0,1,0,1,0,1,0,1,0,0],"id":32,"left_children":[1,-1,3,-1,5,-1,7,-1,9,-1,-1],"loss_changes":[7.619181E2,0E0,3.1713626E2,0E0,1.0662317E2,0E0,4.144867E1,0E0,1.3401245E1,0E0,0E0],"parents":[2147483647,0,0,2,2,4,4,6,6,8,8],"right_children":[2,-1,4,-1,6,-1,8,-1,10,-1,-1],"split_conditions":[5E-1,-3.0679077E-2,5E-1,-3.0526845E-2,5E-1,-2.9963627E-2,5E-1,-2.8737286E-2,5E-1,-2.5197158E-2,5.6355305E-2],"split_indices":[37,0,71,0,73,0,39,0,63,0,0],"split_type":[0,0,0,0,0,0,0,0,0,0,0],"sum_hessian":[1.7948545E3,9.5248114E2,8.4237335E2,1.5254071E2,6.8983264E2,3.9693684E1,6.50139E2,1.4286523E1,6.358525E2,4.5520606E0,6.313004E2],"tree_param":{"num_deleted":"0","num_feature":"80","num_nodes":"11","size_leaf_vector":"0"}},{"base_weights":[-9.437542E-3,-6.135773E-1,6.7987686E-1,-6.103393E-1,9.727816E-1,-6.00412E-1,1.0776664E0,-5.751971E-1,1.1169225E0,-4.909308E-1,1.1278964E0],"categories":[],"categories_nodes":[],"categories_segments":[],"categories_sizes":[],"default_left":[1,0,1,0,1,0,1,0,1,0,0],"id":33,"left_children":[1,-1,3,-1,5,-1,7,-1,9,-1,-1],"loss_changes":[7.4907715E2,0E0,3.180986E2,0E0,1.1369147E2,0E0,4.2339966E1,0E0,1.1635742E1,0E0,0E0],"parents":[2147483647,0,0,2,2,4,4,6,6,8,8],"right_children":[2,-1,4,-1,6,-1,8,-1,10,-1,-1],"split_conditions":[5E-1,-3.0678866E-2,5E-1,-3.0516965E-2,5E-1,-3.00206E-2,5E-1,-2.8759856E-2,5E-1,-2.454654E-2,5.6394823E-2],"split_indices":[12,0,28,0,32,0,61,0,14,0,0],"split_type":[0,0,0,0,0,0,0,0,0,0,0],"sum_hessian":[1.7967523E3,9.5759326E2,8.3915906E2,1.5505843E2,6.8410065E2,4.246301E1,6.4163763E2,1.4568834E1,6.270688E2,3.9543724E0,6.231144E2],"tree_param":{"num_deleted":"0","num_feature":"80","num_nodes":"11","size_leaf_vector":"0"}},{"base_weights":[8.369276E-4,-6.135673E-1,6.920785E-1,-6.103017E-1,9.5791656E-1,-6.018469E-1,1.0698477E0,-5.829115E-1,1.1189445E0,-4.725621E-1,1.1280997E0],"categories":[],"categories_nodes":[],"categories_segments":[],"categories_sizes":[],"default_left":[1,0,1,0,1,0,1,0,1,0,0],"id":34,"left_children":[1,-1,3,-1,5,-1,7,-1,9,-1,-1],"loss_changes":[7.59491E2,0E0,2.9193936E2,0E0,1.22725464E2,0E0,5.3623962E1,0E0,9.775391E0,0E0,0E0],"parents":[2147483647,0,0,2,2,4,4,6,6,8,8],"right_children":[2,-1,4,-1,6,-1,8,-1,10,-1,-1],"split_conditions":[5E-1,-3.0678365E-2,5E-1,-3.0515084E-2,5E-1,-3.0092344E-2,5E-1,-2.9145574E-2,5E-1,-2.3628106E-2,5.6404985E-2],"split_indices":[62,0,74,0,11,0,77,0,29,0,0],"split_type":[0,0,0,0,0,0,0,0,0,0,0],"sum_hessian":[1.7862931E3,9.4576776E2,8.405253E2,1.4226285E2,6.982625E2,4.646029E1,6.518022E2,1.8490143E1,6.333121E2,3.3327813E0,6.2997925E2],"tree_param":{"num_deleted":"0","num_feature":"80","num_nodes":"11","size_leaf_vector":"0"}},{"base_weights":[-3.9014465E-3,-6.135897E-1,6.806696E-1,-6.104274E-1,9.615946E-1,-6.01745E-1,1.0738194E0,-5.78386E-1,1.1164382E0,-4.9188787E-1,1.1273121E0],"categories":[],"categories_nodes":[],"categories_segments":[],"categories_sizes":[],"default_left":[1,0,1,0,1,0,1,0,1,0,0],"id":35,"left_children":[1,-1,3,-1,5,-1,7,-1,9,-1,-1],"loss_changes":[7.5337134E2,0E0,3.089908E2,0E0,1.2323602E2,0E0,4.657715E1,0E0,1.16813965E1,0E0,0E0],"parents":[2147483647,0,0,2,2,4,4,6,6,8,8],"right_children":[2,-1,4,-1,6,-1,8,-1,10,-1,-1],"split_conditions":[5E-1,-3.0679485E-2,5E-1,-3.0521369E-2,5E-1,-3.0087251E-2,5E-1,-2.89193E-2,5E-1,-2.4594394E-2,5.6365605E-2],"split_indices":[53,0,18,0,72,0,64,0,20,0,0],"split_type":[0,0,0,0,0,0,0,0,0,0,0],"sum_hessian":[1.8030222E3,9.537253E2,8.4929694E2,1.5156227E2,6.977347E2,4.644026E1,6.5129443E2,1.6061615E1,6.352328E2,3.9688969E0,6.312639E2],"tree_param":{"num_deleted":"0","num_feature":"80","num_nodes":"11","size_leaf_vector":"0"}},{"base_weights":[-1.9358379E-3,-6.0817933E-1,6.6718847E-1,-6.04745E-1,9.24095E-1,-5.9465677E-1,1.0206053E0,-5.71565E-1,1.0577117E0,-5.177565E-1,1.0724825E0,-3.893402E-1,1.0771883E0],"categories":[],"categories_nodes":[],"categories_segments":[],"categories_sizes":[],"default_left":[1,0,1,0,1,0,1,0,1,0,1,0,0],"id":36,"left_children":[1,-1,3,-1,5,-1,7,-1,9,-1,11,-1,-1],"loss_changes":[7.1269305E2,0E0,2.7345697E2,0E0,1.02506226E2,0E0,3.9244446E1,0E0,1.5436707E1,0E0,4.779846E0,0E0,0E0],"parents":[2147483647,0,0,2,2,4,4,6,6,8,8,10,10],"right_children":[2,-1,4,-1,6,-1,8,-1,10,-1,12,-1,-1],"split_conditions":[5E-1,-3.0408967E-2,5E-1,-3.0237248E-2,5E-1,-2.9732838E-2,5E-1,-2.857825E-2,5E-1,-2.5887826E-2,5E-1,-1.946701E-2,5.3859413E-2],"split_indices":[70,0,37,0,73,0,33,0,71,0,16,0,0],"split_type":[0,0,0,0,0,0,0,0,0,0,0,0,0],"sum_hessian":[1.7549062E3,9.207629E2,8.341434E2,1.3994208E2,6.942013E2,4.116947E1,6.530318E2,1.45445795E1,6.3848724E2,5.6142287E0,6.32873E2,1.7684894E0,6.311045E2],"tree_param":{"num_deleted":"0","num_feature":"80","num_nodes":"13","size_leaf_vector":"0"}},{"base_weights":[5.311853E-3,-6.0813755E-1,6.671982E-1,-6.0504806E-1,9.271049E-1,-5.9521157E-1,1.0246422E0,-5.705905E-1,1.0611179E0,-5.0766927E-1,1.0740944E0],"categories":[],"categories_nodes":[],"categories_segments":[],"categories_sizes":[],"default_left":[1,0,1,0,1,0,1,0,1,0,0],"id":37,"left_children":[1,-1,3,-1,5,-1,7,-1,9,-1,-1],"loss_changes":[7.1663007E2,0E0,2.812812E2,0E0,1.05340454E2,0E0,3.919702E1,0E0,1.375238E1,0E0,0E0],"parents":[2147483647,0,0,2,2,4,4,6,6,8,8],"right_children":[2,-1,4,-1,6,-1,8,-1,10,-1,-1],"split_conditions":[5E-1,-3.0406877E-2,5E-1,-3.0252403E-2,5E-1,-2.9760579E-2,5E-1,-2.8529525E-2,5E-1,-2.5383463E-2,5.370472E-2],"split_indices":[28,0,15,0,12,0,14,0,32,0,0],"split_type":[0,0,0,0,0,0,0,0,0,0,0],"sum_hessian":[1.7629525E3,9.1499664E2,8.479559E2,1.4361769E2,7.0433813E2,4.2103565E1,6.6223456E2,1.4476408E1,6.477582E2,5.0013638E0,6.4275684E2],"tree_param":{"num_deleted":"0","num_feature":"80","num_nodes":"11","size_leaf_vector":"0"}},{"base_weights":[-1.3211356E-3,-6.081867E-1,6.70494E-1,-6.047641E-1,9.27394E-1,-5.9533316E-1,1.0229261E0,-5.7160217E-1,1.0603528E0,-5.127038E-1,1.0741814E0,-3.295455E-1,1.0772843E0],"categories":[],"categories_nodes":[],"categories_segments":[],"categories_sizes":[],"default_left":[1,0,1,0,1,0,1,0,1,0,1,0,0],"id":38,"left_children":[1,-1,3,-1,5,-1,7,-1,9,-1,11,-1,-1],"loss_changes":[7.234695E2,0E0,2.7647308E2,0E0,1.02637024E2,0E0,4.0013428E1,0E0,1.4593384E1,0E0,3.1436768E0,0E0,0E0],"parents":[2147483647,0,0,2,2,4,4,6,6,8,8,10,10],"right_children":[2,-1,4,-1,6,-1,8,-1,10,-1,12,-1,-1],"split_conditions":[5E-1,-3.0409336E-2,5E-1,-3.0238206E-2,5E-1,-2.9766658E-2,5E-1,-2.8580109E-2,5E-1,-2.5635188E-2,5E-1,-1.6477276E-2,5.386422E-2],"split_indices":[19,0,0,0,76,0,62,0,67,0,11,0,0],"split_type":[0,0,0,0,0,0,0,0,0,0,0,0,0],"sum_hessian":[1.7725077E3,9.313201E2,8.4118756E2,1.4081651E2,7.0037103E2,4.1036762E1,6.593342E2,1.4793631E1,6.4454065E2,5.3023853E0,6.392382E2,1.177856E0,6.3806036E2],"tree_param":{"num_deleted":"0","num_feature":"80","num_nodes":"13","size_leaf_vector":"0"}},{"base_weights":[3.812012E-3,-6.081643E-1,6.6292155E-1,-6.0495156E-1,9.193174E-1,-5.959666E-1,1.0226454E0,-5.728699E-1,1.0625919E0,-5.022243E-1,1.0750016E0],"categories":[],"categories_nodes":[],"categories_segments":[],"categories_sizes":[],"default_left":[1,0,1,0,1,0,1,0,1,0,0],"id":39,"left_children":[1,-1,3,-1,5,-1,7,-1,9,-1,-1],"loss_changes":[7.0261346E2,0E0,2.731835E2,0E0,1.0989319E2,0E0,4.227832E1,0E0,1.2932678E1,0E0,0E0],"parents":[2147483647,0,0,2,2,4,4,6,6,8,8],"right_children":[2,-1,4,-1,6,-1,8,-1,10,-1,-1],"split_conditions":[5E-1,-3.0408217E-2,5E-1,-3.0247578E-2,5E-1,-2.9798329E-2,5E-1,-2.8643494E-2,5E-1,-2.5111217E-2,5.375008E-2],"split_indices":[53,0,20,0,79,0,69,0,49,0,0],"split_type":[0,0,0,0,0,0,0,0,0,0,0],"sum_hessian":[1.7399045E3,9.022511E2,8.3765344E2,1.4067224E2,6.969812E2,4.418907E1,6.527921E2,1.5618758E1,6.371734E2,4.702782E0,6.324706E2],"tree_param":{"num_deleted":"0","num_feature":"80","num_nodes":"11","size_leaf_vector":"0"}},{"base_weights":[4.3455763E-3,-6.029952E-1,6.3656974E-1,-5.9974957E-1,8.880347E-1,-5.9029037E-1,9.791528E-1,-5.678605E-1,1.0156016E0,-5.106912E-1,1.0292401E0],"categories":[],"categories_nodes":[],"categories_segments":[],"categories_sizes":[],"default_left":[1,0,1,0,1,0,1,0,1,0,0],"id":40,"left_children":[1,-1,3,-1,5,-1,7,-1,9,-1,-1],"loss_changes":[6.6640607E2,0E0,2.648982E2,0E0,9.581586E1,0E0,3.815033E1,0E0,1.40849E1,0E0,0E0],"parents":[2147483647,0,0,2,2,4,4,6,6,8,8],"right_children":[2,-1,4,-1,6,-1,8,-1,10,-1,-1],"split_conditions":[5E-1,-3.0149762E-2,5E-1,-2.9987479E-2,5E-1,-2.951452E-2,5E-1,-2.8393025E-2,5E-1,-2.553456E-2,5.1462006E-2],"split_indices":[73,0,37,0,71,0,1,0,3,0,0],"split_type":[0,0,0,0,0,0,0,0,0,0,0],"sum_hessian":[1.7335435E3,8.841951E2,8.4934827E2,1.4332254E2,7.0602576E2,4.06721E1,6.6535364E2,1.4979826E1,6.5037384E2,5.437285E0,6.449365E2],"tree_param":{"num_deleted":"0","num_feature":"80","num_nodes":"11","size_leaf_vector":"0"}},{"base_weights":[4.938231E-3,-6.0303617E-1,6.4300025E-1,-5.996954E-1,8.838393E-1,-5.903988E-1,9.7990113E-1,-5.664452E-1,1.0162569E0,-5.0069934E-1,1.0284653E0],"categories":[],"categories_nodes":[],"categories_segments":[],"categories_sizes":[],"default_left":[1,0,1,0,1,0,1,0,1,0,0],"id":41,"left_children":[1,-1,3,-1,5,-1,7,-1,9,-1,-1],"loss_changes":[6.694577E2,0E0,2.5254092E2,0E0,1.0052374E2,0E0,3.7845276E1,0E0,1.2517029E1,0E0,0E0],"parents":[2147483647,0,0,2,2,4,4,6,6,8,8],"right_children":[2,-1,4,-1,6,-1,8,-1,10,-1,-1],"split_conditions":[5E-1,-3.0151809E-2,5E-1,-2.998477E-2,5E-1,-2.951994E-2,5E-1,-2.8322259E-2,5E-1,-2.5034968E-2,5.1423263E-2],"split_indices":[14,0,45,0,66,0,54,0,61,0,0],"split_type":[0,0,0,0,0,0,0,0,0,0,0],"sum_hessian":[1.7237388E3,8.827088E2,8.4103E2,1.3629208E2,7.047379E2,4.2796967E1,6.61941E2,1.4870327E1,6.470706E2,4.8465567E0,6.4222406E2],"tree_param":{"num_deleted":"0","num_feature":"80","num_nodes":"11","size_leaf_vector":"0"}},{"base_weights":[-5.1983576E-3,-6.0302323E-1,6.3870406E-1,-5.9957397E-1,8.8776255E-1,-5.895435E-1,9.810853E-1,-5.6746525E-1,1.0179809E0,-4.9227598E-1,1.0291641E0],"categories":[],"categories_nodes":[],"categories_segments":[],"categories_sizes":[],"default_left":[1,0,1,0,1,0,1,0,1,0,0],"id":42,"left_children":[1,-1,3,-1,5,-1,7,-1,9,-1,-1],"loss_changes":[6.603684E2,0E0,2.5525146E2,0E0,9.543414E1,0E0,3.757361E1,0E0,1.1194519E1,0E0,0E0],"parents":[2147483647,0,0,2,2,4,4,6,6,8,8],"right_children":[2,-1,4,-1,6,-1,8,-1,10,-1,-1],"split_conditions":[5E-1,-3.0151162E-2,5E-1,-2.9978698E-2,5E-1,-2.9477177E-2,5E-1,-2.8373262E-2,5E-1,-2.46138E-2,5.1458206E-2],"split_indices":[19,0,0,0,7,0,56,0,60,0,0],"split_type":[0,0,0,0,0,0,0,0,0,0,0],"sum_hessian":[1.7135055E3,8.8857776E2,8.2492773E2,1.379007E2,6.8702704E2,4.0505447E1,6.465216E2,1.4710832E1,6.318108E2,4.3278666E0,6.274829E2],"tree_param":{"num_deleted":"0","num_feature":"80","num_nodes":"11","size_leaf_vector":"0"}},{"base_weights":[1.6980373E-3,-6.029991E-1,6.465712E-1,-5.99859E-1,8.919128E-1,-5.8992594E-1,9.8532635E-1,-5.624124E-1,1.0170679E0,-5.020445E-1,1.0293303E0],"categories":[],"categories_nodes":[],"categories_segments":[],"categories_sizes":[],"default_left":[1,0,1,0,1,0,1,0,1,0,0],"id":43,"left_children":[1,-1,3,-1,5,-1,7,-1,9,-1,-1],"loss_changes":[6.787205E2,0E0,2.5810458E2,0E0,9.805322E1,0E0,3.313257E1,0E0,1.2621399E1,0E0,0E0],"parents":[2147483647,0,0,2,2,4,4,6,6,8,8],"right_children":[2,-1,4,-1,6,-1,8,-1,10,-1,-1],"split_conditions":[5E-1,-3.0149955E-2,5E-1,-2.9992951E-2,5E-1,-2.9496297E-2,5E-1,-2.812062E-2,5E-1,-2.5102226E-2,5.1466513E-2],"split_indices":[64,0,36,0,72,0,4,0,69,0,0],"split_type":[0,0,0,0,0,0,0,0,0,0,0],"sum_hessian":[1.7385192E3,8.9724146E2,8.412778E2,1.3812161E2,7.031561E2,4.1382446E1,6.617737E2,1.29631815E1,6.4881055E2,4.8754616E0,6.4393506E2],"tree_param":{"num_deleted":"0","num_feature":"80","num_nodes":"11","size_leaf_vector":"0"}},{"base_weights":[7.763608E-3,-5.9807336E-1,6.247428E-1,-5.948127E-1,8.6340404E-1,-5.835147E-1,9.430052E-1,-5.586608E-1,9.748704E-1,-5.0785303E-1,9.8781675E-1],"categories":[],"categories_nodes":[],"categories_segments":[],"categories_sizes":[],"default_left":[1,0,1,0,1,0,1,0,1,0,0],"id":44,"left_children":[1,-1,3,-1,5,-1,7,-1,9,-1,-1],"loss_changes":[6.3829297E2,0E0,2.4675919E2,0E0,8.2091675E1,0E0,3.267334E1,0E0,1.3129639E1,0E0,0E0],"parents":[2147483647,0,0,2,2,4,4,6,6,8,8],"right_children":[2,-1,4,-1,6,-1,8,-1,10,-1,-1],"split_conditions":[5E-1,-2.9903669E-2,5E-1,-2.9740635E-2,5E-1,-2.9175734E-2,5E-1,-2.793304E-2,5E-1,-2.5392652E-2,4.9390838E-2],"split_indices":[37,0,71,0,39,0,1,0,44,0,0],"split_type":[0,0,0,0,0,0,0,0,0,0,0],"sum_hessian":[1.7056301E3,8.606013E2,8.450288E2,1.3805867E2,7.0697015E2,3.6535202E1,6.7043494E2,1.35874195E1,6.5684753E2,5.3547277E0,6.514928E2],"tree_param":{"num_deleted":"0","num_feature":"80","num_nodes":"11","size_leaf_vector":"0"}},{"base_weights":[-8.285536E-3,-5.980574E-1,6.120823E-1,-5.9499127E-1,8.522824E-1,-5.850716E-1,9.42788E-1,-5.603356E-1,9.7722644E-1,-4.7730517E-1,9.8695964E-1],"categories":[],"categories_nodes":[],"categories_segments":[],"categories_sizes":[],"default_left":[1,0,1,0,1,0,1,0,1,0,0],"id":45,"left_children":[1,-1,3,-1,5,-1,7,-1,9,-1,-1],"loss_changes":[6.1957074E2,0E0,2.397927E2,0E0,9.014819E1,0E0,3.410797E1,0E0,9.449097E0,0E0,0E0],"parents":[2147483647,0,0,2,2,4,4,6,6,8,8],"right_children":[2,-1,4,-1,6,-1,8,-1,10,-1,-1],"split_conditions":[5E-1,-2.990287E-2,5E-1,-2.9749563E-2,5E-1,-2.9253582E-2,5E-1,-2.801678E-2,5E-1,-2.3865258E-2,4.934798E-2],"split_indices":[28,0,45,0,40,0,61,0,24,0,0],"split_type":[0,0,0,0,0,0,0,0,0,0,0],"sum_hessian":[1.691392E3,8.670961E2,8.242958E2,1.36561E2,6.877348E2,4.041557E1,6.473192E2,1.4156661E1,6.331626E2,3.8894126E0,6.2927313E2],"tree_param":{"num_deleted":"0","num_feature":"80","num_nodes":"11","size_leaf_vector":"0"}},{"base_weights":[6.260094E-3,-5.981047E-1,6.3334346E-1,-5.9459263E-1,8.6864823E-1,-5.8357733E-1,9.507991E-1,-5.54838E-1,9.792865E-1,-4.6199885E-1,9.8704225E-1],"categories":[],"categories_nodes":[],"categories_segments":[],"categories_sizes":[],"default_left":[1,0,1,0,1,0,1,0,1,0,0],"id":46,"left_children":[1,-1,3,-1,5,-1,7,-1,9,-1,-1],"loss_changes":[6.472717E2,0E0,2.4270255E2,0E0,8.45202E1,0E0,2.913086E1,0E0,7.7720337E0,0E0,0E0],"parents":[2147483647,0,0,2,2,4,4,6,6,8,8],"right_children":[2,-1,4,-1,6,-1,8,-1,10,-1,-1],"split_conditions":[5E-1,-2.9905235E-2,5E-1,-2.9729633E-2,5E-1,-2.9178867E-2,5E-1,-2.77419E-2,5E-1,-2.3099942E-2,4.9352113E-2],"split_indices":[19,0,7,0,0,0,56,0,13,0,0],"split_type":[0,0,0,0,0,0,0,0,0,0,0],"sum_hessian":[1.7058995E3,8.687091E2,8.371905E2,1.3438364E2,7.028069E2,3.7301666E1,6.655052E2,1.2014775E1,6.534904E2,3.184225E0,6.503062E2],"tree_param":{"num_deleted":"0","num_feature":"80","num_nodes":"11","size_leaf_vector":"0"}},{"base_weights":[-8.793406E-3,-5.981198E-1,6.081672E-1,-5.948987E-1,8.5285234E-1,-5.854745E-1,9.447941E-1,-5.5945295E-1,9.788811E-1,-4.7616225E-1,9.885081E-1],"categories":[],"categories_nodes":[],"categories_segments":[],"categories_sizes":[],"default_left":[1,0,1,0,1,0,1,0,1,0,0],"id":47,"left_children":[1,-1,3,-1,5,-1,7,-1,9,-1,-1],"loss_changes":[6.206857E2,0E0,2.4601468E2,0E0,9.225766E1,0E0,3.398822E1,0E0,9.408813E0,0E0,0E0],"parents":[2147483647,0,0,2,2,4,4,6,6,8,8],"right_children":[2,-1,4,-1,6,-1,8,-1,10,-1,-1],"split_conditions":[5E-1,-2.990599E-2,5E-1,-2.9744936E-2,5E-1,-2.9273724E-2,5E-1,-2.7972648E-2,5E-1,-2.3808112E-2,4.9425405E-2],"split_indices":[36,0,43,0,20,0,58,0,49,0,0],"split_type":[0,0,0,0,0,0,0,0,0,0,0],"sum_hessian":[1.7050974E3,8.72095E2,8.330025E2,1.405443E2,6.9245825E2,4.1281834E1,6.511764E2,1.4087506E1,6.3708887E2,3.8689232E0,6.3322E2],"tree_param":{"num_deleted":"0","num_feature":"80","num_nodes":"11","size_leaf_vector":"0"}},{"base_weights":[4.521181E-3,-5.934086E-1,6.0978574E-1,-5.896649E-1,8.258344E-1,-5.7956713E-1,9.0682113E-1,-5.5867517E-1,9.4156826E-1,-4.7161278E-1,9.5054495E-1],"categories":[],"categories_nodes":[],"categories_segments":[],"categories_sizes":[],"default_left":[1,0,1,0,1,0,1,0,1,0,0],"id":48,"left_children":[1,-1,3,-1,5,-1,7,-1,9,-1,-1],"loss_changes":[6.058921E2,0E0,2.1608566E2,0E0,8.0814545E1,0E0,3.450946E1,0E0,8.7229E0,0E0,0E0],"parents":[2147483647,0,0,2,2,4,4,6,6,8,8],"right_children":[2,-1,4,-1,6,-1,8,-1,10,-1,-1],"split_conditions":[5E-1,-2.967043E-2,5E-1,-2.9483244E-2,5E-1,-2.8978357E-2,5E-1,-2.793376E-2,5E-1,-2.3580639E-2,4.752725E-2],"split_indices":[70,0,37,0,9,0,31,0,16,0,0],"split_type":[0,0,0,0,0,0,0,0,0,0,0],"sum_hessian":[1.6721711E3,8.4119226E2,8.309789E2,1.26568954E2,7.044099E2,3.8044735E1,6.663652E2,1.50844555E1,6.512807E2,3.7856033E0,6.474951E2],"tree_param":{"num_deleted":"0","num_feature":"80","num_nodes":"11","size_leaf_vector":"0"}},{"base_weights":[-6.6957227E-4,-5.9344E-1,6.0023147E-1,-5.898197E-1,8.1983465E-1,-5.801633E-1,9.0671074E-1,-5.554333E-1,9.3911254E-1,-4.9286738E-1,9.506393E-1],"categories":[],"categories_nodes":[],"categories_segments":[],"categories_sizes":[],"default_left":[1,0,1,0,1,0,1,0,1,0,0],"id":49,"left_children":[1,-1,3,-1,5,-1,7,-1,9,-1,-1],"loss_changes":[5.960129E2,0E0,2.1763986E2,0E0,8.5896515E1,0E0,3.1850769E1,0E0,1.1153442E1,0E0,0E0],"parents":[2147483647,0,0,2,2,4,4,6,6,8,8],"right_children":[2,-1,4,-1,6,-1,8,-1,10,-1,-1],"split_conditions":[5E-1,-2.9672E-2,5E-1,-2.9490987E-2,5E-1,-2.9008165E-2,5E-1,-2.7771665E-2,5E-1,-2.4643369E-2,4.7531966E-2],"split_indices":[66,0,35,0,40,0,14,0,75,0,0],"split_type":[0,0,0,0,0,0,0,0,0,0,0],"sum_hessian":[1.6712705E3,8.413333E2,8.2993713E2,1.2902924E2,7.009079E2,4.062136E1,6.6028656E2,1.3965074E1,6.463215E2,4.8276052E0,6.4149384E2],"tree_param":{"num_deleted":"0","num_feature":"80","num_nodes":"11","size_leaf_vector":"0"}},{"base_weights":[-1.9775492E-3,-5.934199E-1,6.015954E-1,-5.897794E-1,8.2326317E-1,-5.7938707E-1,9.069644E-1,-5.565044E-1,9.400557E-1,-4.7752878E-1,9.498489E-1],"categories":[],"categories_nodes":[],"categories_segments":[],"categories_sizes":[],"default_left":[1,0,1,0,1,0,1,0,1,0,0],"id":50,"left_children":[1,-1,3,-1,5,-1,7,-1,9,-1,-1],"loss_changes":[5.9021814E2,0E0,2.1658868E2,0E0,8.157443E1,0E0,3.209143E1,0E0,9.308105E0,0E0,0E0],"parents":[2147483647,0,0,2,2,4,4,6,6,8,8],"right_children":[2,-1,4,-1,6,-1,8,-1,10,-1,-1],"split_conditions":[5E-1,-2.9670997E-2,5E-1,-2.948897E-2,5E-1,-2.8969353E-2,5E-1,-2.7825221E-2,5E-1,-2.387644E-2,4.7492445E-2],"split_indices":[17,0,0,0,56,0,29,0,60,0,0],"split_type":[0,0,0,0,0,0,0,0,0,0,0],"sum_hessian":[1.651371E3,8.340755E2,8.172955E2,1.2795082E2,6.8934467E2,3.848574E1,6.5085895E2,1.4041761E1,6.3681714E2,4.041479E0,6.327757E2],"tree_param":{"num_deleted":"0","num_feature":"80","num_nodes":"11","size_leaf_vector":"0"}},{"base_weights":[-1.08474465E-2,-5.93416E-1,5.941716E-1,-5.9000206E-1,8.3202195E-1,-5.784638E-1,9.0975225E-1,-5.53991E-1,9.425012E-1,-4.6401048E-1,9.51172E-1],"categories":[],"categories_nodes":[],"categories_segments":[],"categories_sizes":[],"default_left":[1,0,1,0,1,0,1,0,1,0,0],"id":51,"left_children":[1,-1,3,-1,5,-1,7,-1,9,-1,-1],"loss_changes":[5.823319E2,0E0,2.287667E2,0E0,7.456772E1,0E0,3.1222595E1,0E0,8.08551E0,0E0,0E0],"parents":[2147483647,0,0,2,2,4,4,6,6,8,8],"right_children":[2,-1,4,-1,6,-1,8,-1,10,-1,-1],"split_conditions":[5E-1,-2.96708E-2,5E-1,-2.9500103E-2,5E-1,-2.892319E-2,5E-1,-2.769955E-2,5E-1,-2.3200525E-2,4.7558602E-2],"split_indices":[43,0,36,0,20,0,58,0,49,0,0],"split_type":[0,0,0,0,0,0,0,0,0,0,0],"sum_hessian":[1.6501687E3,8.4069183E2,8.094769E2,1.3514694E2,6.7433E2,3.488416E1,6.3944586E2,1.3645184E1,6.2580066E2,3.512533E0,6.2228815E2],"tree_param":{"num_deleted":"0","num_feature":"80","num_nodes":"11","size_leaf_vector":"0"}},{"base_weights":[-3.7701707E-3,-5.8887887E-1,5.906746E-1,-5.855211E-1,8.048694E-1,-5.734272E-1,8.7789655E-1,-5.469323E-1,9.071639E-1,-4.806343E-1,9.1758496E-1],"categories":[],"categories_nodes":[],"categories_segments":[],"categories_sizes":[],"default_left":[1,0,1,0,1,0,1,0,1,0,0],"id":52,"left_children":[1,-1,3,-1,5,-1,7,-1,9,-1,-1],"loss_changes":[5.6529047E2,0E0,2.0358203E2,0E0,6.919159E1,0E0,2.7538513E1,0E0,9.6362915E0,0E0,0E0],"parents":[2147483647,0,0,2,2,4,4,6,6,8,8],"right_children":[2,-1,4,-1,6,-1,8,-1,10,-1,-1],"split_conditions":[5E-1,-2.9443944E-2,5E-1,-2.9276056E-2,5E-1,-2.867136E-2,5E-1,-2.7346615E-2,5E-1,-2.4031715E-2,4.587925E-2],"split_indices":[73,0,57,0,23,0,9,0,44,0,0],"split_type":[0,0,0,0,0,0,0,0,0,0,0],"sum_hessian":[1.6232628E3,8.180601E2,8.0520276E2,1.23777405E2,6.814253E2,3.394291E1,6.474824E2,1.2676218E1,6.348062E2,4.3949785E0,6.304112E2],"tree_param":{"num_deleted":"0","num_feature":"80","num_nodes":"11","size_leaf_vector":"0"}},{"base_weights":[1.4570397E-3,-5.889081E-1,5.9473884E-1,-5.8499885E-1,7.984532E-1,-5.754699E-1,8.773421E-1,-5.4793364E-1,9.0637076E-1,-4.7562176E-1,9.159097E-1,-3.035247E-1,9.183505E-1],"categories":[],"categories_nodes":[],"categories_segments":[],"categories_sizes":[],"default_left":[1,0,1,0,1,0,1,0,1,0,1,0,0],"id":53,"left_children":[1,-1,3,-1,5,-1,7,-1,9,-1,11,-1,-1],"loss_changes":[5.806986E2,0E0,1.99202E2,0E0,7.698117E1,0E0,2.8120544E1,0E0,9.066528E0,0E0,2.21521E0,0E0,0E0],"parents":[2147483647,0,0,2,2,4,4,6,6,8,8,10,10],"right_children":[2,-1,4,-1,6,-1,8,-1,10,-1,12,-1,-1],"split_conditions":[5E-1,-2.9445404E-2,5E-1,-2.9249942E-2,5E-1,-2.8773496E-2,5E-1,-2.7396683E-2,5E-1,-2.378109E-2,5E-1,-1.5176236E-2,4.5917526E-2],"split_indices":[66,0,40,0,51,0,75,0,45,0,12,0,0],"split_type":[0,0,0,0,0,0,0,0,0,0,0,0,0],"sum_hessian":[1.6559412E3,8.300145E2,8.2592664E2,1.2134272E2,7.0458386E2,3.7917683E1,6.666662E2,1.2950188E1,6.53716E2,4.146276E0,6.4956976E2,1.0511705E0,6.4851855E2],"tree_param":{"num_deleted":"0","num_feature":"80","num_nodes":"13","size_leaf_vector":"0"}},{"base_weights":[-5.076747E-4,-5.88907E-1,5.816455E-1,-5.854419E-1,7.9633844E-1,-5.7487696E-1,8.7558526E-1,-5.5010223E-1,9.0686005E-1,-4.8036525E-1,9.171455E-1],"categories":[],"categories_nodes":[],"categories_segments":[],"categories_sizes":[],"default_left":[1,0,1,0,1,0,1,0,1,0,0],"id":54,"left_children":[1,-1,3,-1,5,-1,7,-1,9,-1,-1],"loss_changes":[5.5981305E2,0E0,2.063092E2,0E0,7.59487E1,0E0,2.978241E1,0E0,9.615723E0,0E0,0E0],"parents":[2147483647,0,0,2,2,4,4,6,6,8,8],"right_children":[2,-1,4,-1,6,-1,8,-1,10,-1,-1],"split_conditions":[5E-1,-2.944535E-2,5E-1,-2.9272094E-2,5E-1,-2.8743848E-2,5E-1,-2.7505113E-2,5E-1,-2.4018263E-2,4.5857277E-2],"split_indices":[62,0,11,0,2,0,77,0,74,0,0],"split_type":[0,0,0,0,0,0,0,0,0,0,0],"sum_hessian":[1.6323066E3,8.117925E2,8.2051416E2,1.2721837E2,6.932958E2,3.753691E1,6.5575885E2,1.3720251E1,6.4203864E2,4.3889365E0,6.3764966E2],"tree_param":{"num_deleted":"0","num_feature":"80","num_nodes":"11","size_leaf_vector":"0"}},{"base_weights":[-6.977555E-4,-5.889378E-1,5.7948726E-1,-5.853019E-1,7.9552776E-1,-5.74962E-1,8.766069E-1,-5.500324E-1,9.0803635E-1,-4.7504723E-1,9.1777647E-1],"categories":[],"categories_nodes":[],"categories_segments":[],"categories_sizes":[],"default_left":[1,0,1,0,1,0,1,0,1,0,0],"id":55,"left_children":[1,-1,3,-1,5,-1,7,-1,9,-1,-1],"loss_changes":[5.557774E2,0E0,2.0677374E2,0E0,7.739792E1,0E0,2.9812408E1,0E0,9.058105E0,0E0,0E0],"parents":[2147483647,0,0,2,2,4,4,6,6,8,8],"right_children":[2,-1,4,-1,6,-1,8,-1,10,-1,-1],"split_conditions":[5E-1,-2.944689E-2,5E-1,-2.9265095E-2,5E-1,-2.87481E-2,5E-1,-2.7501618E-2,5E-1,-2.3752362E-2,4.5888823E-2],"split_indices":[34,0,72,0,18,0,79,0,4,0,0],"split_type":[0,0,0,0,0,0,0,0,0,0,0],"sum_hessian":[1.6264701E3,8.0762115E2,8.1884894E2,1.2784726E2,6.9100165E2,3.8256477E1,6.527452E2,1.3714609E1,6.390306E2,4.134699E0,6.348959E2],"tree_param":{"num_deleted":"0","num_feature":"80","num_nodes":"11","size_leaf_vector":"0"}},{"base_weights":[-5.009463E-3,-5.8456933E-1,5.7718855E-1,-5.8066446E-1,7.832735E-1,-5.6974524E-1,8.530896E-1,-5.3723043E-1,8.786576E-1,-4.5298693E-1,8.865828E-1],"categories":[],"categories_nodes":[],"categories_segments":[],"categories_sizes":[],"default_left":[1,0,1,0,1,0,1,0,1,0,0],"id":56,"left_children":[1,-1,3,-1,5,-1,7,-1,9,-1,-1],"loss_changes":[5.281619E2,0E0,1.8678491E2,0E0,6.314456E1,0E0,2.290857E1,0E0,6.946411E0,0E0,0E0],"parents":[2147483647,0,0,2,2,4,4,6,6,8,8],"right_children":[2,-1,4,-1,6,-1,8,-1,10,-1,-1],"split_conditions":[5E-1,-2.9228467E-2,5E-1,-2.9033223E-2,5E-1,-2.8487263E-2,5E-1,-2.6861522E-2,5E-1,-2.2649346E-2,4.432914E-2],"split_indices":[73,0,37,0,57,0,9,0,22,0,0],"split_type":[0,0,0,0,0,0,0,0,0,0,0],"sum_hessian":[1.5633018E3,7.8342377E2,7.798779E2,1.1756148E2,6.6231647E2,3.2147373E1,6.3016907E2,1.1018165E1,6.1915094E2,3.3307903E0,6.158201E2],"tree_param":{"num_deleted":"0","num_feature":"80","num_nodes":"11","size_leaf_vector":"0"}},{"base_weights":[-2.75968E-3,-5.846144E-1,5.5948585E-1,-5.8103484E-1,7.689456E-1,-5.704467E-1,8.4660757E-1,-5.445965E-1,8.757231E-1,-4.7494492E-1,8.856434E-1],"categories":[],"categories_nodes":[],"categories_segments":[],"categories_sizes":[],"default_left":[1,0,1,0,1,0,1,0,1,0,0],"id":57,"left_children":[1,-1,3,-1,5,-1,7,-1,9,-1,-1],"loss_changes":[5.195434E2,0E0,1.933932E2,0E0,7.150592E1,0E0,2.6634064E1,0E0,8.901062E0,0E0,0E0],"parents":[2147483647,0,0,2,2,4,4,6,6,8,8],"right_children":[2,-1,4,-1,6,-1,8,-1,10,-1,-1],"split_conditions":[5E-1,-2.923072E-2,5E-1,-2.9051742E-2,5E-1,-2.8522337E-2,5E-1,-2.7229825E-2,5E-1,-2.3747247E-2,4.4282172E-2],"split_indices":[45,0,14,0,35,0,38,0,30,0,0],"split_type":[0,0,0,0,0,0,0,0,0,0,0],"sum_hessian":[1.5861125E3,7.794442E2,8.0666833E2,1.2488548E2,6.817829E2,3.70175E1,6.447654E2,1.2854307E1,6.319111E2,4.2656207E0,6.2764545E2],"tree_param":{"num_deleted":"0","num_feature":"80","num_nodes":"11","size_leaf_vector":"0"}},{"base_weights":[3.7890594E-4,-5.84587E-1,5.716844E-1,-5.8079386E-1,7.773984E-1,-5.706359E-1,8.517702E-1,-5.418943E-1,8.7914026E-1,-4.5060924E-1,8.867814E-1],"categories":[],"categories_nodes":[],"categories_segments":[],"categories_sizes":[],"default_left":[1,0,1,0,1,0,1,0,1,0,0],"id":58,"left_children":[1,-1,3,-1,5,-1,7,-1,9,-1,-1],"loss_changes":[5.3080334E2,0E0,1.909545E2,0E0,6.8886475E1,0E0,2.5155457E1,0E0,6.8507996E0,0E0,0E0],"parents":[2147483647,0,0,2,2,4,4,6,6,8,8],"right_children":[2,-1,4,-1,6,-1,8,-1,10,-1,-1],"split_conditions":[5E-1,-2.9229349E-2,5E-1,-2.9039694E-2,5E-1,-2.8531795E-2,5E-1,-2.7094716E-2,5E-1,-2.2530463E-2,4.4339072E-2],"split_indices":[7,0,19,0,60,0,2,0,77,0,0],"split_type":[0,0,0,0,0,0,0,0,0,0,0],"sum_hessian":[1.586308E3,7.8377203E2,8.025359E2,1.21277214E2,6.8125867E2,3.527136E1,6.459873E2,1.2080029E1,6.339073E2,3.2906022E0,6.306167E2],"tree_param":{"num_deleted":"0","num_feature":"80","num_nodes":"11","size_leaf_vector":"0"}},{"base_weights":[-4.6788057E-4,-5.8456403E-1,5.632636E-1,-5.810701E-1,7.701446E-1,-5.715004E-1,8.528114E-1,-5.404318E-1,8.791948E-1,-4.4320256E-1,8.863096E-1],"categories":[],"categories_nodes":[],"categories_segments":[],"categories_sizes":[],"default_left":[1,0,1,0,1,0,1,0,1,0,0],"id":59,"left_children":[1,-1,3,-1,5,-1,7,-1,9,-1,-1],"loss_changes":[5.2256445E2,0E0,1.9163718E2,0E0,7.639084E1,0E0,2.418631E1,0E0,6.352661E0,0E0,0E0],"parents":[2147483647,0,0,2,2,4,4,6,6,8,8],"right_children":[2,-1,4,-1,6,-1,8,-1,10,-1,-1],"split_conditions":[5E-1,-2.9228201E-2,5E-1,-2.9053507E-2,5E-1,-2.8575022E-2,5E-1,-2.702159E-2,5E-1,-2.2160128E-2,4.4315483E-2],"split_indices":[64,0,36,0,72,0,43,0,55,0,0],"split_type":[0,0,0,0,0,0,0,0,0,0,0],"sum_hessian":[1.5850232E3,7.7843274E2,8.0659045E2,1.2321805E2,6.833724E2,3.9319626E1,6.4405273E2,1.1607454E1,6.324453E2,3.0565023E0,6.293888E2],"tree_param":{"num_deleted":"0","num_feature":"80","num_nodes":"11","size_leaf_vector":"0"}},{"base_weights":[-7.673957E-5,-5.80552E-1,5.499802E-1,-5.766108E-1,7.530163E-1,-5.644979E-1,8.2127774E-1,-5.405779E-1,8.492308E-1,-4.7426045E-1,8.5926026E-1],"categories":[],"categories_nodes":[],"categories_segments":[],"categories_sizes":[],"default_left":[1,0,1,0,1,0,1,0,1,0,0],"id":60,"left_children":[1,-1,3,-1,5,-1,7,-1,9,-1,-1],"loss_changes":[4.9490512E2,0E0,1.8247588E2,0E0,6.1148132E1,0E0,2.4895935E1,0E0,8.762146E0,0E0,0E0],"parents":[2147483647,0,0,2,2,4,4,6,6,8,8],"right_children":[2,-1,4,-1,6,-1,8,-1,10,-1,-1],"split_conditions":[5E-1,-2.90276E-2,5E-1,-2.8830541E-2,5E-1,-2.8224895E-2,5E-1,-2.7028894E-2,5E-1,-2.3713022E-2,4.2963013E-2],"split_indices":[57,0,73,0,37,0,33,0,47,0,0],"split_type":[0,0,0,0,0,0,0,0,0,0,0],"sum_hessian":[1.5479958E3,7.531457E2,7.948502E2,1.21093864E2,6.7375635E2,3.2830242E1,6.409261E2,1.252203E1,6.284041E2,4.378124E0,6.2402594E2],"tree_param":{"num_deleted":"0","num_feature":"80","num_nodes":"11","size_leaf_vector":"0"}},{"base_weights":[-3.8110968E-3,-5.804967E-1,5.4538256E-1,-5.767023E-1,7.450227E-1,-5.6660444E-1,8.198103E-1,-5.440218E-1,8.519535E-1,-4.411531E-1,8.592098E-1],"categories":[],"categories_nodes":[],"categories_segments":[],"categories_sizes":[],"default_left":[1,0,1,0,1,0,1,0,1,0,0],"id":61,"left_children":[1,-1,3,-1,5,-1,7,-1,9,-1,-1],"loss_changes":[4.9021478E2,0E0,1.780303E2,0E0,6.6530365E1,0E0,2.8413544E1,0E0,6.227478E0,0E0,0E0],"parents":[2147483647,0,0,2,2,4,4,6,6,8,8],"right_children":[2,-1,4,-1,6,-1,8,-1,10,-1,-1],"split_conditions":[5E-1,-2.9024838E-2,5E-1,-2.8835116E-2,5E-1,-2.8330222E-2,5E-1,-2.720109E-2,5E-1,-2.2057656E-2,4.296049E-2],"split_indices":[14,0,45,0,51,0,30,0,35,0,0],"split_type":[0,0,0,0,0,0,0,0,0,0,0],"sum_hessian":[1.545825E3,7.5401154E2,7.918134E2,1.1931429E2,6.7249915E2,3.5921963E1,6.3657715E2,1.429093E1,6.2228625E2,3.1387985E0,6.191474E2],"tree_param":{"num_deleted":"0","num_feature":"80","num_nodes":"11","size_leaf_vector":"0"}},{"base_weights":[-9.646702E-3,-5.80486E-1,5.479609E-1,-5.7669103E-1,7.548345E-1,-5.649755E-1,8.26427E-1,-5.3417E-1,8.508719E-1,-4.598893E-1,8.593124E-1],"categories":[],"categories_nodes":[],"categories_segments":[],"categories_sizes":[],"default_left":[1,0,1,0,1,0,1,0,1,0,0],"id":62,"left_children":[1,-1,3,-1,5,-1,7,-1,9,-1,-1],"loss_changes":[4.8876297E2,0E0,1.8115967E2,0E0,6.250061E1,0E0,2.1180267E1,0E0,7.171936E0,0E0,0E0],"parents":[2147483647,0,0,2,2,4,4,6,6,8,8],"right_children":[2,-1,4,-1,6,-1,8,-1,10,-1,-1],"split_conditions":[5E-1,-2.9024301E-2,5E-1,-2.8834552E-2,5E-1,-2.8248776E-2,5E-1,-2.6708499E-2,5E-1,-2.2994464E-2,4.296562E-2],"split_indices":[19,0,7,0,0,0,11,0,25,0,0],"split_type":[0,0,0,0,0,0,0,0,0,0,0],"sum_hessian":[1.5335217E3,7.577499E2,7.757719E2,1.20250725E2,6.555212E2,3.3374268E1,6.221469E2,1.0612404E1,6.115345E2,3.5704818E0,6.07964E2],"tree_param":{"num_deleted":"0","num_feature":"80","num_nodes":"11","size_leaf_vector":"0"}},{"base_weights":[-2.721943E-3,-5.805016E-1,5.4435176E-1,-5.769157E-1,7.431977E-1,-5.6647176E-1,8.189533E-1,-5.408629E-1,8.482464E-1,-4.7322893E-1,8.582617E-1],"categories":[],"categories_nodes":[],"categories_segments":[],"categories_sizes":[],"default_left":[1,0,1,0,1,0,1,0,1,0,0],"id":63,"left_children":[1,-1,3,-1,5,-1,7,-1,9,-1,-1],"loss_changes":[4.89157E2,0E0,1.7765735E2,0E0,6.749301E1,0E0,2.5914734E1,0E0,8.690918E0,0E0,0E0],"parents":[2147483647,0,0,2,2,4,4,6,6,8,8],"right_children":[2,-1,4,-1,6,-1,8,-1,10,-1,-1],"split_conditions":[5E-1,-2.9025082E-2,5E-1,-2.8845785E-2,5E-1,-2.8323589E-2,5E-1,-2.7043147E-2,5E-1,-2.3661448E-2,4.2913087E-2],"split_indices":[43,0,49,0,18,0,55,0,52,0,0],"split_type":[0,0,0,0,0,0,0,0,0,0,0],"sum_hessian":[1.5455343E3,7.5164264E2,7.9389166E2,1.1929584E2,6.745958E2,3.653297E1,6.3806287E2,1.3087009E1,6.249758E2,4.353114E0,6.2062274E2],"tree_param":{"num_deleted":"0","num_feature":"80","num_nodes":"11","size_leaf_vector":"0"}},{"base_weights":[-3.0757554E-3,-5.766E-1,5.3451645E-1,-5.7304233E-1,7.3056257E-1,-5.604881E-1,7.97448E-1,-5.342333E-1,8.245279E-1,-4.6346423E-1,8.336962E-1],"categories":[],"categories_nodes":[],"categories_segments":[],"categories_sizes":[],"default_left":[1,0,1,0,1,0,1,0,1,0,0],"id":64,"left_children":[1,-1,3,-1,5,-1,7,-1,9,-1,-1],"loss_changes":[4.64975E2,0E0,1.6944081E2,0E0,5.7595215E1,0E0,2.314566E1,0E0,7.677765E0,0E0,0E0],"parents":[2147483647,0,0,2,2,4,4,6,6,8,8],"right_children":[2,-1,4,-1,6,-1,8,-1,10,-1,-1],"split_conditions":[5E-1,-2.8830001E-2,5E-1,-2.8652117E-2,5E-1,-2.8024405E-2,5E-1,-2.6711663E-2,5E-1,-2.3173211E-2,4.168481E-2],"split_indices":[9,0,23,0,47,0,44,0,16,0,0],"split_type":[0,0,0,0,0,0,0,0,0,0,0],"sum_hessian":[1.5060819E3,7.286535E2,7.774284E2,1.1662645E2,6.60802E2,3.2184444E1,6.2861755E2,1.2155019E1,6.164625E2,4.0069E0,6.124556E2],"tree_param":{"num_deleted":"0","num_feature":"80","num_nodes":"11","size_leaf_vector":"0"}},{"base_weights":[-3.828952E-3,-5.765573E-1,5.374048E-1,-5.7276356E-1,7.2802097E-1,-5.6212085E-1,7.9920053E-1,-5.359369E-1,8.271507E-1,-4.4220194E-1,8.343041E-1],"categories":[],"categories_nodes":[],"categories_segments":[],"categories_sizes":[],"default_left":[1,0,1,0,1,0,1,0,1,0,0],"id":65,"left_children":[1,-1,3,-1,5,-1,7,-1,9,-1,-1],"loss_changes":[4.732808E2,0E0,1.6653404E2,0E0,6.2013336E1,0E0,2.4168152E1,0E0,6.026886E0,0E0,0E0],"parents":[2147483647,0,0,2,2,4,4,6,6,8,8],"right_children":[2,-1,4,-1,6,-1,8,-1,10,-1,-1],"split_conditions":[5E-1,-2.8827865E-2,5E-1,-2.8638178E-2,5E-1,-2.8106043E-2,5E-1,-2.6796846E-2,5E-1,-2.2110097E-2,4.1715205E-2],"split_indices":[28,0,12,0,15,0,6,0,27,0,0],"split_type":[0,0,0,0,0,0,0,0,0,0,0],"sum_hessian":[1.5248116E3,7.40819E2,7.8399274E2,1.14592026E2,6.694007E2,3.4640396E1,6.3476025E2,1.2643118E1,6.221172E2,3.1454418E0,6.1897174E2],"tree_param":{"num_deleted":"0","num_feature":"80","num_nodes":"11","size_leaf_vector":"0"}},{"base_weights":[6.329738E-5,-5.765999E-1,5.419029E-1,-5.7266974E-1,7.264884E-1,-5.6152534E-1,7.968111E-1,-5.354886E-1,8.2422787E-1,-4.6774802E-1,8.337902E-1],"categories":[],"categories_nodes":[],"categories_segments":[],"categories_sizes":[],"default_left":[1,0,1,0,1,0,1,0,1,0,0],"id":66,"left_children":[1,-1,3,-1,5,-1,7,-1,9,-1,-1],"loss_changes":[4.7312857E2,0E0,1.610278E2,0E0,6.1151733E1,0E0,2.3669739E1,0E0,8.092682E0,0E0,0E0],"parents":[2147483647,0,0,2,2,4,4,6,6,8,8],"right_children":[2,-1,4,-1,6,-1,8,-1,10,-1,-1],"split_conditions":[5E-1,-2.8829996E-2,5E-1,-2.8633488E-2,5E-1,-2.8076267E-2,5E-1,-2.677443E-2,5E-1,-2.33874E-2,4.168951E-2],"split_indices":[62,0,67,0,76,0,19,0,0,0,0],"split_type":[0,0,0,0,0,0,0,0,0,0,0],"sum_hessian":[1.5122103E3,7.3253345E2,7.7967694E2,1.1047845E2,6.691985E2,3.428358E1,6.349149E2,1.2428524E1,6.224864E2,4.221311E0,6.182651E2],"tree_param":{"num_deleted":"0","num_feature":"80","num_nodes":"11","size_leaf_vector":"0"}},{"base_weights":[-2.8479886E-3,-5.766255E-1,5.3522617E-1,-5.726662E-1,7.300419E-1,-5.61684E-1,8.0116516E-1,-5.300011E-1,8.257528E-1,-4.443477E-1,8.3330834E-1],"categories":[],"categories_nodes":[],"categories_segments":[],"categories_sizes":[],"default_left":[1,0,1,0,1,0,1,0,1,0,0],"id":67,"left_children":[1,-1,3,-1,5,-1,7,-1,9,-1,-1],"loss_changes":[4.6514154E2,0E0,1.682287E2,0E0,6.12381E1,0E0,2.0977325E1,0E0,6.2869263E0,0E0,0E0],"parents":[2147483647,0,0,2,2,4,4,6,6,8,8],"right_children":[2,-1,4,-1,6,-1,8,-1,10,-1,-1],"split_conditions":[5E-1,-2.8831277E-2,5E-1,-2.8633311E-2,5E-1,-2.8084202E-2,5E-1,-2.6500056E-2,5E-1,-2.2217385E-2,4.1665416E-2],"split_indices":[68,0,49,0,10,0,64,0,55,0,0],"split_type":[0,0,0,0,0,0,0,0,0,0,0],"sum_hessian":[1.5046057E3,7.2811053E2,7.7649524E2,1.15832306E2,6.606629E2,3.4118156E1,6.2654474E2,1.0990088E1,6.155547E2,3.2982764E0,6.122564E2],"tree_param":{"num_deleted":"0","num_feature":"80","num_nodes":"11","size_leaf_vector":"0"}},{"base_weights":[-5.440165E-3,-5.728614E-1,5.1904947E-1,-5.692389E-1,7.090723E-1,-5.574639E-1,7.766649E-1,-5.2902085E-1,8.022537E-1,-4.5555574E-1,8.109633E-1],"categories":[],"categories_nodes":[],"categories_segments":[],"categories_sizes":[],"default_left":[1,0,1,0,1,0,1,0,1,0,0],"id":68,"left_children":[1,-1,3,-1,5,-1,7,-1,9,-1,-1],"loss_changes":[4.3956973E2,0E0,1.5913268E2,0E0,5.641223E1,0E0,2.1178802E1,0E0,7.048065E0,0E0,0E0],"parents":[2147483647,0,0,2,2,4,4,6,6,8,8],"right_children":[2,-1,4,-1,6,-1,8,-1,10,-1,-1],"split_conditions":[5E-1,-2.864307E-2,5E-1,-2.8461946E-2,5E-1,-2.7873194E-2,5E-1,-2.6451042E-2,5E-1,-2.2777786E-2,4.0548164E-2],"split_indices":[9,0,22,0,47,0,1,0,16,0,0],"split_type":[0,0,0,0,0,0,0,0,0,0,0],"sum_hessian":[1.4750171E3,7.0846704E2,7.665501E2,1.1365213E2,6.52898E2,3.27114E1,6.201866E2,1.1542628E1,6.08644E2,3.8326871E0,6.048113E2],"tree_param":{"num_deleted":"0","num_feature":"80","num_nodes":"11","size_leaf_vector":"0"}},{"base_weights":[-5.22046E-3,-5.72882E-1,5.291695E-1,-5.68739E-1,7.114372E-1,-5.5759054E-1,7.809407E-1,-5.256506E-1,8.0526924E-1,-4.2738864E-1,8.1198317E-1],"categories":[],"categories_nodes":[],"categories_segments":[],"categories_sizes":[],"default_left":[1,0,1,0,1,0,1,0,1,0,0],"id":69,"left_children":[1,-1,3,-1,5,-1,7,-1,9,-1,-1],"loss_changes":[4.4333826E2,0E0,1.510493E2,0E0,5.741919E1,0E0,1.9906738E1,0E0,5.3302E0,0E0,0E0],"parents":[2147483647,0,0,2,2,4,4,6,6,8,8],"right_children":[2,-1,4,-1,6,-1,8,-1,10,-1,-1],"split_conditions":[5E-1,-2.86441E-2,5E-1,-2.843695E-2,5E-1,-2.7879527E-2,5E-1,-2.6282532E-2,5E-1,-2.1369433E-2,4.059916E-2],"split_indices":[66,0,27,0,51,0,38,0,6,0,0],"split_type":[0,0,0,0,0,0,0,0,0,0,0],"sum_hessian":[1.4594625E3,7.0766534E2,7.517972E2,1.0673676E2,6.450604E2,3.3130257E1,6.119302E2,1.0809083E1,6.011211E2,2.9169915E0,5.982041E2],"tree_param":{"num_deleted":"0","num_feature":"80","num_nodes":"11","size_leaf_vector":"0"}},{"base_weights":[7.6072575E-3,-5.728353E-1,5.3533924E-1,-5.6871253E-1,7.1642554E-1,-5.566769E-1,7.8078544E-1,-5.2874774E-1,8.047598E-1,-4.346516E-1,8.1149673E-1],"categories":[],"categories_nodes":[],"categories_segments":[],"categories_sizes":[],"default_left":[1,0,1,0,1,0,1,0,1,0,0],"id":70,"left_children":[1,-1,3,-1,5,-1,7,-1,9,-1,-1],"loss_changes":[4.5450473E2,0E0,1.5578476E2,0E0,5.5176422E1,0E0,2.0404297E1,0E0,5.5740356E0,0E0,0E0],"parents":[2147483647,0,0,2,2,4,4,6,6,8,8],"right_children":[2,-1,4,-1,6,-1,8,-1,10,-1,-1],"split_conditions":[5E-1,-2.8641766E-2,5E-1,-2.8435627E-2,5E-1,-2.7833847E-2,5E-1,-2.6437387E-2,5E-1,-2.1732582E-2,4.0574837E-2],"split_indices":[19,0,0,0,7,0,56,0,60,0,0],"split_type":[0,0,0,0,0,0,0,0,0,0,0],"sum_hessian":[1.481766E3,7.05602E2,7.7616394E2,1.0906612E2,6.6709784E2,3.1733257E1,6.3536456E2,1.1044332E1,6.2432025E2,3.0318093E0,6.2128845E2],"tree_param":{"num_deleted":"0","num_feature":"80","num_nodes":"11","size_leaf_vector":"0"}},{"base_weights":[-2.6186188E-3,-5.728284E-1,5.208357E-1,-5.691613E-1,7.145446E-1,-5.568426E-1,7.806046E-1,-5.242775E-1,8.0270815E-1,-4.402237E-1,8.1004006E-1,-3.049948E-1,8.126255E-1],"categories":[],"categories_nodes":[],"categories_segments":[],"categories_sizes":[],"default_left":[1,0,1,0,1,0,1,0,1,0,1,0,0],"id":71,"left_children":[1,-1,3,-1,5,-1,7,-1,9,-1,11,-1,-1],"loss_changes":[4.391087E2,0E0,1.623584E2,0E0,5.5171875E1,0E0,1.830185E1,0E0,5.9157715E0,0E0,1.9971924E0,0E0,0E0],"parents":[2147483647,0,0,2,2,4,4,6,6,8,8,10,10],"right_children":[2,-1,4,-1,6,-1,8,-1,10,-1,12,-1,-1],"split_conditions":[5E-1,-2.8641421E-2,5E-1,-2.8458064E-2,5E-1,-2.7842132E-2,5E-1,-2.6213875E-2,5E-1,-2.2011185E-2,5E-1,-1.5249739E-2,4.0631276E-2],"split_indices":[64,0,36,0,72,0,79,0,10,0,34,0,0],"split_type":[0,0,0,0,0,0,0,0,0,0,0,0,0],"sum_hessian":[1.4691559E3,7.031287E2,7.6602716E2,1.1529961E2,6.5072754E2,3.1774189E1,6.1895337E2,9.931436E0,6.090219E2,3.2252555E0,6.057967E2,1.130842E0,6.0466583E2],"tree_param":{"num_deleted":"0","num_feature":"80","num_nodes":"13","size_leaf_vector":"0"}},{"base_weights":[1.0021418E-2,-5.6932026E-1,5.235122E-1,-5.6498647E-1,6.9730526E-1,-5.525189E-1,7.59741E-1,-5.206179E-1,7.824326E-1,-4.4304472E-1,7.901728E-1],"categories":[],"categories_nodes":[],"categories_segments":[],"categories_sizes":[],"default_left":[1,0,1,0,1,0,1,0,1,0,0],"id":72,"left_children":[1,-1,3,-1,5,-1,7,-1,9,-1,-1],"loss_changes":[4.2354587E2,0E0,1.431744E2,0E0,5.124243E1,0E0,1.8441498E1,0E0,6.1391296E0,0E0,0E0],"parents":[2147483647,0,0,2,2,4,4,6,6,8,8],"right_children":[2,-1,4,-1,6,-1,8,-1,10,-1,-1],"split_conditions":[5E-1,-2.8466014E-2,5E-1,-2.8249323E-2,5E-1,-2.7625946E-2,5E-1,-2.6030896E-2,5E-1,-2.2152236E-2,3.950864E-2],"split_indices":[42,0,16,0,47,0,44,0,78,0,0],"split_type":[0,0,0,0,0,0,0,0,0,0,0],"sum_hessian":[1.4217458E3,6.679867E2,7.537591E2,1.0346806E2,6.50291E2,3.0566612E1,6.197244E2,1.0409895E1,6.093145E2,3.471325E0,6.058432E2],"tree_param":{"num_deleted":"0","num_feature":"80","num_nodes":"11","size_leaf_vector":"0"}},{"base_weights":[7.1312985E-3,-5.692848E-1,5.1997936E-1,-5.651476E-1,6.954506E-1,-5.530037E-1,7.583166E-1,-5.270407E-1,7.8426355E-1,-4.2578462E-1,7.9068255E-1],"categories":[],"categories_nodes":[],"categories_segments":[],"categories_sizes":[],"default_left":[1,0,1,0,1,0,1,0,1,0,0],"id":73,"left_children":[1,-1,3,-1,5,-1,7,-1,9,-1,-1],"loss_changes":[4.2592545E2,0E0,1.4556877E2,0E0,5.1965515E1,0E0,2.1281097E1,0E0,5.103607E0,0E0,0E0],"parents":[2147483647,0,0,2,2,4,4,6,6,8,8],"right_children":[2,-1,4,-1,6,-1,8,-1,10,-1,-1],"split_conditions":[5E-1,-2.8464241E-2,5E-1,-2.825738E-2,5E-1,-2.7650187E-2,5E-1,-2.6352037E-2,5E-1,-2.1289231E-2,3.953413E-2],"split_indices":[66,0,35,0,40,0,28,0,51,0,0],"split_type":[0,0,0,0,0,0,0,0,0,0,0],"sum_hessian":[1.4388154E3,6.7737225E2,7.6144324E2,1.0568137E2,6.557619E2,3.1064093E1,6.246978E2,1.1978839E1,6.1271893E2,2.8884335E0,6.098305E2],"tree_param":{"num_deleted":"0","num_feature":"80","num_nodes":"11","size_leaf_vector":"0"}},{"base_weights":[7.594663E-3,-5.692524E-1,5.250063E-1,-5.6510496E-1,6.959823E-1,-5.5274194E-1,7.57612E-1,-5.26451E-1,7.837471E-1,-4.2530817E-1,7.902163E-1],"categories":[],"categories_nodes":[],"categories_segments":[],"categories_sizes":[],"default_left":[1,0,1,0,1,0,1,0,1,0,0],"id":74,"left_children":[1,-1,3,-1,5,-1,7,-1,9,-1,-1],"loss_changes":[4.2414294E2,0E0,1.4001651E2,0E0,5.0288177E1,0E0,2.1150452E1,0E0,5.0761414E0,0E0,0E0],"parents":[2147483647,0,0,2,2,4,4,6,6,8,8],"right_children":[2,-1,4,-1,6,-1,8,-1,10,-1,-1],"split_conditions":[5E-1,-2.8462619E-2,5E-1,-2.8255248E-2,5E-1,-2.7637098E-2,5E-1,-2.632255E-2,5E-1,-2.1265408E-2,3.9510816E-2],"split_indices":[19,0,60,0,13,0,17,0,67,0,0],"split_type":[0,0,0,0,0,0,0,0,0,0,0],"sum_hessian":[1.4190684E3,6.7094794E2,7.4812036E2,1.0111631E2,6.47004E2,3.0055668E1,6.1694836E2,1.1924677E1,6.050237E2,2.8754694E0,6.0214825E2],"tree_param":{"num_deleted":"0","num_feature":"80","num_nodes":"11","size_leaf_vector":"0"}},{"base_weights":[-1.1610912E-2,-5.6925243E-1,5.052716E-1,-5.6535774E-1,6.901148E-1,-5.5443716E-1,7.611618E-1,-5.1913697E-1,7.832001E-1,-4.381561E-1,7.9060125E-1],"categories":[],"categories_nodes":[],"categories_segments":[],"categories_sizes":[],"default_left":[1,0,1,0,1,0,1,0,1,0,0],"id":75,"left_children":[1,-1,3,-1,5,-1,7,-1,9,-1,-1],"loss_changes":[4.1123343E2,0E0,1.4692131E2,0E0,5.629315E1,0E0,1.7284332E1,0E0,5.66568E0,0E0,0E0],"parents":[2147483647,0,0,2,2,4,4,6,6,8,8],"right_children":[2,-1,4,-1,6,-1,8,-1,10,-1,-1],"split_conditions":[5E-1,-2.8462622E-2,5E-1,-2.8267888E-2,5E-1,-2.7721858E-2,5E-1,-2.5956849E-2,5E-1,-2.1907805E-2,3.9530065E-2],"split_indices":[64,0,36,0,72,0,43,0,4,0,0],"split_type":[0,0,0,0,0,0,0,0,0,0,0],"sum_hessian":[1.424731E3,6.852952E2,7.394357E2,1.0856401E2,6.3087177E2,3.3701855E1,5.9716986E2,9.723696E0,5.8744617E2,3.1877997E0,5.8425836E2],"tree_param":{"num_deleted":"0","num_feature":"80","num_nodes":"11","size_leaf_vector":"0"}},{"base_weights":[3.4125575E-3,-5.6591237E-1,5.0598496E-1,-5.614714E-1,6.772736E-1,-5.506794E-1,7.430969E-1,-5.146496E-1,7.643983E-1,-4.2332715E-1,7.7099866E-1],"categories":[],"categories_nodes":[],"categories_segments":[],"categories_sizes":[],"default_left":[1,0,1,0,1,0,1,0,1,0,0],"id":76,"left_children":[1,-1,3,-1,5,-1,7,-1,9,-1,-1],"loss_changes":[3.9790857E2,0E0,1.3543443E2,0E0,5.18927E1,0E0,1.6601685E1,0E0,4.9931946E0,0E0,0E0],"parents":[2147483647,0,0,2,2,4,4,6,6,8,8],"right_children":[2,-1,4,-1,6,-1,8,-1,10,-1,-1],"split_conditions":[5E-1,-2.829562E-2,5E-1,-2.807357E-2,5E-1,-2.7533969E-2,5E-1,-2.5732482E-2,5E-1,-2.1166358E-2,3.8549934E-2],"split_indices":[70,0,37,0,57,0,42,0,31,0,0],"split_type":[0,0,0,0,0,0,0,0,0,0,0],"sum_hessian":[1.3886704E3,6.510363E2,7.376341E2,1.0168207E2,6.35952E2,3.1980484E1,6.0397156E2,9.672897E0,5.9429865E2,2.9354463E0,5.913632E2],"tree_param":{"num_deleted":"0","num_feature":"80","num_nodes":"11","size_leaf_vector":"0"}},{"base_weights":[-5.2535576E-3,-5.6589264E-1,5.018789E-1,-5.615166E-1,6.7513233E-1,-5.498668E-1,7.3964405E-1,-5.19971E-1,7.640851E-1,-4.3292814E-1,7.714046E-1],"categories":[],"categories_nodes":[],"categories_segments":[],"categories_sizes":[],"default_left":[1,0,1,0,1,0,1,0,1,0,0],"id":77,"left_children":[1,-1,3,-1,5,-1,7,-1,9,-1,-1],"loss_changes":[3.9344327E2,0E0,1.3424266E2,0E0,4.981772E1,0E0,1.8696411E1,0E0,5.4461365E0,0E0,0E0],"parents":[2147483647,0,0,2,2,4,4,6,6,8,8],"right_children":[2,-1,4,-1,6,-1,8,-1,10,-1,-1],"split_conditions":[5E-1,-2.8294632E-2,5E-1,-2.807583E-2,5E-1,-2.749334E-2,5E-1,-2.5998551E-2,5E-1,-2.1646408E-2,3.8570233E-2],"split_indices":[66,0,35,0,14,0,40,0,28,0,0],"split_type":[0,0,0,0,0,0,0,0,0,0,0],"sum_hessian":[1.381814E3,6.562302E2,7.2558374E2,1.0133971E2,6.242441E2,3.0853325E1,5.9339075E2,1.0908833E1,5.824819E2,3.186718E0,5.7929517E2],"tree_param":{"num_deleted":"0","num_feature":"80","num_nodes":"11","size_leaf_vector":"0"}},{"base_weights":[2.1277969E-3,-5.65899E-1,5.099409E-1,-5.6145626E-1,6.757049E-1,-5.498269E-1,7.3864263E-1,-5.200634E-1,7.6292247E-1,-4.504543E-1,7.7151567E-1],"categories":[],"categories_nodes":[],"categories_segments":[],"categories_sizes":[],"default_left":[1,0,1,0,1,0,1,0,1,0,0],"id":78,"left_children":[1,-1,3,-1,5,-1,7,-1,9,-1,-1],"loss_changes":[4.01148E2,0E0,1.3078389E2,0E0,4.9488068E1,0E0,1.8907013E1,0E0,6.5474854E0,0E0,0E0],"parents":[2147483647,0,0,2,2,4,4,6,6,8,8],"right_children":[2,-1,4,-1,6,-1,8,-1,10,-1,-1],"split_conditions":[5E-1,-2.829495E-2,5E-1,-2.8072814E-2,5E-1,-2.7491346E-2,5E-1,-2.600317E-2,5E-1,-2.2522716E-2,3.8575783E-2],"split_indices":[62,0,56,0,77,0,67,0,0,0,0],"split_type":[0,0,0,0,0,0,0,0,0,0,0],"sum_hessian":[1.3886946E3,6.554314E2,7.3326324E2,9.792818E1,6.35335E2,3.065627E1,6.046788E2,1.1056799E1,5.9362195E2,3.8128772E0,5.898091E2],"tree_param":{"num_deleted":"0","num_feature":"80","num_nodes":"11","size_leaf_vector":"0"}},{"base_weights":[1.750154E-3,-5.659305E-1,5.0483525E-1,-5.615017E-1,6.766659E-1,-5.4946446E-1,7.400164E-1,-5.1833165E-1,7.634575E-1,-4.3106318E-1,7.705725E-1],"categories":[],"categories_nodes":[],"categories_segments":[],"categories_sizes":[],"default_left":[1,0,1,0,1,0,1,0,1,0,0],"id":79,"left_children":[1,-1,3,-1,5,-1,7,-1,9,-1,-1],"loss_changes":[3.9654065E2,0E0,1.3525932E2,0E0,4.968573E1,0E0,1.8202454E1,0E0,5.3724365E0,0E0,0E0],"parents":[2147483647,0,0,2,2,4,4,6,6,8,8],"right_children":[2,-1,4,-1,6,-1,8,-1,10,-1,-1],"split_conditions":[5E-1,-2.8296525E-2,5E-1,-2.8075084E-2,5E-1,-2.7473224E-2,5E-1,-2.5916582E-2,5E-1,-2.1553159E-2,3.8528625E-2],"split_indices":[55,0,49,0,20,0,68,0,58,0,0],"split_type":[0,0,0,0,0,0,0,0,0,0,0],"sum_hessian":[1.3864877E3,6.513642E2,7.351235E2,1.0170437E2,6.334191E2,3.0742058E1,6.0267706E2,1.0635541E1,5.920415E2,3.152724E0,5.888888E2],"tree_param":{"num_deleted":"0","num_feature":"80","num_nodes":"11","size_leaf_vector":"0"}},{"base_weights":[3.0226884E-3,-5.6267226E-1,4.9805498E-1,-5.581021E-1,6.614146E-1,-5.460285E-1,7.2398084E-1,-5.1423746E-1,7.464924E-1,-4.3134034E-1,7.538332E-1],"categories":[],"categories_nodes":[],"categories_segments":[],"categories_sizes":[],"default_left":[1,0,1,0,1,0,1,0,1,0,0],"id":80,"left_children":[1,-1,3,-1,5,-1,7,-1,9,-1,-1],"loss_changes":[3.768262E2,0E0,1.2418471E2,0E0,4.7381348E1,0E0,1.6878387E1,0E0,5.3537292E0,0E0,0E0],"parents":[2147483647,0,0,2,2,4,4,6,6,8,8],"right_children":[2,-1,4,-1,6,-1,8,-1,10,-1,-1],"split_conditions":[5E-1,-2.8133614E-2,5E-1,-2.7905105E-2,5E-1,-2.7301425E-2,5E-1,-2.5711874E-2,5E-1,-2.1567017E-2,3.769166E-2],"split_indices":[70,0,33,0,9,0,57,0,47,0,0],"split_type":[0,0,0,0,0,0,0,0,0,0,0],"sum_hessian":[1.3436279E3,6.2699585E2,7.166321E2,9.567236E1,6.209597E2,3.021051E1,5.907492E2,1.0158356E1,5.805909E2,3.2383354E0,5.7735254E2],"tree_param":{"num_deleted":"0","num_feature":"80","num_nodes":"11","size_leaf_vector":"0"}},{"base_weights":[2.0651522E-3,-5.626423E-1,4.9672288E-1,-5.581209E-1,6.6249335E-1,-5.456333E-1,7.2393054E-1,-5.154591E-1,7.4712646E-1,-4.218242E-1,7.5377846E-1],"categories":[],"categories_nodes":[],"categories_segments":[],"categories_sizes":[],"default_left":[1,0,1,0,1,0,1,0,1,0,0],"id":81,"left_children":[1,-1,3,-1,5,-1,7,-1,9,-1,-1],"loss_changes":[3.7388486E2,0E0,1.251315E2,0E0,4.619458E1,0E0,1.727835E1,0E0,4.8063965E0,0E0,0E0],"parents":[2147483647,0,0,2,2,4,4,6,6,8,8],"right_children":[2,-1,4,-1,6,-1,8,-1,10,-1,-1],"split_conditions":[5E-1,-2.8132115E-2,5E-1,-2.7906045E-2,5E-1,-2.7281666E-2,5E-1,-2.5772957E-2,5E-1,-2.109121E-2,3.7688922E-2],"split_indices":[66,0,45,0,14,0,54,0,12,0,0],"split_type":[0,0,0,0,0,0,0,0,0,0,0],"sum_hessian":[1.3364724E3,6.239854E2,7.12487E2,9.644075E1,6.160462E2,2.9430532E1,5.8661566E2,1.03872795E1,5.762284E2,2.9073548E0,5.7332104E2],"tree_param":{"num_deleted":"0","num_feature":"80","num_nodes":"11","size_leaf_vector":"0"}},{"base_weights":[2.9106322E-3,-5.626342E-1,4.9918026E-1,-5.5816257E-1,6.689262E-1,-5.441945E-1,7.262777E-1,-5.1061225E-1,7.4647284E-1,-4.3451267E-1,7.537656E-1],"categories":[],"categories_nodes":[],"categories_segments":[],"categories_sizes":[],"default_left":[1,0,1,0,1,0,1,0,1,0,0],"id":82,"left_children":[1,-1,3,-1,5,-1,7,-1,9,-1,-1],"loss_changes":[3.7862244E2,0E0,1.2933287E2,0E0,4.3502014E1,0E0,1.51698E1,0E0,5.3481445E0,0E0,0E0],"parents":[2147483647,0,0,2,2,4,4,6,6,8,8],"right_children":[2,-1,4,-1,6,-1,8,-1,10,-1,-1],"split_conditions":[5E-1,-2.8131712E-2,5E-1,-2.790813E-2,5E-1,-2.7209727E-2,5E-1,-2.5530612E-2,5E-1,-2.1725634E-2,3.768828E-2],"split_indices":[7,0,0,0,19,0,11,0,41,0,0],"split_type":[0,0,0,0,0,0,0,0,0,0,0],"sum_hessian":[1.3470293E3,6.295105E2,7.175188E2,9.893945E1,6.1857935E2,2.7540638E1,5.9103876E2,9.104935E0,5.819338E2,3.211948E0,5.7872186E2],"tree_param":{"num_deleted":"0","num_feature":"80","num_nodes":"11","size_leaf_vector":"0"}},{"base_weights":[1.3791299E-2,-5.6259775E-1,4.994809E-1,-5.5832094E-1,6.66326E-1,-5.4565966E-1,7.261188E-1,-5.1272285E-1,7.4659926E-1,-4.3003482E-1,7.535773E-1],"categories":[],"categories_nodes":[],"categories_segments":[],"categories_sizes":[],"default_left":[1,0,1,0,1,0,1,0,1,0,0],"id":83,"left_children":[1,-1,3,-1,5,-1,7,-1,9,-1,-1],"loss_changes":[3.7697028E2,0E0,1.293455E2,0E0,4.617209E1,0E0,1.566687E1,0E0,5.193054E0,0E0,0E0],"parents":[2147483647,0,0,2,2,4,4,6,6,8,8],"right_children":[2,-1,4,-1,6,-1,8,-1,10,-1,-1],"split_conditions":[5E-1,-2.8129889E-2,5E-1,-2.7916048E-2,5E-1,-2.7282983E-2,5E-1,-2.5636142E-2,5E-1,-2.150174E-2,3.7678864E-2],"split_indices":[64,0,36,0,72,0,34,0,68,0,0],"split_type":[0,0,0,0,0,0,0,0,0,0,0],"sum_hessian":[1.3445776E3,6.1480426E2,7.297733E2,9.910417E1,6.306692E2,2.9268955E1,6.014002E2,9.389736E0,5.920105E2,3.1327915E0,5.888777E2],"tree_param":{"num_deleted":"0","num_feature":"80","num_nodes":"11","size_leaf_vector":"0"}},{"base_weights":[-4.507879E-3,-5.595469E-1,4.8001483E-1,-5.5522776E-1,6.482027E-1,-5.426965E-1,7.082057E-1,-5.0766015E-1,7.2938764E-1,-4.3361998E-1,7.371463E-1],"categories":[],"categories_nodes":[],"categories_segments":[],"categories_sizes":[],"default_left":[1,0,1,0,1,0,1,0,1,0,0],"id":84,"left_children":[1,-1,3,-1,5,-1,7,-1,9,-1,-1],"loss_changes":[3.5131418E2,0E0,1.2180252E2,0E0,4.329222E1,0E0,1.510437E1,0E0,5.3971863E0,0E0,0E0],"parents":[2147483647,0,0,2,2,4,4,6,6,8,8],"right_children":[2,-1,4,-1,6,-1,8,-1,10,-1,-1],"split_conditions":[5E-1,-2.7977346E-2,5E-1,-2.7761389E-2,5E-1,-2.7134825E-2,5E-1,-2.5383009E-2,5E-1,-2.1681E-2,3.6857318E-2],"split_indices":[37,0,9,0,39,0,57,0,23,0,0],"split_type":[0,0,0,0,0,0,0,0,0,0,0],"sum_hessian":[1.3043467E3,6.078625E2,6.964842E2,9.7016945E1,5.994672E2,2.836923E1,5.71098E2,9.385649E0,5.6171234E2,3.358728E0,5.5835364E2],"tree_param":{"num_deleted":"0","num_feature":"80","num_nodes":"11","size_leaf_vector":"0"}},{"base_weights":[3.5764862E-4,-5.595683E-1,4.8370668E-1,-5.549542E-1,6.46152E-1,-5.4248923E-1,7.0853746E-1,-5.094974E-1,7.308532E-1,-4.1790217E-1,7.3758537E-1],"categories":[],"categories_nodes":[],"categories_segments":[],"categories_sizes":[],"default_left":[1,0,1,0,1,0,1,0,1,0,0],"id":85,"left_children":[1,-1,3,-1,5,-1,7,-1,9,-1,-1],"loss_changes":[3.5075192E2,0E0,1.1771889E2,0E0,4.5021896E1,0E0,1.5930237E1,0E0,4.6582336E0,0E0,0E0],"parents":[2147483647,0,0,2,2,4,4,6,6,8,8],"right_children":[2,-1,4,-1,6,-1,8,-1,10,-1,-1],"split_conditions":[5E-1,-2.7978415E-2,5E-1,-2.774771E-2,5E-1,-2.7124463E-2,5E-1,-2.547487E-2,5E-1,-2.0895109E-2,3.6879268E-2],"split_indices":[15,0,75,0,38,0,14,0,32,0,0],"split_type":[0,0,0,0,0,0,0,0,0,0,0],"sum_hessian":[1.2940106E3,5.994418E2,6.945689E2,9.361118E1,6.009577E2,2.958443E1,5.713733E2,9.88707E0,5.614862E2,2.9154983E0,5.5857074E2],"tree_param":{"num_deleted":"0","num_feature":"80","num_nodes":"11","size_leaf_vector":"0"}},{"base_weights":[-1.3233326E-2,-5.5953157E-1,4.8070505E-1,-5.5483776E-1,6.457393E-1,-5.4243577E-1,7.042537E-1,-5.1209897E-1,7.2776294E-1,-4.3314004E-1,7.3565644E-1,-3.0212092E-1,7.3842597E-1],"categories":[],"categories_nodes":[],"categories_segments":[],"categories_sizes":[],"default_left":[1,0,1,0,1,0,1,0,1,0,1,0,0],"id":86,"left_children":[1,-1,3,-1,5,-1,7,-1,9,-1,11,-1,-1],"loss_changes":[3.4994034E2,0E0,1.1675493E2,0E0,4.125728E1,0E0,1.6407928E1,0E0,5.3635864E0,0E0,1.7958069E0,0E0,0E0],"parents":[2147483647,0,0,2,2,4,4,6,6,8,8,10,10],"right_children":[2,-1,4,-1,6,-1,8,-1,10,-1,12,-1,-1],"split_conditions":[5E-1,-2.7976578E-2,5E-1,-2.7741889E-2,5E-1,-2.7121788E-2,5E-1,-2.5604948E-2,5E-1,-2.1657003E-2,5E-1,-1.5106047E-2,3.69213E-2],"split_indices":[19,0,0,0,2,0,46,0,77,0,60,0,0],"split_type":[0,0,0,0,0,0,0,0,0,0,0,0,0],"sum_hessian":[1.2948583E3,6.14778E2,6.8008026E2,9.316081E1,5.8691943E2,2.7159359E1,5.597601E2,1.0219659E1,5.495404E2,3.3475034E0,5.4619293E2,1.1660597E0,5.4502686E2],"tree_param":{"num_deleted":"0","num_feature":"80","num_nodes":"13","size_leaf_vector":"0"}},{"base_weights":[-1.9347828E-3,-5.5957425E-1,4.8291838E-1,-5.54991E-1,6.4925456E-1,-5.4195964E-1,7.1000123E-1,-5.075706E-1,7.312598E-1,-4.2663693E-1,7.385517E-1],"categories":[],"categories_nodes":[],"categories_segments":[],"categories_sizes":[],"default_left":[1,0,1,0,1,0,1,0,1,0,0],"id":87,"left_children":[1,-1,3,-1,5,-1,7,-1,9,-1,-1],"loss_changes":[3.510744E2,0E0,1.2027254E2,0E0,4.3736725E1,0E0,1.5136871E1,0E0,5.0523987E0,0E0,0E0],"parents":[2147483647,0,0,2,2,4,4,6,6,8,8],"right_children":[2,-1,4,-1,6,-1,8,-1,10,-1,-1],"split_conditions":[5E-1,-2.7978713E-2,5E-1,-2.7749551E-2,5E-1,-2.7097983E-2,5E-1,-2.537853E-2,5E-1,-2.1331847E-2,3.6927585E-2],"split_indices":[53,0,18,0,64,0,20,0,4,0,0],"split_type":[0,0,0,0,0,0,0,0,0,0,0],"sum_hessian":[1.2964811E3,6.02909E2,6.93572E2,9.547677E1,5.980953E2,2.8635948E1,5.694593E2,9.379495E0,5.6007983E2,3.1451268E0,5.569347E2],"tree_param":{"num_deleted":"0","num_feature":"80","num_nodes":"11","size_leaf_vector":"0"}},{"base_weights":[1.5615645E-3,-5.566089E-1,4.755106E-1,-5.518937E-1,6.385469E-1,-5.3834623E-1,6.9429654E-1,-5.0620544E-1,7.1531683E-1,-4.209906E-1,7.2213286E-1],"categories":[],"categories_nodes":[],"categories_segments":[],"categories_sizes":[],"default_left":[1,0,1,0,1,0,1,0,1,0,0],"id":88,"left_children":[1,-1,3,-1,5,-1,7,-1,9,-1,-1],"loss_changes":[3.372021E2,0E0,1.15818146E2,0E0,3.9437973E1,0E0,1.471814E1,0E0,4.6375427E0,0E0,0E0],"parents":[2147483647,0,0,2,2,4,4,6,6,8,8],"right_children":[2,-1,4,-1,6,-1,8,-1,10,-1,-1],"split_conditions":[5E-1,-2.7830446E-2,5E-1,-2.7594686E-2,5E-1,-2.6917312E-2,5E-1,-2.5310272E-2,5E-1,-2.104953E-2,3.6106642E-2],"split_indices":[73,0,37,0,9,0,57,0,42,0,0],"split_type":[0,0,0,0,0,0,0,0,0,0,0],"sum_hessian":[1.272652E3,5.843214E2,6.8833057E2,9.394337E1,5.943872E2,2.6491297E1,5.678959E2,9.375305E0,5.5852057E2,2.9679446E0,5.555526E2],"tree_param":{"num_deleted":"0","num_feature":"80","num_nodes":"11","size_leaf_vector":"0"}},{"base_weights":[1.0909517E-3,-5.5663216E-1,4.824957E-1,-5.515476E-1,6.3966924E-1,-5.3810364E-1,6.953892E-1,-5.079622E-1,7.182196E-1,-3.6632052E-1,7.226065E-1],"categories":[],"categories_nodes":[],"categories_segments":[],"categories_sizes":[],"default_left":[1,0,1,0,1,0,1,0,1,0,0],"id":89,"left_children":[1,-1,3,-1,5,-1,7,-1,9,-1,-1],"loss_changes":[3.4015958E2,0E0,1.10867645E2,0E0,3.914128E1,0E0,1.5872894E1,0E0,2.9024048E0,0E0,0E0],"parents":[2147483647,0,0,2,2,4,4,6,6,8,8],"right_children":[2,-1,4,-1,6,-1,8,-1,10,-1,-1],"split_conditions":[5E-1,-2.7831608E-2,5E-1,-2.757738E-2,5E-1,-2.6905183E-2,5E-1,-2.5398111E-2,5E-1,-1.8316027E-2,3.6130324E-2],"split_indices":[15,0,28,0,45,0,32,0,6,0,0],"split_type":[0,0,0,0,0,0,0,0,0,0,0],"sum_hessian":[1.2649326E3,5.859426E2,6.7899E2,8.925736E1,5.897326E2,2.6248634E1,5.63484E2,1.0095898E1,5.5338806E2,1.8970454E0,5.51491E2],"tree_param":{"num_deleted":"0","num_feature":"80","num_nodes":"11","size_leaf_vector":"0"}},{"base_weights":[-3.463377E-3,-5.565688E-1,4.8000625E-1,-5.5163306E-1,6.3866353E-1,-5.3756315E-1,6.9489735E-1,-5.0383466E-1,7.15349E-1,-4.1870534E-1,7.22092E-1],"categories":[],"categories_nodes":[],"categories_segments":[],"categories_sizes":[],"default_left":[1,0,1,0,1,0,1,0,1,0,0],"id":90,"left_children":[1,-1,3,-1,5,-1,7,-1,9,-1,-1],"loss_changes":[3.3445837E2,0E0,1.09587494E2,0E0,3.8663376E1,0E0,1.391571E1,0E0,4.4625854E0,0E0,0E0],"parents":[2147483647,0,0,2,2,4,4,6,6,8,8],"right_children":[2,-1,4,-1,6,-1,8,-1,10,-1,-1],"split_conditions":[5E-1,-2.782844E-2,5E-1,-2.7581653E-2,5E-1,-2.6878158E-2,5E-1,-2.5191734E-2,5E-1,-2.0935267E-2,3.61046E-2],"split_indices":[19,0,0,0,7,0,56,0,2,0,0],"split_type":[0,0,0,0,0,0,0,0,0,0,0],"sum_hessian":[1.248735E3,5.823527E2,6.663822E2,8.849342E1,5.778888E2,2.5976934E1,5.5191187E2,8.861792E0,5.4305005E2,2.848691E0,5.4020135E2],"tree_param":{"num_deleted":"0","num_feature":"80","num_nodes":"11","size_leaf_vector":"0"}},{"base_weights":[8.9289894E-4,-5.5656075E-1,4.826901E-1,-5.5181175E-1,6.4134306E-1,-5.376935E-1,6.9464725E-1,-5.040513E-1,7.152734E-1,-4.1946322E-1,7.222446E-1],"categories":[],"categories_nodes":[],"categories_segments":[],"categories_sizes":[],"default_left":[1,0,1,0,1,0,1,0,1,0,0],"id":91,"left_children":[1,-1,3,-1,5,-1,7,-1,9,-1,-1],"loss_changes":[3.388842E2,0E0,1.11436356E2,0E0,3.728238E1,0E0,1.4263397E1,0E0,4.679138E0,0E0,0E0],"parents":[2147483647,0,0,2,2,4,4,6,6,8,8],"right_children":[2,-1,4,-1,6,-1,8,-1,10,-1,-1],"split_conditions":[5E-1,-2.7828038E-2,5E-1,-2.7590588E-2,5E-1,-2.6884675E-2,5E-1,-2.5202567E-2,5E-1,-2.097316E-2,3.611223E-2],"split_indices":[64,0,36,0,10,0,58,0,43,0,0],"split_type":[0,0,0,0,0,0,0,0,0,0,0],"sum_hessian":[1.259764E3,5.8395526E2,6.758088E2,8.95323E1,5.862764E2,2.4965979E1,5.613105E2,9.098679E0,5.522118E2,3.0104883E0,5.492013E2],"tree_param":{"num_deleted":"0","num_feature":"80","num_nodes":"11","size_leaf_vector":"0"}},{"base_weights":[2.6296182E-3,-5.537587E-1,4.6697333E-1,-5.492421E-1,6.23992E-1,-5.349141E-1,6.7791784E-1,-5.053942E-1,7.0074844E-1,-4.193531E-1,7.0787954E-1],"categories":[],"categories_nodes":[],"categories_segments":[],"categories_sizes":[],"default_left":[1,0,1,0,1,0,1,0,1,0,0],"id":92,"left_children":[1,-1,3,-1,5,-1,7,-1,9,-1,-1],"loss_changes":[3.1700555E2,0E0,1.0706392E2,0E0,3.6596115E1,0E0,1.53329315E1,0E0,4.644989E0,0E0,0E0],"parents":[2147483647,0,0,2,2,4,4,6,6,8,8],"right_children":[2,-1,4,-1,6,-1,8,-1,10,-1,-1],"split_conditions":[5E-1,-2.7687935E-2,5E-1,-2.7462104E-2,5E-1,-2.6745705E-2,5E-1,-2.5269711E-2,5E-1,-2.0967655E-2,3.539398E-2],"split_indices":[37,0,71,0,22,0,31,0,3,0,0],"split_type":[0,0,0,0,0,0,0,0,0,0,0],"sum_hessian":[1.2250125E3,5.5718585E2,6.678266E2,8.904365E1,5.7878296E2,2.5337685E1,5.534453E2,1.00758705E1,5.4336945E2,3.0717494E0,5.4029767E2],"tree_param":{"num_deleted":"0","num_feature":"80","num_nodes":"11","size_leaf_vector":"0"}},{"base_weights":[4.7493214E-4,-5.5377007E-1,4.697468E-1,-5.4901373E-1,6.255773E-1,-5.3336394E-1,6.7769325E-1,-5.0270474E-1,6.9946545E-1,-4.3459404E-1,7.078847E-1],"categories":[],"categories_nodes":[],"categories_segments":[],"categories_sizes":[],"default_left":[1,0,1,0,1,0,1,0,1,0,0],"id":93,"left_children":[1,-1,3,-1,5,-1,7,-1,9,-1,-1],"loss_changes":[3.1718106E2,0E0,1.0517976E2,0E0,3.4984024E1,0E0,1.4460861E1,0E0,5.4585266E0,0E0,0E0],"parents":[2147483647,0,0,2,2,4,4,6,6,8,8],"right_children":[2,-1,4,-1,6,-1,8,-1,10,-1,-1],"split_conditions":[5E-1,-2.7688503E-2,5E-1,-2.7450686E-2,5E-1,-2.6668197E-2,5E-1,-2.5135238E-2,5E-1,-2.1729702E-2,3.5394236E-2],"split_indices":[66,0,54,0,27,0,51,0,30,0,0],"split_type":[0,0,0,0,0,0,0,0,0,0,0],"sum_hessian":[1.2174974E3,5.581274E2,6.5937006E2,8.714246E1,5.722276E2,2.4227552E1,5.4800006E2,9.52466E0,5.384754E2,3.595149E0,5.3488025E2],"tree_param":{"num_deleted":"0","num_feature":"80","num_nodes":"11","size_leaf_vector":"0"}},{"base_weights":[-7.0132205E-4,-5.537539E-1,4.7138858E-1,-5.487234E-1,6.2624484E-1,-5.348482E-1,6.792822E-1,-5.033298E-1,7.007205E-1,-4.1918507E-1,7.0791024E-1],"categories":[],"categories_nodes":[],"categories_segments":[],"categories_sizes":[],"default_left":[1,0,1,0,1,0,1,0,1,0,0],"id":94,"left_children":[1,-1,3,-1,5,-1,7,-1,9,-1,-1],"loss_changes":[3.1932495E2,0E0,1.0457564E2,0E0,3.566931E1,0E0,1.4264481E1,0E0,4.639679E0,0E0,0E0],"parents":[2147483647,0,0,2,2,4,4,6,6,8,8],"right_children":[2,-1,4,-1,6,-1,8,-1,10,-1,-1],"split_conditions":[5E-1,-2.7687697E-2,5E-1,-2.743617E-2,5E-1,-2.6742412E-2,5E-1,-2.5166491E-2,5E-1,-2.0959254E-2,3.5395514E-2],"split_indices":[19,0,0,0,41,0,21,0,74,0,0],"split_type":[0,0,0,0,0,0,0,0,0,0,0],"sum_hessian":[1.2210431E3,5.6222473E2,6.5881836E2,8.649451E1,5.7232385E2,2.4604208E1,5.4771967E2,9.352011E0,5.383677E2,3.0687187E0,5.3529895E2],"tree_param":{"num_deleted":"0","num_feature":"80","num_nodes":"11","size_leaf_vector":"0"}},{"base_weights":[4.2712926E-3,-5.537383E-1,4.7012833E-1,-5.4896885E-1,6.285841E-1,-5.342905E-1,6.820629E-1,-5.0196403E-1,7.0238054E-1,-3.9437962E-1,7.0798004E-1],"categories":[],"categories_nodes":[],"categories_segments":[],"categories_sizes":[],"default_left":[1,0,1,0,1,0,1,0,1,0,0],"id":95,"left_children":[1,-1,3,-1,5,-1,7,-1,9,-1,-1],"loss_changes":[3.1911667E2,0E0,1.0838243E2,0E0,3.6401505E1,0E0,1.3690399E1,0E0,3.6293335E0,0E0,0E0],"parents":[2147483647,0,0,2,2,4,4,6,6,8,8],"right_children":[2,-1,4,-1,6,-1,8,-1,10,-1,-1],"split_conditions":[5E-1,-2.7686914E-2,5E-1,-2.7448444E-2,5E-1,-2.6714524E-2,5E-1,-2.5098203E-2,5E-1,-1.971898E-2,3.5399E-2],"split_indices":[64,0,36,0,72,0,79,0,26,0,0],"split_type":[0,0,0,0,0,0,0,0,0,0,0],"sum_hessian":[1.2255938E3,5.575566E2,6.680372E2,8.956185E1,5.784753E2,2.503828E1,5.53437E2,8.9366865E0,5.4450037E2,2.4131405E0,5.420872E2],"tree_param":{"num_deleted":"0","num_feature":"80","num_nodes":"11","size_leaf_vector":"0"}},{"base_weights":[-1.063183E-2,-5.511309E-1,4.5573393E-1,-5.4599404E-1,6.129163E-1,-5.324696E-1,6.687236E-1,-4.9599618E-1,6.8855023E-1,-4.0966466E-1,6.953814E-1],"categories":[],"categories_nodes":[],"categories_segments":[],"categories_sizes":[],"default_left":[1,0,1,0,1,0,1,0,1,0,0],"id":96,"left_children":[1,-1,3,-1,5,-1,7,-1,9,-1,-1],"loss_changes":[2.9918323E2,0E0,1.0065791E2,0E0,3.5590073E1,0E0,1.2489227E1,0E0,4.1684113E0,0E0,0E0],"parents":[2147483647,0,0,2,2,4,4,6,6,8,8],"right_children":[2,-1,4,-1,6,-1,8,-1,10,-1,-1],"split_conditions":[5E-1,-2.7556544E-2,5E-1,-2.7299702E-2,5E-1,-2.6623478E-2,5E-1,-2.4799809E-2,5E-1,-2.0483233E-2,