{"learner":{"attributes":{"best_iteration":"299","best_ntree_limit":"300","scikit_learn":"{\"use_label_encoder\": null, \"n_estimators\": 300, \"objective\": \"multi:softprob\", \"max_depth\": 6, \"max_leaves\": null, \"max_bin\": null, \"grow_policy\": null, \"learning_rate\": 0.05, \"verbosity\": null, \"booster\": null, \"tree_method\": null, \"gamma\": null, \"min_child_weight\": null, \"max_delta_step\": null, \"subsample\": 0.8, \"sampling_method\": null, \"colsample_bytree\": 0.8, \"colsample_bylevel\": null, \"colsample_bynode\": null, \"reg_alpha\": null, \"reg_lambda\": null, \"scale_pos_weight\": null, \"base_score\": null, \"missing\": NaN, \"num_parallel_tree\": null, \"random_state\": 42, \"n_jobs\": null, \"monotone_constraints\": null, \"interaction_constraints\": null, \"importance_type\": null, \"gpu_id\": null, \"validate_parameters\": null, \"predictor\": null, \"enable_categorical\": false, \"feature_types\": null, \"max_cat_to_onehot\": null, \"max_cat_threshold\": null, \"eval_metric\": null, \"early_stopping_rounds\": null, \"callbacks\": null, \"classes_\": [0, 1, 2, 3], \"n_classes_\": 4, \"_estimator_type\": \"classifier\"}"},"feature_names":[],"feature_types":[],"gradient_booster":{"model":{"gbtree_model_param":{"num_parallel_tree":"1","num_trees":"1200","size_leaf_vector":"0"},"tree_info":[0,1,2,3,0,1,2,3,0,1,2,3,0,1,2,3,0,1,2,3,0,1,2,3,0,1,2,3,0,1,2,3,0,1,2,3,0,1,2,3,0,1,2,3,0,1,2,3,0,1,2,3,0,1,2,3,0,1,2,3,0,1,2,3,0,1,2,3,0,1,2,3,0,1,2,3,0,1,2,3,0,1,2,3,0,1,2,3,0,1,2,3,0,1,2,3,0,1,2,3,0,1,2,3,0,1,2,3,0,1,2,3,0,1,2,3,0,1,2,3,0,1,2,3,0,1,2,3,0,1,2,3,0,1,2,3,0,1,2,3,0,1,2,3,0,1,2,3,0,1,2,3,0,1,2,3,0,1,2,3,0,1,2,3,0,1,2,3,0,1,2,3,0,1,2,3,0,1,2,3,0,1,2,3,0,1,2,3,0,1,2,3,0,1,2,3,0,1,2,3,0,1,2,3,0,1,2,3,0,1,2,3,0,1,2,3,0,1,2,3,0,1,2,3,0,1,2,3,0,1,2,3,0,1,2,3,0,1,2,3,0,1,2,3,0,1,2,3,0,1,2,3,0,1,2,3,0,1,2,3,0,1,2,3,0,1,2,3,0,1,2,3,0,1,2,3,0,1,2,3,0,1,2,3,0,1,2,3,0,1,2,3,0,1,2,3,0,1,2,3,0,1,2,3,0,1,2,3,0,1,2,3,0,1,2,3,0,1,2,3,0,1,2,3,0,1,2,3,0,1,2,3,0,1,2,3,0,1,2,3,0,1,2,3,0,1,2,3,0,1,2,3,0,1,2,3,0,1,2,3,0,1,2,3,0,1,2,3,0,1,2,3,0,1,2,3,0,1,2,3,0,1,2,3,0,1,2,3,0,1,2,3,0,1,2,3,0,1,2,3,0,1,2,3,0,1,2,3,0,1,2,3,0,1,2,3,0,1,2,3,0,1,2,3,0,1,2,3,0,1,2,3,0,1,2,3,0,1,2,3,0,1,2,3,0,1,2,3,0,1,2,3,0,1,2,3,0,1,2,3,0,1,2,3,0,1,2,3,0,1,2,3,0,1,2,3,0,1,2,3,0,1,2,3,0,1,2,3,0,1,2,3,0,1,2,3,0,1,2,3,0,1,2,3,0,1,2,3,0,1,2,3,0,1,2,3,0,1,2,3,0,1,2,3,0,1,2,3,0,1,2,3,0,1,2,3,0,1,2,3,0,1,2,3,0,1,2,3,0,1,2,3,0,1,2,3,0,1,2,3,0,1,2,3,0,1,2,3,0,1,2,3,0,1,2,3,0,1,2,3,0,1,2,3,0,1,2,3,0,1,2,3,0,1,2,3,0,1,2,3,0,1,2,3,0,1,2,3,0,1,2,3,0,1,2,3,0,1,2,3,0,1,2,3,0,1,2,3,0,1,2,3,0,1,2,3,0,1,2,3,0,1,2,3,0,1,2,3,0,1,2,3,0,1,2,3,0,1,2,3,0,1,2,3,0,1,2,3,0,1,2,3,0,1,2,3,0,1,2,3,0,1,2,3,0,1,2,3,0,1,2,3,0,1,2,3,0,1,2,3,0,1,2,3,0,1,2,3,0,1,2,3,0,1,2,3,0,1,2,3,0,1,2,3,0,1,2,3,0,1,2,3,0,1,2,3,0,1,2,3,0,1,2,3,0,1,2,3,0,1,2,3,0,1,2,3,0,1,2,3,0,1,2,3,0,1,2,3,0,1,2,3,0,1,2,3,0,1,2,3,0,1,2,3,0,1,2,3,0,1,2,3,0,1,2,3,0,1,2,3,0,1,2,3,0,1,2,3,0,1,2,3,0,1,2,3,0,1,2,3,0,1,2,3,0,1,2,3,0,1,2,3,0,1,2,3,0,1,2,3,0,1,2,3,0,1,2,3,0,1,2,3,0,1,2,3,0,1,2,3,0,1,2,3,0,1,2,3,0,1,2,3,0,1,2,3,0,1,2,3,0,1,2,3,0,1,2,3,0,1,2,3,0,1,2,3,0,1,2,3,0,1,2,3,0,1,2,3,0,1,2,3,0,1,2,3,0,1,2,3,0,1,2,3,0,1,2,3,0,1,2,3,0,1,2,3,0,1,2,3,0,1,2,3,0,1,2,3,0,1,2,3,0,1,2,3,0,1,2,3,0,1,2,3,0,1,2,3,0,1,2,3,0,1,2,3,0,1,2,3,0,1,2,3,0,1,2,3,0,1,2,3,0,1,2,3,0,1,2,3,0,1,2,3,0,1,2,3,0,1,2,3,0,1,2,3,0,1,2,3,0,1,2,3,0,1,2,3,0,1,2,3,0,1,2,3,0,1,2,3,0,1,2,3,0,1,2,3,0,1,2,3,0,1,2,3,0,1,2,3,0,1,2,3,0,1,2,3,0,1,2,3,0,1,2,3,0,1,2,3,0,1,2,3,0,1,2,3,0,1,2,3,0,1,2,3,0,1,2,3,0,1,2,3,0,1,2,3,0,1,2,3,0,1,2,3,0,1,2,3,0,1,2,3,0,1,2,3,0,1,2,3,0,1,2,3,0,1,2,3,0,1,2,3,0,1,2,3,0,1,2,3,0,1,2,3,0,1,2,3,0,1,2,3,0,1,2,3,0,1,2,3,0,1,2,3,0,1,2,3,0,1,2,3,0,1,2,3,0,1,2,3,0,1,2,3,0,1,2,3],"trees":[{"base_weights":[2.4702593E-3,-6.661033E-1,1.070898E0,-6.629758E-1,1.627368E0,-6.545454E-1,1.8717632E0,-6.335404E-1,1.9712968E0,-5.365854E-1,1.9937968E0],"categories":[],"categories_nodes":[],"categories_segments":[],"categories_sizes":[],"default_left":[1,0,1,0,1,0,1,0,1,0,0],"id":0,"left_children":[1,-1,3,-1,5,-1,7,-1,9,-1,-1],"loss_changes":[1.3742664E3,0E0,7.155493E2,0E0,3.1401892E2,0E0,1.2764404E2,0E0,2.8592285E1,0E0,0E0],"parents":[2147483647,0,0,2,2,4,4,6,6,8,8],"right_children":[2,-1,4,-1,6,-1,8,-1,10,-1,-1],"split_conditions":[5E-1,-3.3305164E-2,5E-1,-3.314879E-2,5E-1,-3.272727E-2,5E-1,-3.167702E-2,5E-1,-2.682927E-2,9.968984E-2],"split_indices":[44,0,33,0,23,0,78,0,1,0,0],"split_type":[0,0,0,0,0,0,0,0,0,0,0],"sum_hessian":[1.921875E3,1.182375E3,7.395E2,1.79625E2,5.59875E2,5.4E1,5.05875E2,1.9125E1,4.8675E2,4.125E0,4.82625E2],"tree_param":{"num_deleted":"0","num_feature":"80","num_nodes":"11","size_leaf_vector":"0"}},{"base_weights":[3.7659893E-3,-6.6610545E-1,1.0816119E0,-6.6292137E-1,1.6329621E0,-6.5393794E-1,1.8646727E0,-6.315789E-1,1.9573063E0,-5.714286E-1,1.9897093E0,-3.529412E-1,1.9958742E0],"categories":[],"categories_nodes":[],"categories_segments":[],"categories_sizes":[],"default_left":[1,0,1,0,1,0,1,0,1,0,1,0,0],"id":1,"left_children":[1,-1,3,-1,5,-1,7,-1,9,-1,11,-1,-1],"loss_changes":[1.3906957E3,0E0,7.1116736E2,0E0,2.9862512E2,0E0,1.1913806E2,0E0,4.1440674E1,0E0,7.7214355E0,0E0,0E0],"parents":[2147483647,0,0,2,2,4,4,6,6,8,8,10,10],"right_children":[2,-1,4,-1,6,-1,8,-1,10,-1,12,-1,-1],"split_conditions":[5E-1,-3.3305272E-2,5E-1,-3.314607E-2,5E-1,-3.26969E-2,5E-1,-3.1578947E-2,5E-1,-2.857143E-2,5E-1,-1.764706E-2,9.979371E-2],"split_indices":[59,0,75,0,15,0,24,0,61,0,12,0,0],"split_type":[0,0,0,0,0,0,0,0,0,0,0,0,0],"sum_hessian":[1.924125E3,1.186875E3,7.3725E2,1.77E2,5.6025E2,5.1375E1,5.08875E2,1.8E1,4.90875E2,6E0,4.84875E2,1.125E0,4.8375E2],"tree_param":{"num_deleted":"0","num_feature":"80","num_nodes":"13","size_leaf_vector":"0"}},{"base_weights":[-1.44937E-2,-6.6610706E-1,1.0571182E0,-6.6292924E-1,1.6160878E0,-6.5429235E-1,1.8603592E0,-6.329114E-1,1.9600315E0,-5.6E-1,1.9893645E0,-3.529412E-1,1.9957356E0],"categories":[],"categories_nodes":[],"categories_segments":[],"categories_sizes":[],"default_left":[1,0,1,0,1,0,1,0,1,0,1,0,0],"id":2,"left_children":[1,-1,3,-1,5,-1,7,-1,9,-1,11,-1,-1],"loss_changes":[1.337642E3,0E0,6.9752466E2,0E0,3.045775E2,0E0,1.2403552E2,0E0,3.6253784E1,0E0,7.7199707E0,0E0,0E0],"parents":[2147483647,0,0,2,2,4,4,6,6,8,8,10,10],"right_children":[2,-1,4,-1,6,-1,8,-1,10,-1,12,-1,-1],"split_conditions":[5E-1,-3.3305354E-2,5E-1,-3.3146463E-2,5E-1,-3.2714617E-2,5E-1,-3.164557E-2,5E-1,-2.8E-2,5E-1,-1.764706E-2,9.978678E-2],"split_indices":[46,0,11,0,62,0,74,0,19,0,0,0,0],"split_type":[0,0,0,0,0,0,0,0,0,0,0,0,0],"sum_hessian":[1.913625E3,1.19025E3,7.23375E2,1.77375E2,5.46E2,5.2875E1,4.93125E2,1.875E1,4.74375E2,5.25E0,4.69125E2,1.125E0,4.68E2],"tree_param":{"num_deleted":"0","num_feature":"80","num_nodes":"13","size_leaf_vector":"0"}},{"base_weights":[1.0725965E-2,-6.66097E-1,1.0781671E0,-6.6292137E-1,1.6247787E0,-6.544622E-1,1.8650696E0,-6.308725E-1,1.955443E0,-5.714286E-1,1.9876987E0,-4E-1,1.9958869E0],"categories":[],"categories_nodes":[],"categories_segments":[],"categories_sizes":[],"default_left":[1,0,1,0,1,0,1,0,1,0,1,0,0],"id":3,"left_children":[1,-1,3,-1,5,-1,7,-1,9,-1,11,-1,-1],"loss_changes":[1.3815365E3,0E0,7.072379E2,0E0,3.1066028E2,0E0,1.1658276E2,0E0,4.1379395E1,0E0,1.0334351E1,0E0,0E0],"parents":[2147483647,0,0,2,2,4,4,6,6,8,8,10,10],"right_children":[2,-1,4,-1,6,-1,8,-1,10,-1,12,-1,-1],"split_conditions":[5E-1,-3.330485E-2,5E-1,-3.314607E-2,5E-1,-3.272311E-2,5E-1,-3.1543624E-2,5E-1,-2.857143E-2,5E-1,-2.0000001E-2,9.979435E-2],"split_indices":[36,0,48,0,26,0,68,0,8,0,43,0,0],"split_type":[0,0,0,0,0,0,0,0,0,0,0,0,0],"sum_hessian":[1.91025E3,1.16925E3,7.41E2,1.77E2,5.64E2,5.3625E1,5.10375E2,1.7625E1,4.9275E2,6E0,4.8675E2,1.5E0,4.8525E2],"tree_param":{"num_deleted":"0","num_feature":"80","num_nodes":"13","size_leaf_vector":"0"}},{"base_weights":[-7.2637126E-3,-6.585379E-1,9.6703714E-1,-6.5568936E-1,1.4828955E0,-6.472472E-1,1.7009963E0,-6.249006E-1,1.7834643E0,-5.447457E-1,1.8062809E0],"categories":[],"categories_nodes":[],"categories_segments":[],"categories_sizes":[],"default_left":[1,0,1,0,1,0,1,0,1,0,0],"id":4,"left_children":[1,-1,3,-1,5,-1,7,-1,9,-1,-1],"loss_changes":[1.224023E3,0E0,6.479168E2,0E0,2.7368652E2,0E0,1.03256226E2,0E0,2.8317017E1,0E0,0E0],"parents":[2147483647,0,0,2,2,4,4,6,6,8,8],"right_children":[2,-1,4,-1,6,-1,8,-1,10,-1,-1],"split_conditions":[5E-1,-3.29269E-2,5E-1,-3.278447E-2,5E-1,-3.236236E-2,5E-1,-3.1245029E-2,5E-1,-2.7237285E-2,9.0314046E-2],"split_indices":[33,0,70,0,73,0,22,0,47,0,0],"split_type":[0,0,0,0,0,0,0,0,0,0,0],"sum_hessian":[1.926998E3,1.1551553E3,7.718428E2,1.8611455E2,5.857282E2,5.4218662E1,5.315096E2,1.7974895E1,5.1353467E2,4.7618237E0,5.0877283E2],"tree_param":{"num_deleted":"0","num_feature":"80","num_nodes":"11","size_leaf_vector":"0"}},{"base_weights":[2.125721E-3,-6.585397E-1,9.908409E-1,-6.55529E-1,1.4862182E0,-6.468814E-1,1.6947178E0,-6.2366146E-1,1.7735217E0,-5.724095E-1,1.8044592E0,-3.450783E-1,1.8096906E0],"categories":[],"categories_nodes":[],"categories_segments":[],"categories_sizes":[],"default_left":[1,0,1,0,1,0,1,0,1,0,1,0,0],"id":5,"left_children":[1,-1,3,-1,5,-1,7,-1,9,-1,11,-1,-1],"loss_changes":[1.262642E3,0E0,6.324421E2,0E0,2.65938E2,0E0,1.00262695E2,0E0,3.914734E1,0E0,6.4556885E0,0E0,0E0],"parents":[2147483647,0,0,2,2,4,4,6,6,8,8,10,10],"right_children":[2,-1,4,-1,6,-1,8,-1,10,-1,12,-1,-1],"split_conditions":[5E-1,-3.2926988E-2,5E-1,-3.2776453E-2,5E-1,-3.234407E-2,5E-1,-3.1183073E-2,5E-1,-2.8620476E-2,5E-1,-1.7253915E-2,9.048453E-2],"split_indices":[24,0,35,0,6,0,15,0,32,0,12,0,0],"split_type":[0,0,0,0,0,0,0,0,0,0,0,0,0],"sum_hessian":[1.9309813E3,1.1577198E3,7.732614E2,1.787774E2,5.94484E2,5.2746544E1,5.417375E2,1.7581535E1,5.2415594E2,6.594662E0,5.175613E2,1.0988128E0,5.1646246E2],"tree_param":{"num_deleted":"0","num_feature":"80","num_nodes":"13","size_leaf_vector":"0"}},{"base_weights":[8.072978E-3,-6.585286E-1,1.0182624E0,-6.553785E-1,1.5147793E0,-6.46144E-1,1.7140627E0,-6.1824393E-1,1.7820696E0,-5.527749E-1,1.8062655E0],"categories":[],"categories_nodes":[],"categories_segments":[],"categories_sizes":[],"default_left":[1,0,1,0,1,0,1,0,1,0,0],"id":6,"left_children":[1,-1,3,-1,5,-1,7,-1,9,-1,-1],"loss_changes":[1.2930631E3,0E0,6.3534784E2,0E0,2.5476086E2,0E0,8.668286E1,0E0,3.0630981E1,0E0,0E0],"parents":[2147483647,0,0,2,2,4,4,6,6,8,8],"right_children":[2,-1,4,-1,6,-1,8,-1,10,-1,-1],"split_conditions":[5E-1,-3.2926433E-2,5E-1,-3.2768928E-2,5E-1,-3.23072E-2,5E-1,-3.0912196E-2,5E-1,-2.7638746E-2,9.031328E-2],"split_indices":[46,0,11,0,62,0,74,0,50,0,0],"split_type":[0,0,0,0,0,0,0,0,0,0,0],"sum_hessian":[1.9182223E3,1.1558503E3,7.6237195E2,1.7435217E2,5.880198E2,4.945995E1,5.385598E2,1.5029518E1,5.235303E2,5.145622E0,5.183847E2],"tree_param":{"num_deleted":"0","num_feature":"80","num_nodes":"11","size_leaf_vector":"0"}},{"base_weights":[4.5076874E-3,-6.585478E-1,1.0066338E0,-6.553116E-1,1.4848372E0,-6.476249E-1,1.704358E0,-6.206285E-1,1.7769948E0,-5.5765444E-1,1.8027897E0,-3.9182004E-1,1.809762E0],"categories":[],"categories_nodes":[],"categories_segments":[],"categories_sizes":[],"default_left":[1,0,1,0,1,0,1,0,1,0,1,0,0],"id":7,"left_children":[1,-1,3,-1,5,-1,7,-1,9,-1,11,-1,-1],"loss_changes":[1.2797858E3,0E0,6.104843E2,0E0,2.8004028E2,0E0,9.238672E1,0E0,3.258618E1,0E0,8.649536E0,0E0,0E0],"parents":[2147483647,0,0,2,2,4,4,6,6,8,8,10,10],"right_children":[2,-1,4,-1,6,-1,8,-1,10,-1,12,-1,-1],"split_conditions":[5E-1,-3.292739E-2,5E-1,-3.276558E-2,5E-1,-3.2381248E-2,5E-1,-3.1031424E-2,5E-1,-2.7882723E-2,5E-1,-1.9591002E-2,9.04881E-2],"split_indices":[69,0,8,0,53,0,79,0,34,0,55,0,0],"split_type":[0,0,0,0,0,0,0,0,0,0,0,0,0],"sum_hessian":[1.924041E3,1.1581171E3,7.6592395E2,1.710584E2,5.948656E2,5.533938E1,5.395262E2,1.6116573E1,5.234096E2,5.4944797E0,5.1791516E2,1.4654248E0,5.164497E2],"tree_param":{"num_deleted":"0","num_feature":"80","num_nodes":"13","size_leaf_vector":"0"}},{"base_weights":[-7.927127E-3,-6.513042E-1,9.0498185E-1,-6.4834565E-1,1.3633285E0,-6.398247E-1,1.5517169E0,-6.19802E-1,1.630588E0,-5.4939896E-1,1.6535057E0,-3.372971E-1,1.6581445E0],"categories":[],"categories_nodes":[],"categories_segments":[],"categories_sizes":[],"default_left":[1,0,1,0,1,0,1,0,1,0,1,0,0],"id":8,"left_children":[1,-1,3,-1,5,-1,7,-1,9,-1,11,-1,-1],"loss_changes":[1.1232843E3,0E0,5.6378467E2,0E0,2.314967E2,0E0,9.668201E1,0E0,2.7851807E1,0E0,5.4902344E0,0E0,0E0],"parents":[2147483647,0,0,2,2,4,4,6,6,8,8,10,10],"right_children":[2,-1,4,-1,6,-1,8,-1,10,-1,12,-1,-1],"split_conditions":[5E-1,-3.256521E-2,5E-1,-3.2417282E-2,5E-1,-3.1991236E-2,5E-1,-3.09901E-2,5E-1,-2.7469948E-2,5E-1,-1.6864857E-2,8.290722E-2],"split_indices":[39,0,71,0,1,0,9,0,23,0,3,0,0],"split_type":[0,0,0,0,0,0,0,0,0,0,0,0,0],"sum_hessian":[1.9104753E3,1.1208427E3,7.896327E2,1.7981812E2,6.098146E2,5.2214676E1,5.575999E2,1.9302265E1,5.3829767E2,5.3610926E0,5.329366E2,1.0722148E0,5.318643E2],"tree_param":{"num_deleted":"0","num_feature":"80","num_nodes":"13","size_leaf_vector":"0"}},{"base_weights":[-5.1675984E-3,-6.513037E-1,9.1482174E-1,-6.4817566E-1,1.3607453E0,-6.398871E-1,1.5513834E0,-6.18785E-1,1.6272571E0,-5.59778E-1,1.6531919E0,-3.373009E-1,1.6578298E0],"categories":[],"categories_nodes":[],"categories_segments":[],"categories_sizes":[],"default_left":[1,0,1,0,1,0,1,0,1,0,1,0,0],"id":9,"left_children":[1,-1,3,-1,5,-1,7,-1,9,-1,11,-1,-1],"loss_changes":[1.1319791E3,0E0,5.484637E2,0E0,2.3424829E2,0E0,9.299634E1,0E0,3.155835E1,0E0,5.4887695E0,0E0,0E0],"parents":[2147483647,0,0,2,2,4,4,6,6,8,8,10,10],"right_children":[2,-1,4,-1,6,-1,8,-1,10,-1,12,-1,-1],"split_conditions":[5E-1,-3.2565188E-2,5E-1,-3.2408785E-2,5E-1,-3.1994354E-2,5E-1,-3.0939251E-2,5E-1,-2.79889E-2,5E-1,-1.6865045E-2,8.289149E-2],"split_indices":[45,0,75,0,40,0,65,0,15,0,14,0,0],"split_type":[0,0,0,0,0,0,0,0,0,0,0,0,0],"sum_hessian":[1.902281E3,1.1176288E3,7.8465216E2,1.7406987E2,6.105823E2,5.2914978E1,5.576673E2,1.859686E1,5.3907043E2,6.076403E0,5.329941E2,1.072228E0,5.319218E2],"tree_param":{"num_deleted":"0","num_feature":"80","num_nodes":"13","size_leaf_vector":"0"}},{"base_weights":[-9.105492E-3,-6.5125775E-1,9.2422646E-1,-6.481574E-1,1.3750155E0,-6.394524E-1,1.5607908E0,-6.171626E-1,1.6317959E0,-5.5075216E-1,1.654938E0],"categories":[],"categories_nodes":[],"categories_segments":[],"categories_sizes":[],"default_left":[1,0,1,0,1,0,1,0,1,0,0],"id":10,"left_children":[1,-1,3,-1,5,-1,7,-1,9,-1,-1],"loss_changes":[1.1438217E3,0E0,5.522603E2,0E0,2.2736548E2,0E0,8.6695435E1,0E0,2.802832E1,0E0,0E0],"parents":[2147483647,0,0,2,2,4,4,6,6,8,8],"right_children":[2,-1,4,-1,6,-1,8,-1,10,-1,-1],"split_conditions":[5E-1,-3.256289E-2,5E-1,-3.2407872E-2,5E-1,-3.197262E-2,5E-1,-3.085813E-2,5E-1,-2.7537609E-2,8.27469E-2],"split_indices":[46,0,11,0,62,0,29,0,0,0,0],"split_type":[0,0,0,0,0,0,0,0,0,0,0],"sum_hessian":[1.9064606E3,1.1295846E3,7.7687604E2,1.7300044E2,6.0387555E2,5.0781418E1,5.530942E2,1.7219667E1,5.358745E2,5.383197E0,5.304913E2],"tree_param":{"num_deleted":"0","num_feature":"80","num_nodes":"11","size_leaf_vector":"0"}},{"base_weights":[4.0232684E-3,-6.512745E-1,9.3333536E-1,-6.4825773E-1,1.3827133E0,-6.386364E-1,1.5544493E0,-6.1941344E-1,1.6293596E0,-5.4959357E-1,1.6518728E0,-3.836328E-1,1.6579487E0],"categories":[],"categories_nodes":[],"categories_segments":[],"categories_sizes":[],"default_left":[1,0,1,0,1,0,1,0,1,0,1,0,0],"id":11,"left_children":[1,-1,3,-1,5,-1,7,-1,9,-1,11,-1,-1],"loss_changes":[1.1633156E3,0E0,5.623569E2,0E0,2.1465686E2,0E0,9.343872E1,0E0,2.7837524E1,0E0,7.3588867E0,0E0,0E0],"parents":[2147483647,0,0,2,2,4,4,6,6,8,8,10,10],"right_children":[2,-1,4,-1,6,-1,8,-1,10,-1,12,-1,-1],"split_conditions":[5E-1,-3.2563727E-2,5E-1,-3.2412887E-2,5E-1,-3.193182E-2,5E-1,-3.0970672E-2,5E-1,-2.7479678E-2,5E-1,-1.918164E-2,8.289744E-2],"split_indices":[69,0,26,0,36,0,4,0,55,0,8,0,0],"split_type":[0,0,0,0,0,0,0,0,0,0,0,0,0],"sum_hessian":[1.9082828E3,1.1193092E3,7.889737E2,1.7447246E2,6.145012E2,4.79074E1,5.665938E2,1.8632025E1,5.479618E2,5.3642893E0,5.425975E2,1.4298834E0,5.411676E2],"tree_param":{"num_deleted":"0","num_feature":"80","num_nodes":"13","size_leaf_vector":"0"}},{"base_weights":[-3.3074737E-4,-6.4430183E-1,8.752314E-1,-6.4133495E-1,1.281089E0,-6.32878E-1,1.4535128E0,-6.028367E-1,1.5065012E0,-5.4144317E-1,1.5265608E0,-3.7551263E-1,1.5319717E0],"categories":[],"categories_nodes":[],"categories_segments":[],"categories_sizes":[],"default_left":[1,0,1,0,1,0,1,0,1,0,1,0,0],"id":12,"left_children":[1,-1,3,-1,5,-1,7,-1,9,-1,11,-1,-1],"loss_changes":[1.0656597E3,0E0,4.9383246E2,0E0,2.0955835E2,0E0,6.4135864E1,0E0,2.4077393E1,0E0,6.3464355E0,0E0,0E0],"parents":[2147483647,0,0,2,2,4,4,6,6,8,8,10,10],"right_children":[2,-1,4,-1,6,-1,8,-1,10,-1,12,-1,-1],"split_conditions":[5E-1,-3.2215092E-2,5E-1,-3.2066748E-2,5E-1,-3.16439E-2,5E-1,-3.0141836E-2,5E-1,-2.707216E-2,5E-1,-1.8775633E-2,7.6598585E-2],"split_indices":[39,0,5,0,63,0,31,0,73,0,1,0,0],"split_type":[0,0,0,0,0,0,0,0,0,0,0,0,0],"sum_hessian":[1.8880146E3,1.088035E3,7.9997955E2,1.6876727E2,6.312123E2,5.1944054E1,5.7926825E2,1.4291059E1,5.649772E2,5.228164E0,5.59749E2,1.393786E0,5.583552E2],"tree_param":{"num_deleted":"0","num_feature":"80","num_nodes":"13","size_leaf_vector":"0"}},{"base_weights":[-4.817832E-3,-6.4433175E-1,8.7717533E-1,-6.4115804E-1,1.2823163E0,-6.325531E-1,1.4462988E0,-6.0888827E-1,1.5077847E0,-5.4187244E-1,1.5277578E0,-3.297419E-1,1.5317913E0],"categories":[],"categories_nodes":[],"categories_segments":[],"categories_sizes":[],"default_left":[1,0,1,0,1,0,1,0,1,0,1,0,0],"id":13,"left_children":[1,-1,3,-1,5,-1,7,-1,9,-1,11,-1,-1],"loss_changes":[1.0810925E3,0E0,4.9638428E2,0E0,2.0070312E2,0E0,7.501514E1,0E0,2.4147339E1,0E0,4.7336426E0,0E0,0E0],"parents":[2147483647,0,0,2,2,4,4,6,6,8,8,10,10],"right_children":[2,-1,4,-1,6,-1,8,-1,10,-1,12,-1,-1],"split_conditions":[5E-1,-3.221659E-2,5E-1,-3.2057904E-2,5E-1,-3.1627655E-2,5E-1,-3.0444413E-2,5E-1,-2.7093623E-2,5E-1,-1.6487096E-2,7.658957E-2],"split_indices":[59,0,75,0,14,0,30,0,28,0,6,0,0],"split_type":[0,0,0,0,0,0,0,0,0,0,0,0,0],"sum_hessian":[1.914669E3,1.110059E3,8.0461E2,1.6935211E2,6.352579E2,4.988458E1,5.853733E2,1.6745497E1,5.686278E2,5.2354E0,5.633924E2,1.0457913E0,5.623466E2],"tree_param":{"num_deleted":"0","num_feature":"80","num_nodes":"13","size_leaf_vector":"0"}},{"base_weights":[-6.4940285E-3,-6.442878E-1,8.766928E-1,-6.4145875E-1,1.2817618E0,-6.3208586E-1,1.4416355E0,-6.1116E-1,1.5067981E0,-5.523652E-1,1.5294288E0],"categories":[],"categories_nodes":[],"categories_segments":[],"categories_sizes":[],"default_left":[1,0,1,0,1,0,1,0,1,0,0],"id":14,"left_children":[1,-1,3,-1,5,-1,7,-1,9,-1,-1],"loss_changes":[1.0833713E3,0E0,4.9678247E2,0E0,1.9580615E2,0E0,7.959717E1,0E0,2.7423584E1,0E0,0E0],"parents":[2147483647,0,0,2,2,4,4,6,6,8,8],"right_children":[2,-1,4,-1,6,-1,8,-1,10,-1,-1],"split_conditions":[5E-1,-3.2214392E-2,5E-1,-3.207294E-2,5E-1,-3.1604294E-2,5E-1,-3.0558E-2,5E-1,-2.761826E-2,7.647144E-2],"split_indices":[46,0,77,0,62,0,60,0,41,0,0],"split_type":[0,0,0,0,0,0,0,0,0,0,0],"sum_hessian":[1.9212859E3,1.1157888E3,8.05497E2,1.6953099E2,6.35966E2,4.880214E1,5.871639E2,1.780733E1,5.6935657E2,5.9348774E0,5.634217E2],"tree_param":{"num_deleted":"0","num_feature":"80","num_nodes":"11","size_leaf_vector":"0"}},{"base_weights":[1.059518E-3,-6.4429617E-1,8.7701035E-1,-6.411998E-1,1.2751594E0,-6.327677E-1,1.437745E0,-6.1062276E-1,1.5013204E0,-5.565242E-1,1.5251299E0,-4.09905E-1,1.5318345E0],"categories":[],"categories_nodes":[],"categories_segments":[],"categories_sizes":[],"default_left":[1,0,1,0,1,0,1,0,1,0,1,0,0],"id":15,"left_children":[1,-1,3,-1,5,-1,7,-1,9,-1,11,-1,-1],"loss_changes":[1.0753197E3,0E0,4.8859143E2,0E0,1.9932129E2,0E0,7.771094E1,0E0,2.888623E1,0E0,7.970581E0,0E0,0E0],"parents":[2147483647,0,0,2,2,4,4,6,6,8,8,10,10],"right_children":[2,-1,4,-1,6,-1,8,-1,10,-1,12,-1,-1],"split_conditions":[5E-1,-3.221481E-2,5E-1,-3.2059994E-2,5E-1,-3.1638384E-2,5E-1,-3.0531138E-2,5E-1,-2.782621E-2,5E-1,-2.0495249E-2,7.659172E-2],"split_indices":[69,0,8,0,55,0,72,0,18,0,64,0,0],"split_type":[0,0,0,0,0,0,0,0,0,0,0,0,0],"sum_hessian":[1.9002114E3,1.0942722E3,8.059392E2,1.6731772E2,6.3862146E2,4.992024E1,5.8870123E2,1.746252E1,5.712387E2,6.277796E0,5.6496094E2,1.7431023E0,5.6321783E2],"tree_param":{"num_deleted":"0","num_feature":"80","num_nodes":"13","size_leaf_vector":"0"}},{"base_weights":[-5.081428E-3,-6.376183E-1,8.2715386E-1,-6.3463455E-1,1.2037201E0,-6.2518054E-1,1.3470296E0,-6.009728E-1,1.4014732E0,-5.35466E-1,1.4195849E0,-3.681656E-1,1.4244459E0],"categories":[],"categories_nodes":[],"categories_segments":[],"categories_sizes":[],"default_left":[1,0,1,0,1,0,1,0,1,0,1,0,0],"id":16,"left_children":[1,-1,3,-1,5,-1,7,-1,9,-1,11,-1,-1],"loss_changes":[9.884479E2,0E0,4.4710297E2,0E0,1.6992194E2,0E0,6.432141E1,0E0,2.1197144E1,0E0,5.5426025E0,0E0,0E0],"parents":[2147483647,0,0,2,2,4,4,6,6,8,8,10,10],"right_children":[2,-1,4,-1,6,-1,8,-1,10,-1,12,-1,-1],"split_conditions":[5E-1,-3.1880915E-2,5E-1,-3.173173E-2,5E-1,-3.1259026E-2,5E-1,-3.0048639E-2,5E-1,-2.6773302E-2,5E-1,-1.8408282E-2,7.12223E-2],"split_indices":[33,0,44,0,70,0,31,0,9,0,42,0,0],"split_type":[0,0,0,0,0,0,0,0,0,0,0,0,0],"sum_hessian":[1.8756791E3,1.065832E3,8.0984717E2,1.6574767E2,6.440995E2,4.6558792E1,5.975407E2,1.5973342E1,5.815673E2,5.1230454E0,5.7644434E2,1.3604667E0,5.7508386E2],"tree_param":{"num_deleted":"0","num_feature":"80","num_nodes":"13","size_leaf_vector":"0"}},{"base_weights":[9.951786E-3,-6.376564E-1,8.314366E-1,-6.344437E-1,1.192422E0,-6.2536657E-1,1.3318563E0,-6.059458E-1,1.3930166E0,-5.6300473E-1,1.4185553E0,-4.2813635E-1,1.4256307E0],"categories":[],"categories_nodes":[],"categories_segments":[],"categories_sizes":[],"default_left":[1,0,1,0,1,0,1,0,1,0,1,0,0],"id":17,"left_children":[1,-1,3,-1,5,-1,7,-1,9,-1,11,-1,-1],"loss_changes":[1.003526E3,0E0,4.407693E2,0E0,1.7003564E2,0E0,7.436328E1,0E0,3.085376E1,0E0,8.3741455E0,0E0,0E0],"parents":[2147483647,0,0,2,2,4,4,6,6,8,8,10,10],"right_children":[2,-1,4,-1,6,-1,8,-1,10,-1,12,-1,-1],"split_conditions":[5E-1,-3.188282E-2,5E-1,-3.1722184E-2,5E-1,-3.126833E-2,5E-1,-3.0297292E-2,5E-1,-2.8150236E-2,5E-1,-2.1406818E-2,7.128154E-2],"split_indices":[51,0,24,0,66,0,30,0,6,0,38,0,0],"split_type":[0,0,0,0,0,0,0,0,0,0,0,0,0],"sum_hessian":[1.8843295E3,1.0538011E3,8.305283E2,1.6396123E2,6.665671E2,4.7238544E1,6.1932855E2,1.8676483E1,6.006521E2,7.4700656E0,5.93182E2,2.0369027E0,5.911451E2],"tree_param":{"num_deleted":"0","num_feature":"80","num_nodes":"13","size_leaf_vector":"0"}},{"base_weights":[-4.807098E-3,-6.375879E-1,8.372054E-1,-6.3479483E-1,1.2072871E0,-6.251349E-1,1.3486398E0,-6.0202026E-1,1.4042913E0,-5.442256E-1,1.4247211E0],"categories":[],"categories_nodes":[],"categories_segments":[],"categories_sizes":[],"default_left":[1,0,1,0,1,0,1,0,1,0,0],"id":18,"left_children":[1,-1,3,-1,5,-1,7,-1,9,-1,-1],"loss_changes":[1.0024233E3,0E0,4.4051886E2,0E0,1.6801514E2,0E0,6.592566E1,0E0,2.3990112E1,0E0,0E0],"parents":[2147483647,0,0,2,2,4,4,6,6,8,8],"right_children":[2,-1,4,-1,6,-1,8,-1,10,-1,-1],"split_conditions":[5E-1,-3.1879395E-2,5E-1,-3.173974E-2,5E-1,-3.1256747E-2,5E-1,-3.0101014E-2,5E-1,-2.7211279E-2,7.123606E-2],"split_indices":[46,0,0,0,50,0,25,0,74,0,0],"split_type":[0,0,0,0,0,0,0,0,0,0,0],"sum_hessian":[1.8793904E3,1.0731501E3,8.0624023E2,1.6183322E2,6.4440704E2,4.5904396E1,5.985026E2,1.6329023E1,5.821736E2,5.7746143E0,5.76399E2],"tree_param":{"num_deleted":"0","num_feature":"80","num_nodes":"11","size_leaf_vector":"0"}},{"base_weights":[6.927291E-4,-6.376333E-1,8.2768714E-1,-6.3453716E-1,1.1994736E0,-6.254739E-1,1.3460482E0,-6.022358E-1,1.4018203E0,-5.390124E-1,1.4207033E0,-3.6752632E-1,1.4254785E0],"categories":[],"categories_nodes":[],"categories_segments":[],"categories_sizes":[],"default_left":[1,0,1,0,1,0,1,0,1,0,1,0,0],"id":19,"left_children":[1,-1,3,-1,5,-1,7,-1,9,-1,11,-1,-1],"loss_changes":[9.985605E2,0E0,4.4872882E2,0E0,1.7667017E2,0E0,6.6993286E1,0E0,2.2466675E1,0E0,5.5338135E0,0E0,0E0],"parents":[2147483647,0,0,2,2,4,4,6,6,8,8,10,10],"right_children":[2,-1,4,-1,6,-1,8,-1,10,-1,12,-1,-1],"split_conditions":[5E-1,-3.1881668E-2,5E-1,-3.172686E-2,5E-1,-3.1273697E-2,5E-1,-3.011179E-2,5E-1,-2.6950618E-2,5E-1,-1.8376317E-2,7.127392E-2],"split_indices":[10,0,43,0,53,0,58,0,20,0,72,0,0],"split_type":[0,0,0,0,0,0,0,0,0,0,0,0,0],"sum_hessian":[1.8896001E3,1.0665776E3,8.230224E2,1.6669797E2,6.563244E2,4.855213E1,6.077723E2,1.6641356E1,5.911309E2,5.430475E0,5.8570044E2,1.3575423E0,5.843429E2],"tree_param":{"num_deleted":"0","num_feature":"80","num_nodes":"13","size_leaf_vector":"0"}},{"base_weights":[-4.7727735E-3,-6.3120353E-1,7.784835E-1,-6.2820995E-1,1.1249578E0,-6.1907727E-1,1.259339E0,-5.954061E-1,1.3109396E0,-5.4100174E-1,1.330591E0,-3.5968575E-1,1.3350106E0],"categories":[],"categories_nodes":[],"categories_segments":[],"categories_sizes":[],"default_left":[1,0,1,0,1,0,1,0,1,0,1,0,0],"id":20,"left_children":[1,-1,3,-1,5,-1,7,-1,9,-1,11,-1,-1],"loss_changes":[9.0338617E2,0E0,3.9947333E2,0E0,1.5472089E2,0E0,5.917859E1,0E0,2.233667E1,0E0,4.873047E0,0E0,0E0],"parents":[2147483647,0,0,2,2,4,4,6,6,8,8,10,10],"right_children":[2,-1,4,-1,6,-1,8,-1,10,-1,12,-1,-1],"split_conditions":[5E-1,-3.156018E-2,5E-1,-3.1410497E-2,5E-1,-3.0953864E-2,5E-1,-2.9770305E-2,5E-1,-2.7050087E-2,5E-1,-1.7984288E-2,6.6750534E-2],"split_indices":[39,0,23,0,70,0,3,0,22,0,33,0,0],"split_type":[0,0,0,0,0,0,0,0,0,0,0,0,0],"sum_hessian":[1.8391796E3,1.0220006E3,8.1717896E2,1.6133641E2,6.558425E2,4.666069E1,6.091819E2,1.620395E1,5.929779E2,5.947594E0,5.8703033E2,1.3213273E0,5.85709E2],"tree_param":{"num_deleted":"0","num_feature":"80","num_nodes":"13","size_leaf_vector":"0"}},{"base_weights":[9.378228E-4,-6.312227E-1,7.853198E-1,-6.283323E-1,1.1276369E0,-6.19372E-1,1.2635666E0,-5.9715265E-1,1.3158633E0,-5.2629244E-1,1.3317852E0],"categories":[],"categories_nodes":[],"categories_segments":[],"categories_sizes":[],"default_left":[1,0,1,0,1,0,1,0,1,0,0],"id":21,"left_children":[1,-1,3,-1,5,-1,7,-1,9,-1,-1],"loss_changes":[9.3503644E2,0E0,4.079408E2,0E0,1.617492E2,0E0,6.2016052E1,0E0,1.8661255E1,0E0,0E0],"parents":[2147483647,0,0,2,2,4,4,6,6,8,8],"right_children":[2,-1,4,-1,6,-1,8,-1,10,-1,-1],"split_conditions":[5E-1,-3.1561136E-2,5E-1,-3.1416617E-2,5E-1,-3.09686E-2,5E-1,-2.9857634E-2,5E-1,-2.6314622E-2,6.658926E-2],"split_indices":[75,0,30,0,15,0,40,0,38,0,0],"split_type":[0,0,0,0,0,0,0,0,0,0,0],"sum_hessian":[1.8837045E3,1.0431716E3,8.405328E2,1.6369466E2,6.7683813E2,4.860433E1,6.282338E2,1.688937E1,6.113444E2,4.963938E0,6.063805E2],"tree_param":{"num_deleted":"0","num_feature":"80","num_nodes":"11","size_leaf_vector":"0"}},{"base_weights":[1.5888187E-3,-6.312662E-1,7.964636E-1,-6.278959E-1,1.1362684E0,-6.191598E-1,1.272006E0,-5.894785E-1,1.3158637E0,-5.258483E-1,1.3320204E0],"categories":[],"categories_nodes":[],"categories_segments":[],"categories_sizes":[],"default_left":[1,0,1,0,1,0,1,0,1,0,0],"id":22,"left_children":[1,-1,3,-1,5,-1,7,-1,9,-1,-1],"loss_changes":[9.322996E2,0E0,3.9832544E2,0E0,1.5891522E2,0E0,5.1092346E1,0E0,1.8626831E1,0E0,0E0],"parents":[2147483647,0,0,2,2,4,4,6,6,8,8],"right_children":[2,-1,4,-1,6,-1,8,-1,10,-1,-1],"split_conditions":[5E-1,-3.1563308E-2,5E-1,-3.1394795E-2,5E-1,-3.0957991E-2,5E-1,-2.9473925E-2,5E-1,-2.6292417E-2,6.660102E-2],"split_indices":[13,0,77,0,21,0,7,0,29,0,0],"split_type":[0,0,0,0,0,0,0,0,0,0,0],"sum_hessian":[1.85133E3,1.0308247E3,8.2050525E2,1.5787845E2,6.6262683E2,4.7304176E1,6.1532263E2,1.3877276E1,6.014454E2,4.956048E0,5.964893E2],"tree_param":{"num_deleted":"0","num_feature":"80","num_nodes":"11","size_leaf_vector":"0"}},{"base_weights":[-3.150199E-3,-6.312047E-1,7.8401816E-1,-6.281104E-1,1.1333904E0,-6.183084E-1,1.2597935E0,-5.968351E-1,1.3131665E0,-5.3144056E-1,1.3305156E0,-3.602426E-1,1.3349096E0],"categories":[],"categories_nodes":[],"categories_segments":[],"categories_sizes":[],"default_left":[1,0,1,0,1,0,1,0,1,0,1,0,0],"id":23,"left_children":[1,-1,3,-1,5,-1,7,-1,9,-1,11,-1,-1],"loss_changes":[9.151474E2,0E0,4.0599844E2,0E0,1.4667493E2,0E0,6.17157E1,0E0,1.9845093E1,0E0,4.8845215E0,0E0,0E0],"parents":[2147483647,0,0,2,2,4,4,6,6,8,8,10,10],"right_children":[2,-1,4,-1,6,-1,8,-1,10,-1,12,-1,-1],"split_conditions":[5E-1,-3.156024E-2,5E-1,-3.140552E-2,5E-1,-3.0915422E-2,5E-1,-2.9841755E-2,5E-1,-2.6572028E-2,5E-1,-1.801213E-2,6.674548E-2],"split_indices":[36,0,48,0,20,0,52,0,26,0,34,0,0],"split_type":[0,0,0,0,0,0,0,0,0,0,0,0,0],"sum_hessian":[1.8490829E3,1.028598E3,8.2048486E2,1.6257495E2,6.579099E2,4.4017826E1,6.138921E2,1.6870014E1,5.9702203E2,5.286761E0,5.917353E2,1.3239168E0,5.904114E2],"tree_param":{"num_deleted":"0","num_feature":"80","num_nodes":"13","size_leaf_vector":"0"}},{"base_weights":[-6.0176286E-3,-6.2512296E-1,7.4168235E-1,-6.21851E-1,1.0624641E0,-6.123764E-1,1.1839542E0,-5.944621E-1,1.2401203E0,-5.119691E-1,1.2539622E0],"categories":[],"categories_nodes":[],"categories_segments":[],"categories_sizes":[],"default_left":[1,0,1,0,1,0,1,0,1,0,0],"id":24,"left_children":[1,-1,3,-1,5,-1,7,-1,9,-1,-1],"loss_changes":[8.516611E2,0E0,3.651712E2,0E0,1.3807526E2,0E0,6.363623E1,0E0,1.5454041E1,0E0,0E0],"parents":[2147483647,0,0,2,2,4,4,6,6,8,8],"right_children":[2,-1,4,-1,6,-1,8,-1,10,-1,-1],"split_conditions":[5E-1,-3.125615E-2,5E-1,-3.1092552E-2,5E-1,-3.061882E-2,5E-1,-2.9723106E-2,5E-1,-2.5598455E-2,6.269811E-2],"split_indices":[57,0,71,0,47,0,22,0,31,0,0],"split_type":[0,0,0,0,0,0,0,0,0,0,0],"sum_hessian":[1.8378165E3,1.00545264E3,8.323639E2,1.583469E2,6.74017E2,4.5312115E1,6.287049E2,1.8954475E1,6.097504E2,4.4973164E0,6.052531E2],"tree_param":{"num_deleted":"0","num_feature":"80","num_nodes":"11","size_leaf_vector":"0"}},{"base_weights":[-2.6391707E-3,-6.250559E-1,7.468008E-1,-6.2214214E-1,1.0606279E0,-6.1280847E-1,1.1833279E0,-5.9193236E-1,1.2344091E0,-5.379132E-1,1.2530704E0,-3.5200253E-1,1.2570446E0],"categories":[],"categories_nodes":[],"categories_segments":[],"categories_sizes":[],"default_left":[1,0,1,0,1,0,1,0,1,0,1,0,0],"id":25,"left_children":[1,-1,3,-1,5,-1,7,-1,9,-1,11,-1,-1],"loss_changes":[8.5694635E2,0E0,3.587438E2,0E0,1.4002783E2,0E0,5.808075E1,0E0,2.101648E1,0E0,4.3268433E0,0E0,0E0],"parents":[2147483647,0,0,2,2,4,4,6,6,8,8,10,10],"right_children":[2,-1,4,-1,6,-1,8,-1,10,-1,12,-1,-1],"split_conditions":[5E-1,-3.1252798E-2,5E-1,-3.1107107E-2,5E-1,-3.0640423E-2,5E-1,-2.9596617E-2,5E-1,-2.689566E-2,5E-1,-1.7600127E-2,6.2852226E-2],"split_indices":[75,0,12,0,65,0,32,0,24,0,45,0,0],"split_type":[0,0,0,0,0,0,0,0,0,0,0,0,0],"sum_hessian":[1.835111E3,1.0026046E3,8.3250635E2,1.5507454E2,6.7743176E2,4.6004726E1,6.3142706E2,1.7364311E1,6.1406274E2,6.1083217E0,6.079544E2,1.2853134E0,6.066691E2],"tree_param":{"num_deleted":"0","num_feature":"80","num_nodes":"13","size_leaf_vector":"0"}},{"base_weights":[-9.2123905E-3,-6.250514E-1,7.503112E-1,-6.2212956E-1,1.0744449E0,-6.12347E-1,1.1947747E0,-5.882959E-1,1.2391268E0,-5.325705E-1,1.2561538E0],"categories":[],"categories_nodes":[],"categories_segments":[],"categories_sizes":[],"default_left":[1,0,1,0,1,0,1,0,1,0,0],"id":26,"left_children":[1,-1,3,-1,5,-1,7,-1,9,-1,-1],"loss_changes":[8.6711975E2,0E0,3.6993616E2,0E0,1.3710071E2,0E0,5.0350708E1,0E0,1.914801E1,0E0,0E0],"parents":[2147483647,0,0,2,2,4,4,6,6,8,8],"right_children":[2,-1,4,-1,6,-1,8,-1,10,-1,-1],"split_conditions":[5E-1,-3.125257E-2,5E-1,-3.1106478E-2,5E-1,-3.061735E-2,5E-1,-2.9414793E-2,5E-1,-2.6628524E-2,6.2807694E-2],"split_indices":[46,0,11,0,62,0,0,0,29,0,0],"split_type":[0,0,0,0,0,0,0,0,0,0,0],"sum_hessian":[1.8518303E3,1.0227436E3,8.2908673E2,1.5822295E2,6.708638E2,4.4398155E1,6.2646564E2,1.490683E1,6.115588E2,5.533297E0,6.060255E2],"tree_param":{"num_deleted":"0","num_feature":"80","num_nodes":"11","size_leaf_vector":"0"}},{"base_weights":[-1.4047233E-3,-6.2505174E-1,7.608738E-1,-6.2189746E-1,1.0669376E0,-6.1285377E-1,1.1917342E0,-5.872336E-1,1.2362494E0,-5.292527E-1,1.2528903E0,-3.5187763E-1,1.2568433E0],"categories":[],"categories_nodes":[],"categories_segments":[],"categories_sizes":[],"default_left":[1,0,1,0,1,0,1,0,1,0,1,0,0],"id":27,"left_children":[1,-1,3,-1,5,-1,7,-1,9,-1,11,-1,-1],"loss_changes":[8.757256E2,0E0,3.5147772E2,0E0,1.4308514E2,0E0,5.0810303E1,0E0,1.8799805E1,0E0,4.3236694E0,0E0,0E0],"parents":[2147483647,0,0,2,2,4,4,6,6,8,8,10,10],"right_children":[2,-1,4,-1,6,-1,8,-1,10,-1,12,-1,-1],"split_conditions":[5E-1,-3.125259E-2,5E-1,-3.1094873E-2,5E-1,-3.0642688E-2,5E-1,-2.936168E-2,5E-1,-2.6462635E-2,5E-1,-1.7593881E-2,6.284217E-2],"split_indices":[69,0,18,0,55,0,58,0,20,0,36,0,0],"split_type":[0,0,0,0,0,0,0,0,0,0,0,0,0],"sum_hessian":[1.8401095E3,1.0121851E3,8.279244E2,1.4985587E2,6.7806854E2,4.662151E1,6.31447E2,1.5117413E1,6.163296E2,5.467387E0,6.1086224E2,1.2847242E0,6.095775E2],"tree_param":{"num_deleted":"0","num_feature":"80","num_nodes":"13","size_leaf_vector":"0"}},{"base_weights":[1.0883857E-3,-6.191949E-1,7.230813E-1,-6.159511E-1,1.0176892E0,-6.061003E-1,1.1282858E0,-5.834035E-1,1.1719551E0,-5.1683545E-1,1.1863599E0],"categories":[],"categories_nodes":[],"categories_segments":[],"categories_sizes":[],"default_left":[1,0,1,0,1,0,1,0,1,0,0],"id":28,"left_children":[1,-1,3,-1,5,-1,7,-1,9,-1,-1],"loss_changes":[8.1078644E2,0E0,3.3066705E2,0E0,1.2390234E2,0E0,4.8726196E1,0E0,1.5867615E1,0E0,0E0],"parents":[2147483647,0,0,2,2,4,4,6,6,8,8],"right_children":[2,-1,4,-1,6,-1,8,-1,10,-1,-1],"split_conditions":[5E-1,-3.0959746E-2,5E-1,-3.0797556E-2,5E-1,-3.0305017E-2,5E-1,-2.9170176E-2,5E-1,-2.5841773E-2,5.9317995E-2],"split_indices":[44,0,3,0,39,0,57,0,70,0,0],"split_type":[0,0,0,0,0,0,0,0,0,0,0],"sum_hessian":[1.8084373E3,9.7281146E2,8.356258E2,1.5049866E2,6.8512714E2,4.3402767E1,6.4172437E2,1.5657149E1,6.260672E2,4.9999657E0,6.2106726E2],"tree_param":{"num_deleted":"0","num_feature":"80","num_nodes":"11","size_leaf_vector":"0"}},{"base_weights":[9.231888E-4,-6.1917436E-1,7.1856135E-1,-6.162259E-1,1.0106564E0,-6.0737354E-1,1.1258311E0,-5.8669764E-1,1.1740133E0,-5.112763E-1,1.1873796E0],"categories":[],"categories_nodes":[],"categories_segments":[],"categories_sizes":[],"default_left":[1,0,1,0,1,0,1,0,1,0,0],"id":29,"left_children":[1,-1,3,-1,5,-1,7,-1,9,-1,-1],"loss_changes":[8.159809E2,0E0,3.320132E2,0E0,1.3071259E2,0E0,5.4464966E1,0E0,1.4893799E1,0E0,0E0],"parents":[2147483647,0,0,2,2,4,4,6,6,8,8],"right_children":[2,-1,4,-1,6,-1,8,-1,10,-1,-1],"split_conditions":[5E-1,-3.0958718E-2,5E-1,-3.0811295E-2,5E-1,-3.0368676E-2,5E-1,-2.9334882E-2,5E-1,-2.5563816E-2,5.936898E-2],"split_indices":[75,0,65,0,38,0,15,0,30,0,0],"split_type":[0,0,0,0,0,0,0,0,0,0,0],"sum_hessian":[1.8316418E3,9.826713E2,8.4897046E2,1.5222733E2,6.9674316E2,4.6015907E1,6.5072723E2,1.7501394E1,6.332258E2,4.689601E0,6.2853625E2],"tree_param":{"num_deleted":"0","num_feature":"80","num_nodes":"11","size_leaf_vector":"0"}},{"base_weights":[2.161053E-4,-6.1914396E-1,7.256427E-1,-6.1595476E-1,1.01267E0,-6.0705435E-1,1.1236173E0,-5.869421E-1,1.1710147E0,-5.254791E-1,1.1865932E0],"categories":[],"categories_nodes":[],"categories_segments":[],"categories_sizes":[],"default_left":[1,0,1,0,1,0,1,0,1,0,0],"id":30,"left_children":[1,-1,3,-1,5,-1,7,-1,9,-1,-1],"loss_changes":[8.114134E2,0E0,3.2091183E2,0E0,1.238772E2,0E0,5.2733887E1,0E0,1.7140808E1,0E0,0E0],"parents":[2147483647,0,0,2,2,4,4,6,6,8,8],"right_children":[2,-1,4,-1,6,-1,8,-1,10,-1,-1],"split_conditions":[5E-1,-3.0957198E-2,5E-1,-3.0797739E-2,5E-1,-3.0352717E-2,5E-1,-2.9347105E-2,5E-1,-2.6273955E-2,5.932966E-2],"split_indices":[46,0,11,0,29,0,60,0,17,0,0],"split_type":[0,0,0,0,0,0,0,0,0,0,0],"sum_hessian":[1.8039489E3,9.7319434E2,8.307545E2,1.4620947E2,6.8454504E2,4.35971E1,6.40948E2,1.6974098E1,6.239739E2,5.3798175E0,6.1859406E2],"tree_param":{"num_deleted":"0","num_feature":"80","num_nodes":"11","size_leaf_vector":"0"}},{"base_weights":[5.691947E-3,-6.1917025E-1,7.37783E-1,-6.159497E-1,1.0232556E0,-6.0617393E-1,1.1304173E0,-5.828941E-1,1.1730626E0,-5.117108E-1,1.1862968E0],"categories":[],"categories_nodes":[],"categories_segments":[],"categories_sizes":[],"default_left":[1,0,1,0,1,0,1,0,1,0,0],"id":31,"left_children":[1,-1,3,-1,5,-1,7,-1,9,-1,-1],"loss_changes":[8.414214E2,0E0,3.2795514E2,0E0,1.2289044E2,0E0,4.8689148E1,0E0,1.4908386E1,0E0,0E0],"parents":[2147483647,0,0,2,2,4,4,6,6,8,8],"right_children":[2,-1,4,-1,6,-1,8,-1,10,-1,-1],"split_conditions":[5E-1,-3.0958513E-2,5E-1,-3.0797485E-2,5E-1,-3.0308697E-2,5E-1,-2.9144704E-2,5E-1,-2.5585542E-2,5.9314843E-2],"split_indices":[69,0,18,0,49,0,55,0,34,0,0],"split_type":[0,0,0,0,0,0,0,0,0,0,0],"sum_hessian":[1.8373506E3,9.913539E2,8.459967E2,1.4713127E2,6.988654E2,4.283829E1,6.560271E2,1.5624618E1,6.404025E2,4.6977606E0,6.357047E2],"tree_param":{"num_deleted":"0","num_feature":"80","num_nodes":"11","size_leaf_vector":"0"}},{"base_weights":[-1.1272982E-3,-6.13539E-1,6.8817484E-1,-6.104967E-1,9.641239E-1,-6.015287E-1,1.0743959E0,-5.7951546E-1,1.1179888E0,-4.8242977E-1,1.1279817E0],"categories":[],"categories_nodes":[],"categories_segments":[],"categories_sizes":[],"default_left":[1,0,1,0,1,0,1,0,1,0,0],"id":32,"left_children":[1,-1,3,-1,5,-1,7,-1,9,-1,-1],"loss_changes":[7.5848444E2,0E0,3.035241E2,0E0,1.21079834E2,0E0,4.765851E1,0E0,1.0709473E1,0E0,0E0],"parents":[2147483647,0,0,2,2,4,4,6,6,8,8],"right_children":[2,-1,4,-1,6,-1,8,-1,10,-1,-1],"split_conditions":[5E-1,-3.067695E-2,5E-1,-3.0524835E-2,5E-1,-3.0076435E-2,5E-1,-2.8975774E-2,5E-1,-2.412149E-2,5.6399085E-2],"split_indices":[39,0,71,0,70,0,1,0,5,0,0],"split_type":[0,0,0,0,0,0,0,0,0,0,0],"sum_hessian":[1.7947743E3,9.5045276E2,8.4432153E2,1.4775316E2,6.9656836E2,4.5539474E1,6.510289E2,1.6403116E1,6.3462573E2,3.6445785E0,6.309812E2],"tree_param":{"num_deleted":"0","num_feature":"80","num_nodes":"11","size_leaf_vector":"0"}},{"base_weights":[-9.544389E-3,-6.135349E-1,6.8001455E-1,-6.1057746E-1,9.6122617E-1,-6.019585E-1,1.0735973E0,-5.7650286E-1,1.113608E0,-5.0522864E-1,1.1262721E0,-3.377731E-1,1.1296729E0],"categories":[],"categories_nodes":[],"categories_segments":[],"categories_sizes":[],"default_left":[1,0,1,0,1,0,1,0,1,0,1,0,0],"id":33,"left_children":[1,-1,3,-1,5,-1,7,-1,9,-1,11,-1,-1],"loss_changes":[7.4925055E2,0E0,3.0544525E2,0E0,1.2186694E2,0E0,4.3171448E1,0E0,1.3469788E1,0E0,3.4918213E0,0E0,0E0],"parents":[2147483647,0,0,2,2,4,4,6,6,8,8,10,10],"right_children":[2,-1,4,-1,6,-1,8,-1,10,-1,12,-1,-1],"split_conditions":[5E-1,-3.0676747E-2,5E-1,-3.0528873E-2,5E-1,-3.0097926E-2,5E-1,-2.8825143E-2,5E-1,-2.5261432E-2,5E-1,-1.6888656E-2,5.6483645E-2],"split_indices":[75,0,59,0,12,0,28,0,27,0,32,0,0],"split_type":[0,0,0,0,0,0,0,0,0,0,0,0,0],"sum_hessian":[1.7969749E3,9.579812E2,8.389936E2,1.4989491E2,6.890987E2,4.5922226E1,6.4317645E2,1.4908737E1,6.2826776E2,4.574868E0,6.236929E2,1.2175142E0,6.2247534E2],"tree_param":{"num_deleted":"0","num_feature":"80","num_nodes":"13","size_leaf_vector":"0"}},{"base_weights":[8.2209834E-4,-6.135722E-1,6.9531584E-1,-6.104927E-1,9.6761656E-1,-6.011441E-1,1.0753742E0,-5.7414E-1,1.1132003E0,-5.0504905E-1,1.1257055E0,-3.698327E-1,1.1298829E0],"categories":[],"categories_nodes":[],"categories_segments":[],"categories_sizes":[],"default_left":[1,0,1,0,1,0,1,0,1,0,1,0,0],"id":34,"left_children":[1,-1,3,-1,5,-1,7,-1,9,-1,11,-1,-1],"loss_changes":[7.630873E2,0E0,2.990818E2,0E0,1.18134155E2,0E0,4.123883E1,0E0,1.3447876E1,0E0,4.3656006E0,0E0,0E0],"parents":[2147483647,0,0,2,2,4,4,6,6,8,8,10,10],"right_children":[2,-1,4,-1,6,-1,8,-1,10,-1,12,-1,-1],"split_conditions":[5E-1,-3.067861E-2,5E-1,-3.0524636E-2,5E-1,-3.0057205E-2,5E-1,-2.8707001E-2,5E-1,-2.5252452E-2,5E-1,-1.8491635E-2,5.6494147E-2],"split_indices":[62,0,25,0,2,0,74,0,21,0,7,0,0],"split_type":[0,0,0,0,0,0,0,0,0,0,0,0,0],"sum_hessian":[1.7863756E3,9.4790967E2,8.3846594E2,1.4446193E2,6.94004E2,4.431261E1,6.496914E2,1.4246662E1,6.3544476E2,4.5707355E0,6.30874E2,1.5135102E0,6.2936053E2],"tree_param":{"num_deleted":"0","num_feature":"80","num_nodes":"13","size_leaf_vector":"0"}},{"base_weights":[-3.962725E-3,-6.135282E-1,6.9023746E-1,-6.1042553E-1,9.6639556E-1,-6.011944E-1,1.0746056E0,-5.751268E-1,1.1118715E0,-5.211079E-1,1.1268942E0],"categories":[],"categories_nodes":[],"categories_segments":[],"categories_sizes":[],"default_left":[1,0,1,0,1,0,1,0,1,0,0],"id":35,"left_children":[1,-1,3,-1,5,-1,7,-1,9,-1,-1],"loss_changes":[7.637864E2,0E0,3.0370782E2,0E0,1.18790344E2,0E0,4.071582E1,0E0,1.6233826E1,0E0,0E0],"parents":[2147483647,0,0,2,2,4,4,6,6,8,8],"right_children":[2,-1,4,-1,6,-1,8,-1,10,-1,-1],"split_conditions":[5E-1,-3.067641E-2,5E-1,-3.0521277E-2,5E-1,-3.005972E-2,5E-1,-2.8756341E-2,5E-1,-2.6055396E-2,5.6344714E-2],"split_indices":[69,0,18,0,55,0,20,0,36,0,0],"split_type":[0,0,0,0,0,0,0,0,0,0,0],"sum_hessian":[1.8029559E3,9.600598E2,8.428962E2,1.4740944E2,6.954867E2,4.4614918E1,6.508718E2,1.4058971E1,6.368128E2,5.4979053E0,6.3131494E2],"tree_param":{"num_deleted":"0","num_feature":"80","num_nodes":"11","size_leaf_vector":"0"}},{"base_weights":[-1.9002898E-3,-6.082023E-1,6.608385E-1,-6.0477036E-1,9.2375064E-1,-5.954303E-1,1.0247381E0,-5.737873E-1,1.0663059E0,-4.8273662E-1,1.0764306E0],"categories":[],"categories_nodes":[],"categories_segments":[],"categories_sizes":[],"default_left":[1,0,1,0,1,0,1,0,1,0,0],"id":36,"left_children":[1,-1,3,-1,5,-1,7,-1,9,-1,-1],"loss_changes":[7.059354E2,0E0,2.798503E2,0E0,1.0729431E2,0E0,4.3962402E1,0E0,1.0497681E1,0E0,0E0],"parents":[2147483647,0,0,2,2,4,4,6,6,8,8],"right_children":[2,-1,4,-1,6,-1,8,-1,10,-1,-1],"split_conditions":[5E-1,-3.0410115E-2,5E-1,-3.0238518E-2,5E-1,-2.9771516E-2,5E-1,-2.8689364E-2,5E-1,-2.4136832E-2,5.382153E-2],"split_indices":[16,0,44,0,37,0,3,0,31,0,0],"split_type":[0,0,0,0,0,0,0,0,0,0,0],"sum_hessian":[1.7548453E3,9.1648645E2,8.3835895E2,1.4397766E2,6.943813E2,4.29766E1,6.5140466E2,1.6185226E1,6.352194E2,3.8217437E0,6.313977E2],"tree_param":{"num_deleted":"0","num_feature":"80","num_nodes":"11","size_leaf_vector":"0"}},{"base_weights":[5.2388604E-3,-6.081709E-1,6.615754E-1,-6.049351E-1,9.212417E-1,-5.960715E-1,1.0232147E0,-5.715459E-1,1.0616673E0,-5.111662E-1,1.0748659E0],"categories":[],"categories_nodes":[],"categories_segments":[],"categories_sizes":[],"default_left":[1,0,1,0,1,0,1,0,1,0,0],"id":37,"left_children":[1,-1,3,-1,5,-1,7,-1,9,-1,-1],"loss_changes":[7.106181E2,0E0,2.8098138E2,0E0,1.1015631E2,0E0,4.1312134E1,0E0,1.4012146E1,0E0,0E0],"parents":[2147483647,0,0,2,2,4,4,6,6,8,8],"right_children":[2,-1,4,-1,6,-1,8,-1,10,-1,-1],"split_conditions":[5E-1,-3.0408546E-2,5E-1,-3.0246755E-2,5E-1,-2.9803574E-2,5E-1,-2.8577296E-2,5E-1,-2.5558311E-2,5.37433E-2],"split_indices":[15,0,24,0,38,0,75,0,32,0,0],"split_type":[0,0,0,0,0,0,0,0,0,0,0],"sum_hessian":[1.7630588E3,9.113695E2,8.5168933E2,1.4468164E2,7.070077E2,4.421797E1,6.627897E2,1.5278428E1,6.475113E2,5.074501E0,6.4243677E2],"tree_param":{"num_deleted":"0","num_feature":"80","num_nodes":"11","size_leaf_vector":"0"}},{"base_weights":[-1.2949503E-3,-6.081328E-1,6.754268E-1,-6.0475016E-1,9.319652E-1,-5.9529305E-1,1.0260513E0,-5.739643E-1,1.0653739E0,-4.762883E-1,1.0746758E0,-3.186278E-1,1.0773677E0],"categories":[],"categories_nodes":[],"categories_segments":[],"categories_sizes":[],"default_left":[1,0,1,0,1,0,1,0,1,0,1,0,0],"id":38,"left_children":[1,-1,3,-1,5,-1,7,-1,9,-1,11,-1,-1],"loss_changes":[7.287161E2,0E0,2.760848E2,0E0,1.0109357E2,0E0,4.2078247E1,0E0,9.741516E0,0E0,2.7439575E0,0E0,0E0],"parents":[2147483647,0,0,2,2,4,4,6,6,8,8,10,10],"right_children":[2,-1,4,-1,6,-1,8,-1,10,-1,12,-1,-1],"split_conditions":[5E-1,-3.0406639E-2,5E-1,-3.0237509E-2,5E-1,-2.9764652E-2,5E-1,-2.8698215E-2,5E-1,-2.3814416E-2,5E-1,-1.593139E-2,5.3868383E-2],"split_indices":[46,0,11,0,29,0,0,0,62,0,19,0,0],"split_type":[0,0,0,0,0,0,0,0,0,0,0,0,0],"sum_hessian":[1.7724982E3,9.3455475E2,8.379435E2,1.3965923E2,6.9828424E2,4.021207E1,6.580722E2,1.5458986E1,6.426132E2,3.552992E0,6.3906024E2,1.0059651E0,6.3805426E2],"tree_param":{"num_deleted":"0","num_feature":"80","num_nodes":"13","size_leaf_vector":"0"}},{"base_weights":[3.7892216E-3,-6.081182E-1,6.7284936E-1,-6.048529E-1,9.246611E-1,-5.957156E-1,1.0245168E0,-5.741732E-1,1.0661329E0,-4.6558684E-1,1.0746995E0],"categories":[],"categories_nodes":[],"categories_segments":[],"categories_sizes":[],"default_left":[1,0,1,0,1,0,1,0,1,0,0],"id":39,"left_children":[1,-1,3,-1,5,-1,7,-1,9,-1,-1],"loss_changes":[7.1308966E2,0E0,2.6825723E2,0E0,1.0619165E2,0E0,4.4053772E1,0E0,8.855347E0,0E0,0E0],"parents":[2147483647,0,0,2,2,4,4,6,6,8,8],"right_children":[2,-1,4,-1,6,-1,8,-1,10,-1,-1],"split_conditions":[5E-1,-3.0405909E-2,5E-1,-3.0242646E-2,5E-1,-2.978578E-2,5E-1,-2.8708661E-2,5E-1,-2.3279343E-2,5.3734977E-2],"split_indices":[69,0,20,0,4,0,26,0,64,0,0],"split_type":[0,0,0,0,0,0,0,0,0,0,0],"sum_hessian":[1.7397806E3,9.087497E2,8.3103094E2,1.3658607E2,6.944449E2,4.249293E1,6.519519E2,1.6215954E1,6.3573596E2,3.2390554E0,6.3249695E2],"tree_param":{"num_deleted":"0","num_feature":"80","num_nodes":"11","size_leaf_vector":"0"}},{"base_weights":[4.3598544E-3,-6.0300183E-1,6.4245397E-1,-5.998024E-1,8.872367E-1,-5.9080774E-1,9.835607E-1,-5.6522346E-1,1.0185232E0,-4.8983794E-1,1.0292813E0],"categories":[],"categories_nodes":[],"categories_segments":[],"categories_sizes":[],"default_left":[1,0,1,0,1,0,1,0,1,0,0],"id":40,"left_children":[1,-1,3,-1,5,-1,7,-1,9,-1,-1],"loss_changes":[6.726156E2,0E0,2.5789404E2,0E0,1.01299866E2,0E0,3.655963E1,0E0,1.1055237E1,0E0,0E0],"parents":[2147483647,0,0,2,2,4,4,6,6,8,8],"right_children":[2,-1,4,-1,6,-1,8,-1,10,-1,-1],"split_conditions":[5E-1,-3.0150091E-2,5E-1,-2.999012E-2,5E-1,-2.9540388E-2,5E-1,-2.8261174E-2,5E-1,-2.4491897E-2,5.1464062E-2],"split_indices":[39,0,71,0,37,0,33,0,73,0,0],"split_type":[0,0,0,0,0,0,0,0,0,0,0],"sum_hessian":[1.733541E3,8.881868E2,8.453542E2,1.3891573E2,7.064385E2,4.2907646E1,6.635308E2,1.4313209E1,6.4921765E2,4.2822065E0,6.449354E2],"tree_param":{"num_deleted":"0","num_feature":"80","num_nodes":"11","size_leaf_vector":"0"}},{"base_weights":[4.934298E-3,-6.030304E-1,6.3878906E-1,-5.997521E-1,8.8562834E-1,-5.9024864E-1,9.8186487E-1,-5.6501454E-1,1.0168774E0,-4.8947403E-1,1.0276455E0,-3.2145E-1,1.0305371E0],"categories":[],"categories_nodes":[],"categories_segments":[],"categories_sizes":[],"default_left":[1,0,1,0,1,0,1,0,1,0,1,0,0],"id":41,"left_children":[1,-1,3,-1,5,-1,7,-1,9,-1,11,-1,-1],"loss_changes":[6.65011E2,0E0,2.588187E2,0E0,1.00692505E2,0E0,3.6433105E1,0E0,1.1010437E1,0E0,2.8417358E0,0E0,0E0],"parents":[2147483647,0,0,2,2,4,4,6,6,8,8,10,10],"right_children":[2,-1,4,-1,6,-1,8,-1,10,-1,12,-1,-1],"split_conditions":[5E-1,-3.015152E-2,5E-1,-2.9987607E-2,5E-1,-2.9512433E-2,5E-1,-2.8250728E-2,5E-1,-2.4473703E-2,5E-1,-1.60725E-2,5.1526856E-2],"split_indices":[59,0,65,0,15,0,45,0,40,0,6,0,0],"split_type":[0,0,0,0,0,0,0,0,0,0,0,0,0],"sum_hessian":[1.7236823E3,8.7983405E2,8.438482E2,1.3999239E2,7.038558E2,4.2772114E1,6.610837E2,1.4296912E1,6.4678674E2,4.2751675E0,6.425116E2,1.1386176E0,6.41373E2],"tree_param":{"num_deleted":"0","num_feature":"80","num_nodes":"13","size_leaf_vector":"0"}},{"base_weights":[-5.193463E-3,-6.029614E-1,6.458899E-1,-6.000137E-1,8.983471E-1,-5.8896416E-1,9.8562545E-1,-5.6224066E-1,1.0181956E0,-4.8981443E-1,1.0292493E0],"categories":[],"categories_nodes":[],"categories_segments":[],"categories_sizes":[],"default_left":[1,0,1,0,1,0,1,0,1,0,0],"id":42,"left_children":[1,-1,3,-1,5,-1,7,-1,9,-1,-1],"loss_changes":[6.676592E2,0E0,2.588137E2,0E0,8.926355E1,0E0,3.3124084E1,0E0,1.10512085E1,0E0,0E0],"parents":[2147483647,0,0,2,2,4,4,6,6,8,8],"right_children":[2,-1,4,-1,6,-1,8,-1,10,-1,-1],"split_conditions":[5E-1,-3.0148072E-2,5E-1,-3.0000685E-2,5E-1,-2.944821E-2,5E-1,-2.8112033E-2,5E-1,-2.4490722E-2,5.1462468E-2],"split_indices":[46,0,77,0,56,0,2,0,50,0,0],"split_type":[0,0,0,0,0,0,0,0,0,0,0],"sum_hessian":[1.7134792E3,8.933537E2,8.2012555E2,1.3795012E2,6.821754E2,3.749387E1,6.446816E2,1.2950672E1,6.317309E2,4.281743E0,6.2744916E2],"tree_param":{"num_deleted":"0","num_feature":"80","num_nodes":"11","size_leaf_vector":"0"}},{"base_weights":[1.632168E-3,-6.0297287E-1,6.491519E-1,-5.999597E-1,8.881951E-1,-5.900484E-1,9.7995937E-1,-5.670853E-1,1.0169135E0,-4.9599707E-1,1.0284067E0],"categories":[],"categories_nodes":[],"categories_segments":[],"categories_sizes":[],"default_left":[1,0,1,0,1,0,1,0,1,0,0],"id":43,"left_children":[1,-1,3,-1,5,-1,7,-1,9,-1,-1],"loss_changes":[6.814021E2,0E0,2.5147858E2,0E0,9.632483E1,0E0,3.859198E1,0E0,1.180896E1,0E0,0E0],"parents":[2147483647,0,0,2,2,4,4,6,6,8,8],"right_children":[2,-1,4,-1,6,-1,8,-1,10,-1,-1],"split_conditions":[5E-1,-3.0148644E-2,5E-1,-2.9997984E-2,5E-1,-2.950242E-2,5E-1,-2.8354267E-2,5E-1,-2.4799854E-2,5.142034E-2],"split_indices":[69,0,48,0,18,0,49,0,68,0,0],"split_type":[0,0,0,0,0,0,0,0,0,0,0],"sum_hessian":[1.7385189E3,8.990876E2,8.3943134E2,1.3459584E2,7.048355E2,4.0879036E1,6.639564E2,1.5155194E1,6.488013E2,4.573802E0,6.442275E2],"tree_param":{"num_deleted":"0","num_feature":"80","num_nodes":"11","size_leaf_vector":"0"}},{"base_weights":[7.795489E-3,-5.98093E-1,6.309985E-1,-5.9473735E-1,8.6494774E-1,-5.8365387E-1,9.465139E-1,-5.619422E-1,9.8180306E-1,-4.5059684E-1,9.891641E-1],"categories":[],"categories_nodes":[],"categories_segments":[],"categories_sizes":[],"default_left":[1,0,1,0,1,0,1,0,1,0,0],"id":44,"left_children":[1,-1,3,-1,5,-1,7,-1,9,-1,-1],"loss_changes":[6.447597E2,0E0,2.418935E2,0E0,8.411804E1,0E0,3.6213318E1,0E0,7.3517456E0,0E0,0E0],"parents":[2147483647,0,0,2,2,4,4,6,6,8,8],"right_children":[2,-1,4,-1,6,-1,8,-1,10,-1,-1],"split_conditions":[5E-1,-2.9904649E-2,5E-1,-2.9736867E-2,5E-1,-2.9182693E-2,5E-1,-2.8097112E-2,5E-1,-2.2529842E-2,4.9458206E-2],"split_indices":[44,0,37,0,3,0,71,0,39,0,0],"split_type":[0,0,0,0,0,0,0,0,0,0,0],"sum_hessian":[1.7055591E3,8.648133E2,8.407458E2,1.3450237E2,7.0624347E2,3.731842E1,6.6892505E2,1.4950124E1,6.539749E2,3.0356956E0,6.509392E2],"tree_param":{"num_deleted":"0","num_feature":"80","num_nodes":"11","size_leaf_vector":"0"}},{"base_weights":[-8.34567E-3,-5.981087E-1,6.233572E-1,-5.94431E-1,8.52668E-1,-5.8548033E-1,9.435035E-1,-5.5806136E-1,9.76437E-1,-4.8947954E-1,9.875386E-1],"categories":[],"categories_nodes":[],"categories_segments":[],"categories_sizes":[],"default_left":[1,0,1,0,1,0,1,0,1,0,0],"id":45,"left_children":[1,-1,3,-1,5,-1,7,-1,9,-1,-1],"loss_changes":[6.3089545E2,0E0,2.2883679E2,0E0,9.049353E1,0E0,3.2588318E1,0E0,1.0808105E1,0E0,0E0],"parents":[2147483647,0,0,2,2,4,4,6,6,8,8],"right_children":[2,-1,4,-1,6,-1,8,-1,10,-1,-1],"split_conditions":[5E-1,-2.9905437E-2,5E-1,-2.9721549E-2,5E-1,-2.9274017E-2,5E-1,-2.7903069E-2,5E-1,-2.4473978E-2,4.937693E-2],"split_indices":[59,0,15,0,66,0,24,0,75,0,0],"split_type":[0,0,0,0,0,0,0,0,0,0,0],"sum_hessian":[1.6914282E3,8.747798E2,8.1664844E2,1.2915578E2,6.874927E2,4.051977E1,6.469729E2,1.3543146E1,6.3342975E2,4.437121E0,6.289926E2],"tree_param":{"num_deleted":"0","num_feature":"80","num_nodes":"11","size_leaf_vector":"0"}},{"base_weights":[6.3016554E-3,-5.980975E-1,6.2984514E-1,-5.947397E-1,8.5949975E-1,-5.8446896E-1,9.4686824E-1,-5.5657464E-1,9.770255E-1,-4.8436803E-1,9.871363E-1],"categories":[],"categories_nodes":[],"categories_segments":[],"categories_sizes":[],"default_left":[1,0,1,0,1,0,1,0,1,0,0],"id":46,"left_children":[1,-1,3,-1,5,-1,7,-1,9,-1,-1],"loss_changes":[6.436158E2,0E0,2.3690897E2,0E0,8.990369E1,0E0,3.0840576E1,0E0,1.0162903E1,0E0,0E0],"parents":[2147483647,0,0,2,2,4,4,6,6,8,8],"right_children":[2,-1,4,-1,6,-1,8,-1,10,-1,-1],"split_conditions":[5E-1,-2.9904876E-2,5E-1,-2.9736985E-2,5E-1,-2.9223448E-2,5E-1,-2.7828733E-2,5E-1,-2.4218401E-2,4.9356814E-2],"split_indices":[62,0,74,0,50,0,13,0,41,0,0],"split_type":[0,0,0,0,0,0,0,0,0,0,0],"sum_hessian":[1.7057969E3,8.662163E2,8.3958057E2,1.3233615E2,7.072444E2,4.0026333E1,6.672181E2,1.2777149E1,6.544409E2,4.174414E0,6.502665E2],"tree_param":{"num_deleted":"0","num_feature":"80","num_nodes":"11","size_leaf_vector":"0"}},{"base_weights":[-8.8332575E-3,-5.9803915E-1,6.125644E-1,-5.949281E-1,8.458876E-1,-5.8607036E-1,9.414832E-1,-5.6244624E-1,9.765917E-1,-4.778723E-1,9.8627365E-1,-3.1535837E-1,9.890482E-1],"categories":[],"categories_nodes":[],"categories_segments":[],"categories_sizes":[],"default_left":[1,0,1,0,1,0,1,0,1,0,1,0,0],"id":47,"left_children":[1,-1,3,-1,5,-1,7,-1,9,-1,11,-1,-1],"loss_changes":[6.250052E2,0E0,2.345799E2,0E0,9.5923004E1,0E0,3.5053955E1,0E0,9.469055E0,0E0,2.6052856E0,0E0,0E0],"parents":[2147483647,0,0,2,2,4,4,6,6,8,8,10,10],"right_children":[2,-1,4,-1,6,-1,8,-1,10,-1,12,-1,-1],"split_conditions":[5E-1,-2.9901957E-2,5E-1,-2.9746404E-2,5E-1,-2.9303519E-2,5E-1,-2.8122311E-2,5E-1,-2.3893615E-2,5E-1,-1.5767919E-2,4.945241E-2],"split_indices":[69,0,20,0,18,0,53,0,4,0,10,0,0],"split_type":[0,0,0,0,0,0,0,0,0,0,0,0,0],"sum_hessian":[1.705052E3,8.752152E2,8.298368E2,1.341314E2,6.9570544E2,4.3216743E1,6.524887E2,1.4541932E1,6.379468E2,3.8987794E0,6.34048E2,1.1090124E0,6.3293896E2],"tree_param":{"num_deleted":"0","num_feature":"80","num_nodes":"13","size_leaf_vector":"0"}},{"base_weights":[4.636096E-3,-5.9340465E-1,6.047873E-1,-5.8982444E-1,8.27969E-1,-5.8002245E-1,9.138274E-1,-5.491591E-1,9.4169617E-1,-4.7737965E-1,9.512745E-1],"categories":[],"categories_nodes":[],"categories_segments":[],"categories_sizes":[],"default_left":[1,0,1,0,1,0,1,0,1,0,0],"id":48,"left_children":[1,-1,3,-1,5,-1,7,-1,9,-1,-1],"loss_changes":[6.0080853E2,0E0,2.2324585E2,0E0,8.5683136E1,0E0,2.7601685E1,0E0,9.319763E0,0E0,0E0],"parents":[2147483647,0,0,2,2,4,4,6,6,8,8],"right_children":[2,-1,4,-1,6,-1,8,-1,10,-1,-1],"split_conditions":[5E-1,-2.9670233E-2,5E-1,-2.9491222E-2,5E-1,-2.9001122E-2,5E-1,-2.7457956E-2,5E-1,-2.3868984E-2,4.7563728E-2],"split_indices":[5,0,37,0,71,0,16,0,47,0,0],"split_type":[0,0,0,0,0,0,0,0,0,0,0],"sum_hessian":[1.6719584E3,8.374573E2,8.345011E2,1.3110425E2,7.0339685E2,4.009665E1,6.6330023E2,1.204948E1,6.5125073E2,4.0388346E0,6.472119E2],"tree_param":{"num_deleted":"0","num_feature":"80","num_nodes":"11","size_leaf_vector":"0"}},{"base_weights":[-6.416052E-4,-5.933464E-1,6.0113543E-1,-5.9007454E-1,8.237289E-1,-5.7966644E-1,9.075128E-1,-5.5598885E-1,9.4007456E-1,-4.7950813E-1,9.4983006E-1],"categories":[],"categories_nodes":[],"categories_segments":[],"categories_sizes":[],"default_left":[1,0,1,0,1,0,1,0,1,0,0],"id":49,"left_children":[1,-1,3,-1,5,-1,7,-1,9,-1,-1],"loss_changes":[5.967522E2,0E0,2.2061642E2,0E0,8.282187E1,0E0,3.2015503E1,0E0,9.413452E0,0E0,0E0],"parents":[2147483647,0,0,2,2,4,4,6,6,8,8],"right_children":[2,-1,4,-1,6,-1,8,-1,10,-1,-1],"split_conditions":[5E-1,-2.9667322E-2,5E-1,-2.9503727E-2,5E-1,-2.8983323E-2,5E-1,-2.7799442E-2,5E-1,-2.3975408E-2,4.7491502E-2],"split_indices":[75,0,30,0,15,0,40,0,66,0,0],"split_type":[0,0,0,0,0,0,0,0,0,0,0],"sum_hessian":[1.6710925E3,8.4189935E2,8.291931E2,1.3029074E2,6.9890234E2,3.904093E1,6.5986145E2,1.4011988E1,6.458494E2,4.079384E0,6.417701E2],"tree_param":{"num_deleted":"0","num_feature":"80","num_nodes":"11","size_leaf_vector":"0"}},{"base_weights":[-1.9099294E-3,-5.93331E-1,6.048349E-1,-5.899198E-1,8.27037E-1,-5.8004117E-1,9.121638E-1,-5.5110645E-1,9.409936E-1,-4.7136456E-1,9.498164E-1],"categories":[],"categories_nodes":[],"categories_segments":[],"categories_sizes":[],"default_left":[1,0,1,0,1,0,1,0,1,0,0],"id":50,"left_children":[1,-1,3,-1,5,-1,7,-1,9,-1,-1],"loss_changes":[5.932813E2,0E0,2.1714117E2,0E0,8.300131E1,0E0,2.7924255E1,0E0,8.391052E0,0E0,0E0],"parents":[2147483647,0,0,2,2,4,4,6,6,8,8],"right_children":[2,-1,4,-1,6,-1,8,-1,10,-1,-1],"split_conditions":[5E-1,-2.9666549E-2,5E-1,-2.949599E-2,5E-1,-2.900206E-2,5E-1,-2.7555322E-2,5E-1,-2.3568228E-2,4.749082E-2],"split_indices":[46,0,11,0,62,0,0,0,21,0,0],"split_type":[0,0,0,0,0,0,0,0,0,0,0],"sum_hessian":[1.6513232E3,8.3623254E2,8.1509076E2,1.2756008E2,6.8753064E2,3.8890358E1,6.486403E2,1.2182758E1,6.364575E2,3.6257234E0,6.328318E2],"tree_param":{"num_deleted":"0","num_feature":"80","num_nodes":"11","size_leaf_vector":"0"}},{"base_weights":[-1.0916043E-2,-5.9331936E-1,5.966596E-1,-5.901883E-1,8.1762004E-1,-5.808826E-1,9.0695244E-1,-5.5349404E-1,9.384857E-1,-4.7638348E-1,9.483611E-1,-3.409187E-1,9.51685E-1],"categories":[],"categories_nodes":[],"categories_segments":[],"categories_sizes":[],"default_left":[1,0,1,0,1,0,1,0,1,0,1,0,0],"id":51,"left_children":[1,-1,3,-1,5,-1,7,-1,9,-1,11,-1,-1],"loss_changes":[5.8461536E2,0E0,2.1253589E2,0E0,8.5743866E1,0E0,3.006427E1,0E0,9.231445E0,0E0,3E0,0E0,0E0],"parents":[2147483647,0,0,2,2,4,4,6,6,8,8,10,10],"right_children":[2,-1,4,-1,6,-1,8,-1,10,-1,12,-1,-1],"split_conditions":[5E-1,-2.9665967E-2,5E-1,-2.9509416E-2,5E-1,-2.904413E-2,5E-1,-2.7674703E-2,5E-1,-2.3819175E-2,5E-1,-1.7045936E-2,4.758425E-2],"split_indices":[69,0,8,0,53,0,58,0,10,0,43,0,0],"split_type":[0,0,0,0,0,0,0,0,0,0,0,0,0],"sum_hessian":[1.6501367E3,8.4253345E2,8.076032E2,1.2649387E2,6.811093E2,4.0564713E1,6.405446E2,1.318817E1,6.2735645E2,4.0209913E0,6.2333545E2,1.3417408E0,6.219937E2],"tree_param":{"num_deleted":"0","num_feature":"80","num_nodes":"13","size_leaf_vector":"0"}},{"base_weights":[-3.6982845E-3,-5.8888054E-1,5.8306617E-1,-5.854089E-1,8.0011165E-1,-5.744133E-1,8.7888825E-1,-5.464631E-1,9.0720105E-1,-4.8087624E-1,9.1763645E-1],"categories":[],"categories_nodes":[],"categories_segments":[],"categories_sizes":[],"default_left":[1,0,1,0,1,0,1,0,1,0,0],"id":52,"left_children":[1,-1,3,-1,5,-1,7,-1,9,-1,-1],"loss_changes":[5.5802155E2,0E0,2.0627124E2,0E0,7.465381E1,0E0,2.6648804E1,0E0,9.651245E0,0E0,0E0],"parents":[2147483647,0,0,2,2,4,4,6,6,8,8],"right_children":[2,-1,4,-1,6,-1,8,-1,10,-1,-1],"split_conditions":[5E-1,-2.9444028E-2,5E-1,-2.9270446E-2,5E-1,-2.8720666E-2,5E-1,-2.7323155E-2,5E-1,-2.4043811E-2,4.5881823E-2],"split_indices":[44,0,70,0,33,0,47,0,31,0,0],"split_type":[0,0,0,0,0,0,0,0,0,0,0],"sum_hessian":[1.6231598E3,8.1267377E2,8.10486E2,1.2669894E2,6.8378705E2,3.6723804E1,6.470633E2,1.2246332E1,6.3481696E2,4.4004836E0,6.3041644E2],"tree_param":{"num_deleted":"0","num_feature":"80","num_nodes":"11","size_leaf_vector":"0"}},{"base_weights":[1.3654141E-3,-5.8890426E-1,5.8826196E-1,-5.8539677E-1,7.9862565E-1,-5.74773E-1,8.7560856E-1,-5.507023E-1,9.069053E-1,-4.7523752E-1,9.164329E-1],"categories":[],"categories_nodes":[],"categories_segments":[],"categories_sizes":[],"default_left":[1,0,1,0,1,0,1,0,1,0,0],"id":53,"left_children":[1,-1,3,-1,5,-1,7,-1,9,-1,-1],"loss_changes":[5.743774E2,0E0,2.0573013E2,0E0,7.508765E1,0E0,3.033551E1,0E0,9.053162E0,0E0,0E0],"parents":[2147483647,0,0,2,2,4,4,6,6,8,8],"right_children":[2,-1,4,-1,6,-1,8,-1,10,-1,-1],"split_conditions":[5E-1,-2.9445214E-2,5E-1,-2.9269839E-2,5E-1,-2.8738651E-2,5E-1,-2.7535114E-2,5E-1,-2.3761876E-2,4.5821648E-2],"split_indices":[59,0,14,0,65,0,66,0,12,0,0],"split_type":[0,0,0,0,0,0,0,0,0,0,0],"sum_hessian":[1.656003E3,8.256272E2,8.303758E2,1.259415E2,7.044343E2,3.704655E1,6.6738776E2,1.3973329E1,6.534144E2,4.1387444E0,6.492757E2],"tree_param":{"num_deleted":"0","num_feature":"80","num_nodes":"11","size_leaf_vector":"0"}},{"base_weights":[-5.2204594E-4,-5.8882934E-1,5.900852E-1,-5.8531237E-1,7.999016E-1,-5.7538205E-1,8.804194E-1,-5.479408E-1,9.082767E-1,-4.6792662E-1,9.170231E-1],"categories":[],"categories_nodes":[],"categories_segments":[],"categories_sizes":[],"default_left":[1,0,1,0,1,0,1,0,1,0,0],"id":54,"left_children":[1,-1,3,-1,5,-1,7,-1,9,-1,-1],"loss_changes":[5.6785455E2,0E0,2.0159985E2,0E0,7.718506E1,0E0,2.6542328E1,0E0,8.161621E0,0E0,0E0],"parents":[2147483647,0,0,2,2,4,4,6,6,8,8],"right_children":[2,-1,4,-1,6,-1,8,-1,10,-1,-1],"split_conditions":[5E-1,-2.9441467E-2,5E-1,-2.9265618E-2,5E-1,-2.8769104E-2,5E-1,-2.739704E-2,5E-1,-2.3396332E-2,4.5851156E-2],"split_indices":[46,0,11,0,62,0,74,0,50,0,0],"split_type":[0,0,0,0,0,0,0,0,0,0,0],"sum_hessian":[1.6323086E3,8.1774805E2,8.1456055E2,1.23109276E2,6.914513E2,3.790301E1,6.535483E2,1.2145174E1,6.4140314E2,3.7191274E0,6.3768396E2],"tree_param":{"num_deleted":"0","num_feature":"80","num_nodes":"11","size_leaf_vector":"0"}},{"base_weights":[-7.3152024E-4,-5.88811E-1,5.8530486E-1,-5.8559084E-1,7.9732394E-1,-5.747221E-1,8.753976E-1,-5.500974E-1,9.063431E-1,-4.799406E-1,9.163234E-1],"categories":[],"categories_nodes":[],"categories_segments":[],"categories_sizes":[],"default_left":[1,0,1,0,1,0,1,0,1,0,0],"id":55,"left_children":[1,-1,3,-1,5,-1,7,-1,9,-1,-1],"loss_changes":[5.6118384E2,0E0,2.0293805E2,0E0,7.452026E1,0E0,2.935553E1,0E0,9.303406E0,0E0,0E0],"parents":[2147483647,0,0,2,2,4,4,6,6,8,8],"right_children":[2,-1,4,-1,6,-1,8,-1,10,-1,-1],"split_conditions":[5E-1,-2.944055E-2,5E-1,-2.9279543E-2,5E-1,-2.8736105E-2,5E-1,-2.750487E-2,5E-1,-2.399703E-2,4.5816172E-2],"split_indices":[69,0,26,0,20,0,4,0,48,0,0],"split_type":[0,0,0,0,0,0,0,0,0,0,0],"sum_hessian":[1.6263381E3,8.117517E2,8.145864E2,1.24616714E2,6.899697E2,3.6805107E1,6.531646E2,1.352157E1,6.39643E2,4.2354884E0,6.3540753E2],"tree_param":{"num_deleted":"0","num_feature":"80","num_nodes":"11","size_leaf_vector":"0"}},{"base_weights":[-4.907857E-3,-5.845948E-1,5.682208E-1,-5.8084965E-1,7.7460665E-1,-5.70088E-1,8.532164E-1,-5.366997E-1,8.782784E-1,-4.584183E-1,8.8670903E-1],"categories":[],"categories_nodes":[],"categories_segments":[],"categories_sizes":[],"default_left":[1,0,1,0,1,0,1,0,1,0,0],"id":56,"left_children":[1,-1,3,-1,5,-1,7,-1,9,-1,-1],"loss_changes":[5.200081E2,0E0,1.8709958E2,0E0,7.1059814E1,0E0,2.2457306E1,0E0,7.397522E0,0E0,0E0],"parents":[2147483647,0,0,2,2,4,4,6,6,8,8],"right_children":[2,-1,4,-1,6,-1,8,-1,10,-1,-1],"split_conditions":[5E-1,-2.922974E-2,5E-1,-2.9042482E-2,5E-1,-2.8504401E-2,5E-1,-2.6834985E-2,5E-1,-2.2920916E-2,4.433545E-2],"split_indices":[33,0,73,0,70,0,3,0,57,0,0],"split_type":[0,0,0,0,0,0,0,0,0,0,0],"sum_hessian":[1.563181E3,7.771342E2,7.860469E2,1.1940959E2,6.6663727E2,3.6473396E1,6.301639E2,1.0799802E1,6.193641E2,3.547375E0,6.158167E2],"tree_param":{"num_deleted":"0","num_feature":"80","num_nodes":"11","size_leaf_vector":"0"}},{"base_weights":[-2.7542235E-3,-5.8459884E-1,5.6333196E-1,-5.8079845E-1,7.6907784E-1,-5.714238E-1,8.483628E-1,-5.411035E-1,8.756215E-1,-4.7575784E-1,8.8558704E-1],"categories":[],"categories_nodes":[],"categories_segments":[],"categories_sizes":[],"default_left":[1,0,1,0,1,0,1,0,1,0,0],"id":57,"left_children":[1,-1,3,-1,5,-1,7,-1,9,-1,-1],"loss_changes":[5.230574E2,0E0,1.8992482E2,0E0,7.303952E1,0E0,2.4901276E1,0E0,8.944946E0,0E0,0E0],"parents":[2147483647,0,0,2,2,4,4,6,6,8,8],"right_children":[2,-1,4,-1,6,-1,8,-1,10,-1,-1],"split_conditions":[5E-1,-2.9229943E-2,5E-1,-2.9039923E-2,5E-1,-2.8571192E-2,5E-1,-2.7055174E-2,5E-1,-2.3787891E-2,4.427935E-2],"split_indices":[24,0,15,0,51,0,66,0,38,0,0],"split_type":[0,0,0,0,0,0,0,0,0,0,0],"sum_hessian":[1.586034E3,7.821146E2,8.039195E2,1.2225422E2,6.816653E2,3.771952E1,6.4394574E2,1.2027249E1,6.3191846E2,4.28371E0,6.2763477E2],"tree_param":{"num_deleted":"0","num_feature":"80","num_nodes":"11","size_leaf_vector":"0"}},{"base_weights":[4.6053532E-4,-5.845284E-1,5.792228E-1,-5.811788E-1,7.7795625E-1,-5.69582E-1,8.512663E-1,-5.406425E-1,8.7757E-1,-4.6338007E-1,8.862994E-1],"categories":[],"categories_nodes":[],"categories_segments":[],"categories_sizes":[],"default_left":[1,0,1,0,1,0,1,0,1,0,0],"id":58,"left_children":[1,-1,3,-1,5,-1,7,-1,9,-1,-1],"loss_changes":[5.3771545E2,0E0,1.8455954E2,0E0,6.7862366E1,0E0,2.4171722E1,0E0,7.851166E0,0E0,0E0],"parents":[2147483647,0,0,2,2,4,4,6,6,8,8],"right_children":[2,-1,4,-1,6,-1,8,-1,10,-1,-1],"split_conditions":[5E-1,-2.922642E-2,5E-1,-2.9058939E-2,5E-1,-2.84791E-2,5E-1,-2.7032126E-2,5E-1,-2.3169003E-2,4.431497E-2],"split_indices":[46,0,13,0,11,0,50,0,74,0,0],"split_type":[0,0,0,0,0,0,0,0,0,0,0],"sum_hessian":[1.5861982E3,7.888507E2,7.9734753E2,1.1630717E2,6.8104034E2,3.4789684E1,6.462507E2,1.1623372E1,6.346273E2,3.7677624E0,6.3085956E2],"tree_param":{"num_deleted":"0","num_feature":"80","num_nodes":"11","size_leaf_vector":"0"}},{"base_weights":[-5.986855E-4,-5.845163E-1,5.6465554E-1,-5.8109987E-1,7.6701176E-1,-5.7149994E-1,8.443749E-1,-5.476384E-1,8.7612265E-1,-4.7541314E-1,8.8604546E-1],"categories":[],"categories_nodes":[],"categories_segments":[],"categories_sizes":[],"default_left":[1,0,1,0,1,0,1,0,1,0,0],"id":59,"left_children":[1,-1,3,-1,5,-1,7,-1,9,-1,-1],"loss_changes":[5.23818E2,0E0,1.8741077E2,0E0,7.149716E1,0E0,2.9148956E1,0E0,8.932434E0,0E0,0E0],"parents":[2147483647,0,0,2,2,4,4,6,6,8,8],"right_children":[2,-1,4,-1,6,-1,8,-1,10,-1,-1],"split_conditions":[5E-1,-2.9225815E-2,5E-1,-2.9054994E-2,5E-1,-2.8574998E-2,5E-1,-2.7381921E-2,5E-1,-2.3770658E-2,4.4302274E-2],"split_indices":[69,0,26,0,52,0,49,0,72,0,0],"split_type":[0,0,0,0,0,0,0,0,0,0,0],"sum_hessian":[1.5850298E3,7.7962714E2,8.0540265E2,1.20612785E2,6.8478986E2,3.7067806E1,6.4772205E2,1.4080889E1,6.336412E2,4.2763014E0,6.2936487E2],"tree_param":{"num_deleted":"0","num_feature":"80","num_nodes":"11","size_leaf_vector":"0"}},{"base_weights":[7.453348E-7,-5.8049357E-1,5.5587125E-1,-5.7669514E-1,7.554243E-1,-5.6508166E-1,8.2566625E-1,-5.359667E-1,8.513235E-1,-4.5986167E-1,8.598175E-1],"categories":[],"categories_nodes":[],"categories_segments":[],"categories_sizes":[],"default_left":[1,0,1,0,1,0,1,0,1,0,0],"id":60,"left_children":[1,-1,3,-1,5,-1,7,-1,9,-1,-1],"loss_changes":[5.0008405E2,0E0,1.7936176E2,0E0,6.2938934E1,0E0,2.2812012E1,0E0,7.3947754E0,0E0,0E0],"parents":[2147483647,0,0,2,2,4,4,6,6,8,8],"right_children":[2,-1,4,-1,6,-1,8,-1,10,-1,-1],"split_conditions":[5E-1,-2.902468E-2,5E-1,-2.8834758E-2,5E-1,-2.8254082E-2,5E-1,-2.6798336E-2,5E-1,-2.2993084E-2,4.2990874E-2],"split_indices":[33,0,70,0,73,0,3,0,42,0,0],"split_type":[0,0,0,0,0,0,0,0,0,0,0],"sum_hessian":[1.5477848E3,7.571013E2,7.906835E2,1.18162224E2,6.7252124E2,3.3610935E1,6.3891034E2,1.1448483E1,6.2746185E2,3.6965845E0,6.2376526E2],"tree_param":{"num_deleted":"0","num_feature":"80","num_nodes":"11","size_leaf_vector":"0"}},{"base_weights":[-3.8369054E-3,-5.805021E-1,5.476748E-1,-5.7658714E-1,7.457122E-1,-5.668469E-1,8.2074916E-1,-5.4375726E-1,8.524584E-1,-4.4447482E-1,8.598517E-1],"categories":[],"categories_nodes":[],"categories_segments":[],"categories_sizes":[],"default_left":[1,0,1,0,1,0,1,0,1,0,0],"id":61,"left_children":[1,-1,3,-1,5,-1,7,-1,9,-1,-1],"loss_changes":[4.9230365E2,0E0,1.7659427E2,0E0,6.6765625E1,0E0,2.8032349E1,0E0,6.356781E0,0E0,0E0],"parents":[2147483647,0,0,2,2,4,4,6,6,8,8],"right_children":[2,-1,4,-1,6,-1,8,-1,10,-1,-1],"split_conditions":[5E-1,-2.9025106E-2,5E-1,-2.8829357E-2,5E-1,-2.8342346E-2,5E-1,-2.7187863E-2,5E-1,-2.222374E-2,4.2992588E-2],"split_indices":[24,0,15,0,30,0,38,0,32,0,0],"split_type":[0,0,0,0,0,0,0,0,0,0,0],"sum_hessian":[1.545942E3,7.5571136E2,7.9023065E2,1.1806456E2,6.721661E2,3.599425E1,6.361718E2,1.4081271E1,6.220906E2,3.1910853E0,6.188995E2],"tree_param":{"num_deleted":"0","num_feature":"80","num_nodes":"11","size_leaf_vector":"0"}},{"base_weights":[-9.660932E-3,-5.804252E-1,5.476107E-1,-5.772728E-1,7.4844146E-1,-5.6586397E-1,8.236543E-1,-5.373519E-1,8.5059136E-1,-4.5248425E-1,8.586986E-1],"categories":[],"categories_nodes":[],"categories_segments":[],"categories_sizes":[],"default_left":[1,0,1,0,1,0,1,0,1,0,0],"id":62,"left_children":[1,-1,3,-1,5,-1,7,-1,9,-1,-1],"loss_changes":[4.884314E2,0E0,1.7596408E2,0E0,6.568164E1,0E0,2.3349335E1,0E0,6.8612366E0,0E0,0E0],"parents":[2147483647,0,0,2,2,4,4,6,6,8,8],"right_children":[2,-1,4,-1,6,-1,8,-1,10,-1,-1],"split_conditions":[5E-1,-2.9021261E-2,5E-1,-2.8863639E-2,5E-1,-2.8293198E-2,5E-1,-2.6867596E-2,5E-1,-2.2624213E-2,4.293493E-2],"split_indices":[46,0,13,0,11,0,50,0,25,0,0],"split_type":[0,0,0,0,0,0,0,0,0,0,0],"sum_hessian":[1.5336069E3,7.576111E2,7.759958E2,1.1727065E2,6.5872516E2,3.5302822E1,6.234223E2,1.1731567E1,6.1169073E2,3.4432745E0,6.082475E2],"tree_param":{"num_deleted":"0","num_feature":"80","num_nodes":"11","size_leaf_vector":"0"}},{"base_weights":[-2.7769916E-3,-5.805275E-1,5.469888E-1,-5.766155E-1,7.4219835E-1,-5.6640875E-1,8.178151E-1,-5.421241E-1,8.4855694E-1,-4.6371114E-1,8.575245E-1,-3.174562E-1,8.603139E-1],"categories":[],"categories_nodes":[],"categories_segments":[],"categories_sizes":[],"default_left":[1,0,1,0,1,0,1,0,1,0,1,0,0],"id":63,"left_children":[1,-1,3,-1,5,-1,7,-1,9,-1,11,-1,-1],"loss_changes":[4.9149356E2,0E0,1.7434145E2,0E0,6.735254E1,0E0,2.7193787E1,0E0,7.7609253E0,0E0,2.3110352E0,0E0,0E0],"parents":[2147483647,0,0,2,2,4,4,6,6,8,8,10,10],"right_children":[2,-1,4,-1,6,-1,8,-1,10,-1,12,-1,-1],"split_conditions":[5E-1,-2.9026374E-2,5E-1,-2.8830776E-2,5E-1,-2.8320437E-2,5E-1,-2.7106205E-2,5E-1,-2.3185557E-2,5E-1,-1.587281E-2,4.3015696E-2],"split_indices":[48,0,18,0,53,0,49,0,55,0,34,0,0],"split_type":[0,0,0,0,0,0,0,0,0,0,0,0,0],"sum_hessian":[1.5453903E3,7.5348975E2,7.919006E2,1.1692715E2,6.749734E2,3.6517586E1,6.384558E2,1.374573E1,6.247101E2,3.895894E0,6.208142E2,1.2031332E0,6.196111E2],"tree_param":{"num_deleted":"0","num_feature":"80","num_nodes":"13","size_leaf_vector":"0"}},{"base_weights":[-2.9232397E-3,-5.765806E-1,5.380651E-1,-5.728266E-1,7.28005E-1,-5.611065E-1,7.971751E-1,-5.337128E-1,8.241412E-1,-4.6118623E-1,8.331821E-1],"categories":[],"categories_nodes":[],"categories_segments":[],"categories_sizes":[],"default_left":[1,0,1,0,1,0,1,0,1,0,0],"id":64,"left_children":[1,-1,3,-1,5,-1,7,-1,9,-1,-1],"loss_changes":[4.6794385E2,0E0,1.6415845E2,0E0,5.9578827E1,0E0,2.3042236E1,0E0,7.56192E0,0E0,0E0],"parents":[2147483647,0,0,2,2,4,4,6,6,8,8],"right_children":[2,-1,4,-1,6,-1,8,-1,10,-1,-1],"split_conditions":[5E-1,-2.8829029E-2,5E-1,-2.8641332E-2,5E-1,-2.8055325E-2,5E-1,-2.668564E-2,5E-1,-2.3059312E-2,4.1659106E-2],"split_indices":[44,0,47,0,16,0,5,0,71,0,0],"split_type":[0,0,0,0,0,0,0,0,0,0,0],"sum_hessian":[1.5058336E3,7.3081775E2,7.7501587E2,1.1286899E2,6.6214685E2,3.3357475E1,6.2878937E2,1.2114131E1,6.1667523E2,3.9580498E0,6.127172E2],"tree_param":{"num_deleted":"0","num_feature":"80","num_nodes":"11","size_leaf_vector":"0"}},{"base_weights":[-3.9073266E-3,-5.7657033E-1,5.346838E-1,-5.728173E-1,7.23559E-1,-5.619227E-1,7.9588443E-1,-5.360797E-1,8.22973E-1,-4.6594557E-1,8.321546E-1,-3.1111968E-1,8.3480805E-1],"categories":[],"categories_nodes":[],"categories_segments":[],"categories_sizes":[],"default_left":[1,0,1,0,1,0,1,0,1,0,1,0,0],"id":65,"left_children":[1,-1,3,-1,5,-1,7,-1,9,-1,11,-1,-1],"loss_changes":[4.709534E2,0E0,1.6501323E2,0E0,6.2987885E1,0E0,2.3434143E1,0E0,7.7836E0,0E0,2.14328E0,0E0,0E0],"parents":[2147483647,0,0,2,2,4,4,6,6,8,8,10,10],"right_children":[2,-1,4,-1,6,-1,8,-1,10,-1,12,-1,-1],"split_conditions":[5E-1,-2.8828517E-2,5E-1,-2.8640866E-2,5E-1,-2.8096138E-2,5E-1,-2.6803985E-2,5E-1,-2.3297278E-2,5E-1,-1.5555984E-2,4.1740403E-2],"split_indices":[75,0,30,0,15,0,12,0,27,0,32,0,0],"split_type":[0,0,0,0,0,0,0,0,0,0,0,0,0],"sum_hessian":[1.5249321E3,7.3905414E2,7.8587805E2,1.1420212E2,6.716759E2,3.5417145E1,6.362588E2,1.2307357E1,6.239514E2,4.0613813E0,6.1989E2,1.166218E0,6.187238E2],"tree_param":{"num_deleted":"0","num_feature":"80","num_nodes":"13","size_leaf_vector":"0"}},{"base_weights":[1.0830164E-4,-5.7650894E-1,5.450284E-1,-5.731806E-1,7.2909105E-1,-5.615578E-1,7.975118E-1,-5.342777E-1,8.243467E-1,-4.6225524E-1,8.333612E-1],"categories":[],"categories_nodes":[],"categories_segments":[],"categories_sizes":[],"default_left":[1,0,1,0,1,0,1,0,1,0,0],"id":66,"left_children":[1,-1,3,-1,5,-1,7,-1,9,-1,-1],"loss_changes":[4.7578958E2,0E0,1.606528E2,0E0,5.9518463E1,0E0,2.315799E1,0E0,7.6164856E0,0E0,0E0],"parents":[2147483647,0,0,2,2,4,4,6,6,8,8],"right_children":[2,-1,4,-1,6,-1,8,-1,10,-1,-1],"split_conditions":[5E-1,-2.8825447E-2,5E-1,-2.865903E-2,5E-1,-2.8077891E-2,5E-1,-2.6713884E-2,5E-1,-2.3112763E-2,4.166806E-2],"split_indices":[46,0,67,0,2,0,60,0,29,0,0],"split_type":[0,0,0,0,0,0,0,0,0,0,0],"sum_hessian":[1.5122394E3,7.3472186E2,7.7751746E2,1.0959529E2,6.679222E2,3.326291E1,6.346593E2,1.2162004E1,6.2249725E2,3.9812865E0,6.18516E2],"tree_param":{"num_deleted":"0","num_feature":"80","num_nodes":"11","size_leaf_vector":"0"}},{"base_weights":[-2.909492E-3,-5.766061E-1,5.410148E-1,-5.7259375E-1,7.299991E-1,-5.618849E-1,8.0305606E-1,-5.2829295E-1,8.266995E-1,-4.4226286E-1,8.341786E-1],"categories":[],"categories_nodes":[],"categories_segments":[],"categories_sizes":[],"default_left":[1,0,1,0,1,0,1,0,1,0,0],"id":67,"left_children":[1,-1,3,-1,5,-1,7,-1,9,-1,-1],"loss_changes":[4.7007098E2,0E0,1.6315651E2,0E0,6.2886444E1,0E0,2.0158386E1,0E0,6.2150574E0,0E0,0E0],"parents":[2147483647,0,0,2,2,4,4,6,6,8,8],"right_children":[2,-1,4,-1,6,-1,8,-1,10,-1,-1],"split_conditions":[5E-1,-2.8830305E-2,5E-1,-2.8629689E-2,5E-1,-2.8094245E-2,5E-1,-2.6414648E-2,5E-1,-2.2113143E-2,4.170893E-2],"split_indices":[36,0,48,0,26,0,55,0,20,0,0],"split_type":[0,0,0,0,0,0,0,0,0,0,0],"sum_hessian":[1.5044087E3,7.3213715E2,7.7227155E2,1.117491E2,6.6052246E2,3.4995598E1,6.2552686E2,1.0542476E1,6.149844E2,3.2627885E0,6.117216E2],"tree_param":{"num_deleted":"0","num_feature":"80","num_nodes":"11","size_leaf_vector":"0"}},{"base_weights":[-5.3308285E-3,-5.728546E-1,5.1997805E-1,-5.690384E-1,7.0993936E-1,-5.57847E-1,7.787181E-1,-5.2611446E-1,8.027967E-1,-4.3534333E-1,8.09931E-1,-3.0322647E-1,8.1249356E-1],"categories":[],"categories_nodes":[],"categories_segments":[],"categories_sizes":[],"default_left":[1,0,1,0,1,0,1,0,1,0,1,0,0],"id":68,"left_children":[1,-1,3,-1,5,-1,7,-1,9,-1,11,-1,-1],"loss_changes":[4.4026E2,0E0,1.590552E2,0E0,5.7412964E1,0E0,1.9909424E1,0E0,5.735504E0,0E0,1.9757385E0,0E0,0E0],"parents":[2147483647,0,0,2,2,4,4,6,6,8,8,10,10],"right_children":[2,-1,4,-1,6,-1,8,-1,10,-1,12,-1,-1],"split_conditions":[5E-1,-2.8642729E-2,5E-1,-2.845192E-2,5E-1,-2.7892351E-2,5E-1,-2.6305724E-2,5E-1,-2.1767167E-2,5E-1,-1.5161323E-2,4.0624678E-2],"split_indices":[33,0,3,0,42,0,63,0,71,0,1,0,0],"split_type":[0,0,0,0,0,0,0,0,0,0,0,0,0],"sum_hessian":[1.4747627E3,7.0885364E2,7.6590906E2,1.13460915E2,6.524481E2,3.320864E1,6.192395E2,1.0842257E1,6.083972E2,3.1416554E0,6.0525555E2,1.1206964E0,6.041349E2],"tree_param":{"num_deleted":"0","num_feature":"80","num_nodes":"13","size_leaf_vector":"0"}},{"base_weights":[-5.24432E-3,-5.728838E-1,5.224432E-1,-5.686762E-1,7.0512277E-1,-5.574289E-1,7.738566E-1,-5.333056E-1,8.030245E-1,-4.5048568E-1,8.1135124E-1],"categories":[],"categories_nodes":[],"categories_segments":[],"categories_sizes":[],"default_left":[1,0,1,0,1,0,1,0,1,0,0],"id":69,"left_children":[1,-1,3,-1,5,-1,7,-1,9,-1,-1],"loss_changes":[4.3774182E2,0E0,1.5136128E2,0E0,5.6767914E1,0E0,2.3917969E1,0E0,6.6598206E0,0E0,0E0],"parents":[2147483647,0,0,2,2,4,4,6,6,8,8],"right_children":[2,-1,4,-1,6,-1,8,-1,10,-1,-1],"split_conditions":[5E-1,-2.864419E-2,5E-1,-2.8433809E-2,5E-1,-2.7871445E-2,5E-1,-2.666528E-2,5E-1,-2.2524284E-2,4.0567562E-2],"split_indices":[51,0,59,0,45,0,14,0,6,0,0],"split_type":[0,0,0,0,0,0,0,0,0,0,0],"sum_hessian":[1.4593992E3,7.0304254E2,7.5635657E2,1.0816851E2,6.4818805E2,3.309864E1,6.150894E2,1.3048209E1,6.020412E2,3.6224036E0,5.984188E2],"tree_param":{"num_deleted":"0","num_feature":"80","num_nodes":"11","size_leaf_vector":"0"}},{"base_weights":[7.5020296E-3,-5.729047E-1,5.318985E-1,-5.686011E-1,7.160217E-1,-5.5737823E-1,7.799546E-1,-5.289913E-1,8.046276E-1,-4.2806873E-1,8.111136E-1],"categories":[],"categories_nodes":[],"categories_segments":[],"categories_sizes":[],"default_left":[1,0,1,0,1,0,1,0,1,0,0],"id":70,"left_children":[1,-1,3,-1,5,-1,7,-1,9,-1,-1],"loss_changes":[4.516525E2,0E0,1.5836963E2,0E0,5.484073E1,0E0,2.0989777E1,0E0,5.347168E0,0E0,0E0],"parents":[2147483647,0,0,2,2,4,4,6,6,8,8],"right_children":[2,-1,4,-1,6,-1,8,-1,10,-1,-1],"split_conditions":[5E-1,-2.8645236E-2,5E-1,-2.8430054E-2,5E-1,-2.7868912E-2,5E-1,-2.6449565E-2,5E-1,-2.1403437E-2,4.0555682E-2],"split_indices":[77,0,46,0,60,0,74,0,29,0,0],"split_type":[0,0,0,0,0,0,0,0,0,0,0],"sum_hessian":[1.4819247E3,7.033538E2,7.7857086E2,1.1129219E2,6.672787E2,3.1531145E1,6.3574756E2,1.138364E1,6.243639E2,2.9277797E0,6.214361E2],"tree_param":{"num_deleted":"0","num_feature":"80","num_nodes":"11","size_leaf_vector":"0"}},{"base_weights":[-2.7081275E-3,-5.7287085E-1,5.240894E-1,-5.688647E-1,7.104345E-1,-5.5702853E-1,7.7745134E-1,-5.291538E-1,8.030874E-1,-4.436256E-1,8.1078595E-1],"categories":[],"categories_nodes":[],"categories_segments":[],"categories_sizes":[],"default_left":[1,0,1,0,1,0,1,0,1,0,0],"id":71,"left_children":[1,-1,3,-1,5,-1,7,-1,9,-1,-1],"loss_changes":[4.4182043E2,0E0,1.5611995E2,0E0,5.595404E1,0E0,2.1233887E1,0E0,6.2112427E0,0E0,0E0],"parents":[2147483647,0,0,2,2,4,4,6,6,8,8],"right_children":[2,-1,4,-1,6,-1,8,-1,10,-1,-1],"split_conditions":[5E-1,-2.8643543E-2,5E-1,-2.8443236E-2,5E-1,-2.7851427E-2,5E-1,-2.6457692E-2,5E-1,-2.218128E-2,4.05393E-2],"split_indices":[36,0,48,0,26,0,55,0,20,0,0],"split_type":[0,0,0,0,0,0,0,0,0,0,0],"sum_hessian":[1.4689685E3,7.054065E2,7.635621E2,1.1092288E2,6.5263916E2,3.2407967E1,6.202312E2,1.1557066E1,6.0867413E2,3.388009E0,6.0528613E2],"tree_param":{"num_deleted":"0","num_feature":"80","num_nodes":"11","size_leaf_vector":"0"}},{"base_weights":[1.0112536E-2,-5.692596E-1,5.256334E-1,-5.6506515E-1,6.999117E-1,-5.524043E-1,7.6098806E-1,-5.184066E-1,7.824159E-1,-4.4942716E-1,7.90667E-1],"categories":[],"categories_nodes":[],"categories_segments":[],"categories_sizes":[],"default_left":[1,0,1,0,1,0,1,0,1,0,0],"id":72,"left_children":[1,-1,3,-1,5,-1,7,-1,9,-1,-1],"loss_changes":[4.2519736E2,0E0,1.4358623E2,0E0,5.013388E1,0E0,1.7406982E1,0E0,6.558838E0,0E0,0E0],"parents":[2147483647,0,0,2,2,4,4,6,6,8,8],"right_children":[2,-1,4,-1,6,-1,8,-1,10,-1,-1],"split_conditions":[5E-1,-2.846298E-2,5E-1,-2.8253257E-2,5E-1,-2.7620215E-2,5E-1,-2.5920331E-2,5E-1,-2.2471359E-2,3.953335E-2],"split_indices":[44,0,70,0,47,0,22,0,57,0,0],"split_type":[0,0,0,0,0,0,0,0,0,0,0],"sum_hessian":[1.421594E3,6.6929614E2,7.5229785E2,1.0333661E2,6.4896124E2,2.9804388E1,6.1915686E2,9.817035E0,6.0933984E2,3.698531E0,6.056413E2],"tree_param":{"num_deleted":"0","num_feature":"80","num_nodes":"11","size_leaf_vector":"0"}},{"base_weights":[7.108525E-3,-5.692766E-1,5.239149E-1,-5.650727E-1,6.9785357E-1,-5.529193E-1,7.6015484E-1,-5.203056E-1,7.823442E-1,-4.448483E-1,7.901128E-1],"categories":[],"categories_nodes":[],"categories_segments":[],"categories_sizes":[],"default_left":[1,0,1,0,1,0,1,0,1,0,0],"id":73,"left_children":[1,-1,3,-1,5,-1,7,-1,9,-1,-1],"loss_changes":[4.2916223E2,0E0,1.4427832E2,0E0,5.1495483E1,0E0,1.8158264E1,0E0,6.2101135E0,0E0,0E0],"parents":[2147483647,0,0,2,2,4,4,6,6,8,8],"right_children":[2,-1,4,-1,6,-1,8,-1,10,-1,-1],"split_conditions":[5E-1,-2.846383E-2,5E-1,-2.8253635E-2,5E-1,-2.7645966E-2,5E-1,-2.601528E-2,5E-1,-2.2242416E-2,3.9505642E-2],"split_indices":[59,0,14,0,40,0,6,0,28,0,0],"split_type":[0,0,0,0,0,0,0,0,0,0,0],"sum_hessian":[1.438723E3,6.8010846E2,7.586146E2,1.0417178E2,6.544428E2,3.0677626E1,6.237652E2,1.0242846E1,6.1352234E2,3.505486E0,6.1001685E2],"tree_param":{"num_deleted":"0","num_feature":"80","num_nodes":"11","size_leaf_vector":"0"}},{"base_weights":[7.575172E-3,-5.693144E-1,5.2428395E-1,-5.648489E-1,6.9725573E-1,-5.5325776E-1,7.6211977E-1,-5.1872E-1,7.8376734E-1,-4.3899685E-1,7.911892E-1],"categories":[],"categories_nodes":[],"categories_segments":[],"categories_sizes":[],"default_left":[1,0,1,0,1,0,1,0,1,0,0],"id":74,"left_children":[1,-1,3,-1,5,-1,7,-1,9,-1,-1],"loss_changes":[4.2361682E2,0E0,1.4162198E2,0E0,5.2931793E1,0E0,1.7482758E1,0E0,5.8470764E0,0E0,0E0],"parents":[2147483647,0,0,2,2,4,4,6,6,8,8],"right_children":[2,-1,4,-1,6,-1,8,-1,10,-1,-1],"split_conditions":[5E-1,-2.8465722E-2,5E-1,-2.8242445E-2,5E-1,-2.7662888E-2,5E-1,-2.5935998E-2,5E-1,-2.1949843E-2,3.955946E-2],"split_indices":[13,0,62,0,50,0,11,0,21,0,0],"split_type":[0,0,0,0,0,0,0,0,0,0,0],"sum_hessian":[1.4191315E3,6.7047015E2,7.486613E2,1.0229373E2,6.4636755E2,3.1502443E1,6.148651E2,9.837555E0,6.050276E2,3.2993681E0,6.017282E2],"tree_param":{"num_deleted":"0","num_feature":"80","num_nodes":"11","size_leaf_vector":"0"}},{"base_weights":[-1.1693294E-2,-5.692215E-1,5.0801635E-1,-5.655754E-1,6.850351E-1,-5.53677E-1,7.5296766E-1,-5.26864E-1,7.798232E-1,-4.6104312E-1,7.8943735E-1],"categories":[],"categories_nodes":[],"categories_segments":[],"categories_sizes":[],"default_left":[1,0,1,0,1,0,1,0,1,0,0],"id":75,"left_children":[1,-1,3,-1,5,-1,7,-1,9,-1,-1],"loss_changes":[4.1333792E2,0E0,1.4070058E2,0E0,5.3789124E1,0E0,2.1091858E1,0E0,7.3995667E0,0E0,0E0],"parents":[2147483647,0,0,2,2,4,4,6,6,8,8],"right_children":[2,-1,4,-1,6,-1,8,-1,10,-1,-1],"split_conditions":[5E-1,-2.8461074E-2,5E-1,-2.8278772E-2,5E-1,-2.7683852E-2,5E-1,-2.63432E-2,5E-1,-2.3052156E-2,3.947187E-2],"split_indices":[69,0,79,0,8,0,20,0,49,0,0],"split_type":[0,0,0,0,0,0,0,0,0,0,0],"sum_hessian":[1.4245212E3,6.8720935E2,7.3731195E2,1.0405278E2,6.3325916E2,3.255145E1,6.007077E2,1.19633E1,5.887444E2,4.165489E0,5.845789E2],"tree_param":{"num_deleted":"0","num_feature":"80","num_nodes":"11","size_leaf_vector":"0"}},{"base_weights":[3.5059967E-3,-5.65863E-1,5.078354E-1,-5.616015E-1,6.792839E-1,-5.494987E-1,7.41143E-1,-5.190757E-1,7.64668E-1,-4.2071897E-1,7.709989E-1],"categories":[],"categories_nodes":[],"categories_segments":[],"categories_sizes":[],"default_left":[1,0,1,0,1,0,1,0,1,0,0],"id":76,"left_children":[1,-1,3,-1,5,-1,7,-1,9,-1,-1],"loss_changes":[3.9927997E2,0E0,1.3557872E2,0E0,4.8745422E1,0E0,1.8359192E1,0E0,4.790924E0,0E0,0E0],"parents":[2147483647,0,0,2,2,4,4,6,6,8,8],"right_children":[2,-1,4,-1,6,-1,8,-1,10,-1,-1],"split_conditions":[5E-1,-2.8293151E-2,5E-1,-2.8080076E-2,5E-1,-2.7474934E-2,5E-1,-2.5953785E-2,5E-1,-2.1035949E-2,3.8549945E-2],"split_indices":[44,0,33,0,23,0,78,0,22,0,0],"split_type":[0,0,0,0,0,0,0,0,0,0,0],"sum_hessian":[1.3884944E3,6.521356E2,7.363587E2,1.0142554E2,6.3493317E2,3.005385E1,6.0487933E2,1.0698573E1,5.941808E2,2.8088162E0,5.9137195E2],"tree_param":{"num_deleted":"0","num_feature":"80","num_nodes":"11","size_leaf_vector":"0"}},{"base_weights":[-5.293754E-3,-5.658855E-1,5.0024676E-1,-5.615746E-1,6.726757E-1,-5.503747E-1,7.3882264E-1,-5.206612E-1,7.636859E-1,-4.3788576E-1,7.714143E-1],"categories":[],"categories_nodes":[],"categories_segments":[],"categories_sizes":[],"default_left":[1,0,1,0,1,0,1,0,1,0,0],"id":77,"left_children":[1,-1,3,-1,5,-1,7,-1,9,-1,-1],"loss_changes":[3.921773E2,0E0,1.3360112E2,0E0,5.108658E1,0E0,1.9021515E1,0E0,5.757477E0,0E0,0E0],"parents":[2147483647,0,0,2,2,4,4,6,6,8,8],"right_children":[2,-1,4,-1,6,-1,8,-1,10,-1,-1],"split_conditions":[5E-1,-2.8294275E-2,5E-1,-2.807873E-2,5E-1,-2.7518734E-2,5E-1,-2.6033059E-2,5E-1,-2.189429E-2,3.8570713E-2],"split_indices":[24,0,75,0,54,0,59,0,61,0,0],"split_type":[0,0,0,0,0,0,0,0,0,0,0],"sum_hessian":[1.3818217E3,6.551781E2,7.266436E2,1.01199295E2,6.254443E2,3.1715069E1,5.9372925E2,1.1107785E1,5.8262146E2,3.367701E0,5.792537E2],"tree_param":{"num_deleted":"0","num_feature":"80","num_nodes":"11","size_leaf_vector":"0"}},{"base_weights":[2.1792874E-3,-5.6580424E-1,5.0868934E-1,-5.6194735E-1,6.780482E-1,-5.501259E-1,7.414598E-1,-5.177243E-1,7.6389116E-1,-4.457716E-1,7.7205604E-1],"categories":[],"categories_nodes":[],"categories_segments":[],"categories_sizes":[],"default_left":[1,0,1,0,1,0,1,0,1,0,0],"id":78,"left_children":[1,-1,3,-1,5,-1,7,-1,9,-1,-1],"loss_changes":[4.0010596E2,0E0,1.3368153E2,0E0,4.987796E1,0E0,1.746811E1,0E0,6.2136536E0,0E0,0E0],"parents":[2147483647,0,0,2,2,4,4,6,6,8,8],"right_children":[2,-1,4,-1,6,-1,8,-1,10,-1,-1],"split_conditions":[5E-1,-2.8290212E-2,5E-1,-2.8097367E-2,5E-1,-2.7506296E-2,5E-1,-2.5886213E-2,5E-1,-2.2288581E-2,3.8602803E-2],"split_indices":[46,0,77,0,60,0,74,0,62,0,0],"split_type":[0,0,0,0,0,0,0,0,0,0,0],"sum_hessian":[1.3887565E3,6.5459656E2,7.3415985E2,9.9955086E1,6.342048E2,3.0760044E1,6.034447E2,1.0175264E1,5.932695E2,3.6182292E0,5.8965125E2],"tree_param":{"num_deleted":"0","num_feature":"80","num_nodes":"11","size_leaf_vector":"0"}},{"base_weights":[1.6363714E-3,-5.659185E-1,5.0216824E-1,-5.616842E-1,6.777631E-1,-5.493766E-1,7.40814E-1,-5.158072E-1,7.62928E-1,-4.4230878E-1,7.709258E-1],"categories":[],"categories_nodes":[],"categories_segments":[],"categories_sizes":[],"default_left":[1,0,1,0,1,0,1,0,1,0,0],"id":79,"left_children":[1,-1,3,-1,5,-1,7,-1,9,-1,-1],"loss_changes":[3.944177E2,0E0,1.382001E2,0E0,4.943747E1,0E0,1.715448E1,0E0,6.058319E0,0E0,0E0],"parents":[2147483647,0,0,2,2,4,4,6,6,8,8],"right_children":[2,-1,4,-1,6,-1,8,-1,10,-1,-1],"split_conditions":[5E-1,-2.8295925E-2,5E-1,-2.808421E-2,5E-1,-2.746883E-2,5E-1,-2.5790362E-2,5E-1,-2.211544E-2,3.854629E-2],"split_indices":[10,0,43,0,72,0,49,0,52,0,0],"split_type":[0,0,0,0,0,0,0,0,0,0,0],"sum_hessian":[1.3864067E3,6.4964325E2,7.367634E2,1.04067184E2,6.326962E2,3.054256E1,6.021537E2,1.0027372E1,5.9212634E2,3.545398E0,5.8858093E2],"tree_param":{"num_deleted":"0","num_feature":"80","num_nodes":"11","size_leaf_vector":"0"}},{"base_weights":[3.102787E-3,-5.62624E-1,4.9667817E-1,-5.581629E-1,6.6490406E-1,-5.4530877E-1,7.2306556E-1,-5.149677E-1,7.4596953E-1,-4.254615E-1,7.5287896E-1],"categories":[],"categories_nodes":[],"categories_segments":[],"categories_sizes":[],"default_left":[1,0,1,0,1,0,1,0,1,0,0],"id":80,"left_children":[1,-1,3,-1,5,-1,7,-1,9,-1,-1],"loss_changes":[3.7566656E2,0E0,1.27870255E2,0E0,4.4043945E1,0E0,1.7174377E1,0E0,5.0292053E0,0E0,0E0],"parents":[2147483647,0,0,2,2,4,4,6,6,8,8],"right_children":[2,-1,4,-1,6,-1,8,-1,10,-1,-1],"split_conditions":[5E-1,-2.81312E-2,5E-1,-2.7908146E-2,5E-1,-2.7265439E-2,5E-1,-2.5748385E-2,5E-1,-2.1273075E-2,3.764395E-2],"split_indices":[33,0,44,0,42,0,47,0,63,0,0],"split_type":[0,0,0,0,0,0,0,0,0,0,0],"sum_hessian":[1.343371E3,6.2587036E2,7.175007E2,9.836933E1,6.1913135E2,2.8006277E1,5.9112506E2,1.03471E1,5.8077795E2,3.050318E0,5.7772766E2],"tree_param":{"num_deleted":"0","num_feature":"80","num_nodes":"11","size_leaf_vector":"0"}},{"base_weights":[2.1231328E-3,-5.626178E-1,4.954906E-1,-5.581976E-1,6.636347E-1,-5.457109E-1,7.2451806E-1,-5.149473E-1,7.4734765E-1,-4.247458E-1,7.5428975E-1],"categories":[],"categories_nodes":[],"categories_segments":[],"categories_sizes":[],"default_left":[1,0,1,0,1,0,1,0,1,0,0],"id":81,"left_children":[1,-1,3,-1,5,-1,7,-1,9,-1,-1],"loss_changes":[3.729101E2,0E0,1.2693028E2,0E0,4.5786804E1,0E0,1.700531E1,0E0,5.0165405E0,0E0,0E0],"parents":[2147483647,0,0,2,2,4,4,6,6,8,8],"right_children":[2,-1,4,-1,6,-1,8,-1,10,-1,-1],"split_conditions":[5E-1,-2.8130889E-2,5E-1,-2.790988E-2,5E-1,-2.7285546E-2,5E-1,-2.5747364E-2,5E-1,-2.123729E-2,3.771449E-2],"split_indices":[75,0,59,0,14,0,45,0,12,0,0],"split_type":[0,0,0,0,0,0,0,0,0,0,0],"sum_hessian":[1.3363948E3,6.230595E2,7.133353E2,9.784736E1,6.154879E2,2.9119286E1,5.8636865E2,1.0215073E1,5.7615356E2,3.0380018E0,5.731156E2],"tree_param":{"num_deleted":"0","num_feature":"80","num_nodes":"11","size_leaf_vector":"0"}},{"base_weights":[2.9412578E-3,-5.626655E-1,4.9949694E-1,-5.5804294E-1,6.6791826E-1,-5.4466915E-1,7.2546434E-1,-5.1101714E-1,7.462772E-1,-4.292369E-1,7.5333834E-1],"categories":[],"categories_nodes":[],"categories_segments":[],"categories_sizes":[],"default_left":[1,0,1,0,1,0,1,0,1,0,0],"id":82,"left_children":[1,-1,3,-1,5,-1,7,-1,9,-1,-1],"loss_changes":[3.7889948E2,0E0,1.2832759E2,0E0,4.3669556E1,0E0,1.5628906E1,0E0,5.1632385E0,0E0,0E0],"parents":[2147483647,0,0,2,2,4,4,6,6,8,8],"right_children":[2,-1,4,-1,6,-1,8,-1,10,-1,-1],"split_conditions":[5E-1,-2.8133277E-2,5E-1,-2.7902147E-2,5E-1,-2.7233457E-2,5E-1,-2.5550857E-2,5E-1,-2.1461844E-2,3.7666917E-2],"split_indices":[13,0,46,0,11,0,50,0,74,0,0],"split_type":[0,0,0,0,0,0,0,0,0,0,0],"sum_hessian":[1.3470908E3,6.2969604E2,7.173948E2,9.823715E1,6.1915765E2,2.7668736E1,5.914889E2,9.401426E0,5.8208746E2,3.1186268E0,5.789688E2],"tree_param":{"num_deleted":"0","num_feature":"80","num_nodes":"11","size_leaf_vector":"0"}},{"base_weights":[1.3685434E-2,-5.626801E-1,5.0210303E-1,-5.576784E-1,6.6012895E-1,-5.4653674E-1,7.22019E-1,-5.1890206E-1,7.469354E-1,-4.186862E-1,7.5329155E-1],"categories":[],"categories_nodes":[],"categories_segments":[],"categories_sizes":[],"default_left":[1,0,1,0,1,0,1,0,1,0,0],"id":83,"left_children":[1,-1,3,-1,5,-1,7,-1,9,-1,-1],"loss_changes":[3.7899042E2,0E0,1.2241077E2,0E0,4.778894E1,0E0,1.9065735E1,0E0,4.7059937E0,0E0,0E0],"parents":[2147483647,0,0,2,2,4,4,6,6,8,8],"right_children":[2,-1,4,-1,6,-1,8,-1,10,-1,-1],"split_conditions":[5E-1,-2.8134007E-2,5E-1,-2.788392E-2,5E-1,-2.7326837E-2,5E-1,-2.5945103E-2,5E-1,-2.0934312E-2,3.7664577E-2],"split_indices":[52,0,69,0,72,0,26,0,20,0,0],"split_type":[0,0,0,0,0,0,0,0,0,0,0],"sum_hessian":[1.3442872E3,6.165568E2,7.2773047E2,9.410404E1,6.336264E2,3.0531227E1,6.0309515E2,1.14809E1,5.9161426E2,2.85675E0,5.887575E2],"tree_param":{"num_deleted":"0","num_feature":"80","num_nodes":"11","size_leaf_vector":"0"}},{"base_weights":[-4.366141E-3,-5.5951935E-1,4.8272875E-1,-5.5526304E-1,6.494051E-1,-5.418635E-1,7.086367E-1,-5.0866634E-1,7.302847E-1,-4.1326183E-1,7.366779E-1],"categories":[],"categories_nodes":[],"categories_segments":[],"categories_sizes":[],"default_left":[1,0,1,0,1,0,1,0,1,0,0],"id":84,"left_children":[1,-1,3,-1,5,-1,7,-1,9,-1,-1],"loss_changes":[3.531616E2,0E0,1.20714386E2,0E0,4.2710724E1,0E0,1.54418335E1,0E0,4.4154053E0,0E0,0E0],"parents":[2147483647,0,0,2,2,4,4,6,6,8,8],"right_children":[2,-1,4,-1,6,-1,8,-1,10,-1,-1],"split_conditions":[5E-1,-2.7975967E-2,5E-1,-2.7763152E-2,5E-1,-2.7093176E-2,5E-1,-2.5433317E-2,5E-1,-2.0663092E-2,3.6833894E-2],"split_indices":[44,0,16,0,39,0,47,0,23,0,0],"split_type":[0,0,0,0,0,0,0,0,0,0,0],"sum_hessian":[1.3040127E3,6.093611E2,6.9465155E2,9.578857E1,5.98863E2,2.7979965E1,5.70883E2,9.58185E0,5.6130115E2,2.7667983E0,5.5853436E2],"tree_param":{"num_deleted":"0","num_feature":"80","num_nodes":"11","size_leaf_vector":"0"}},{"base_weights":[3.410282E-4,-5.595296E-1,4.857915E-1,-5.549073E-1,6.4778745E-1,-5.4227394E-1,7.07082E-1,-5.108457E-1,7.298824E-1,-4.192207E-1,7.366596E-1],"categories":[],"categories_nodes":[],"categories_segments":[],"categories_sizes":[],"default_left":[1,0,1,0,1,0,1,0,1,0,0],"id":85,"left_children":[1,-1,3,-1,5,-1,7,-1,9,-1,-1],"loss_changes":[3.522537E2,0E0,1.1738745E2,0E0,4.2801163E1,0E0,1.628543E1,0E0,4.6925964E0,0E0,0E0],"parents":[2147483647,0,0,2,2,4,4,6,6,8,8],"right_children":[2,-1,4,-1,6,-1,8,-1,10,-1,-1],"split_conditions":[5E-1,-2.7976481E-2,5E-1,-2.7745366E-2,5E-1,-2.7113697E-2,5E-1,-2.5542287E-2,5E-1,-2.0961035E-2,3.683298E-2],"split_indices":[15,0,59,0,28,0,51,0,24,0,0],"split_type":[0,0,0,0,0,0,0,0,0,0,0],"sum_hessian":[1.2940532E3,6.008916E2,6.931616E2,9.303813E1,6.0012354E2,2.809531E1,5.720282E2,1.0118614E1,5.619096E2,2.9377828E0,5.589718E2],"tree_param":{"num_deleted":"0","num_feature":"80","num_nodes":"11","size_leaf_vector":"0"}},{"base_weights":[-1.3147202E-2,-5.594808E-1,4.795713E-1,-5.553313E-1,6.463535E-1,-5.4231083E-1,7.066756E-1,-5.113831E-1,7.2985107E-1,-4.2662993E-1,7.371193E-1],"categories":[],"categories_nodes":[],"categories_segments":[],"categories_sizes":[],"default_left":[1,0,1,0,1,0,1,0,1,0,0],"id":86,"left_children":[1,-1,3,-1,5,-1,7,-1,9,-1,-1],"loss_changes":[3.4913086E2,0E0,1.18068085E2,0E0,4.252838E1,0E0,1.6176483E1,0E0,4.93573E0,0E0,0E0],"parents":[2147483647,0,0,2,2,4,4,6,6,8,8],"right_children":[2,-1,4,-1,6,-1,8,-1,10,-1,-1],"split_conditions":[5E-1,-2.797404E-2,5E-1,-2.7766565E-2,5E-1,-2.7115542E-2,5E-1,-2.5569156E-2,5E-1,-2.1331497E-2,3.6855966E-2],"split_indices":[46,0,77,0,60,0,74,0,19,0,0],"split_type":[0,0,0,0,0,0,0,0,0,0,0],"sum_hessian":[1.2949777E3,6.140142E2,6.809635E2,9.4187775E1,5.8677576E2,2.795352E1,5.588222E2,1.0040611E1,5.487816E2,3.0671065E0,5.4571454E2],"tree_param":{"num_deleted":"0","num_feature":"80","num_nodes":"11","size_leaf_vector":"0"}},{"base_weights":[-2.058664E-3,-5.5956256E-1,4.831857E-1,-5.55034E-1,6.490526E-1,-5.423173E-1,7.0969754E-1,-5.0737E-1,7.311731E-1,-4.10182E-1,7.374641E-1],"categories":[],"categories_nodes":[],"categories_segments":[],"categories_sizes":[],"default_left":[1,0,1,0,1,0,1,0,1,0,0],"id":87,"left_children":[1,-1,3,-1,5,-1,7,-1,9,-1,-1],"loss_changes":[3.5124847E2,0E0,1.1990344E2,0E0,4.3664413E1,0E0,1.528067E1,0E0,4.330261E0,0E0,0E0],"parents":[2147483647,0,0,2,2,4,4,6,6,8,8],"right_children":[2,-1,4,-1,6,-1,8,-1,10,-1,-1],"split_conditions":[5E-1,-2.7978128E-2,5E-1,-2.77517E-2,5E-1,-2.7115865E-2,5E-1,-2.53685E-2,5E-1,-2.05091E-2,3.6873203E-2],"split_indices":[36,0,10,0,58,0,8,0,43,0,0],"split_type":[0,0,0,0,0,0,0,0,0,0,0],"sum_hessian":[1.2963931E3,6.0320703E2,6.93186E2,9.516546E1,5.980205E2,2.8582106E1,5.694384E2,9.481408E0,5.5995703E2,2.7175303E0,5.572395E2],"tree_param":{"num_deleted":"0","num_feature":"80","num_nodes":"11","size_leaf_vector":"0"}},{"base_weights":[1.663507E-3,-5.565834E-1,4.8099577E-1,-5.520804E-1,6.4044416E-1,-5.3743166E-1,6.951276E-1,-5.03252E-1,7.151603E-1,-4.22182E-1,7.221742E-1],"categories":[],"categories_nodes":[],"categories_segments":[],"categories_sizes":[],"default_left":[1,0,1,0,1,0,1,0,1,0,0],"id":88,"left_children":[1,-1,3,-1,5,-1,7,-1,9,-1,-1],"loss_changes":[3.410308E2,0E0,1.1330374E2,0E0,3.866426E1,0E0,1.4008759E1,0E0,4.769043E0,0E0,0E0],"parents":[2147483647,0,0,2,2,4,4,6,6,8,8],"right_children":[2,-1,4,-1,6,-1,8,-1,10,-1,-1],"split_conditions":[5E-1,-2.782917E-2,5E-1,-2.760402E-2,5E-1,-2.6871582E-2,5E-1,-2.5162602E-2,5E-1,-2.11091E-2,3.6108714E-2],"split_indices":[44,0,70,0,33,0,73,0,37,0,0],"split_type":[0,0,0,0,0,0,0,0,0,0,0],"sum_hessian":[1.2724724E3,5.8777185E2,6.8470056E2,9.121972E1,5.9348083E2,2.5938581E1,5.6754224E2,8.934722E0,5.5860754E2,3.061003E0,5.555465E2],"tree_param":{"num_deleted":"0","num_feature":"80","num_nodes":"11","size_leaf_vector":"0"}},{"base_weights":[1.0466089E-3,-5.5658615E-1,4.8157084E-1,-5.5175376E-1,6.38266E-1,-5.376792E-1,6.9330883E-1,-5.092557E-1,7.16336E-1,-4.0896484E-1,7.225684E-1],"categories":[],"categories_nodes":[],"categories_segments":[],"categories_sizes":[],"default_left":[1,0,1,0,1,0,1,0,1,0,0],"id":89,"left_children":[1,-1,3,-1,5,-1,7,-1,9,-1,-1],"loss_changes":[3.394808E2,0E0,1.105387E2,0E0,3.8650604E1,0E0,1.602066E1,0E0,4.189026E0,0E0,0E0],"parents":[2147483647,0,0,2,2,4,4,6,6,8,8],"right_children":[2,-1,4,-1,6,-1,8,-1,10,-1,-1],"split_conditions":[5E-1,-2.7829308E-2,5E-1,-2.7587688E-2,5E-1,-2.688396E-2,5E-1,-2.5462786E-2,5E-1,-2.0448243E-2,3.612842E-2],"split_indices":[59,0,15,0,24,0,66,0,12,0,0],"split_type":[0,0,0,0,0,0,0,0,0,0,0],"sum_hessian":[1.2649268E3,5.854143E2,6.795125E2,8.914243E1,5.9037006E2,2.6005953E1,5.6436414E2,1.0206877E1,5.541572E2,2.6963458E0,5.514609E2],"tree_param":{"num_deleted":"0","num_feature":"80","num_nodes":"11","size_leaf_vector":"0"}},{"base_weights":[-3.3773535E-3,-5.565169E-1,4.8520598E-1,-5.5191284E-1,6.422505E-1,-5.370191E-1,6.968064E-1,-5.05374E-1,7.178386E-1,-3.7855604E-1,7.226477E-1],"categories":[],"categories_nodes":[],"categories_segments":[],"categories_sizes":[],"default_left":[1,0,1,0,1,0,1,0,1,0,0],"id":90,"left_children":[1,-1,3,-1,5,-1,7,-1,9,-1,-1],"loss_changes":[3.3802298E2,0E0,1.08524994E2,0E0,3.7512787E1,0E0,1.4324127E1,0E0,3.137085E0,0E0,0E0],"parents":[2147483647,0,0,2,2,4,4,6,6,8,8],"right_children":[2,-1,4,-1,6,-1,8,-1,10,-1,-1],"split_conditions":[5E-1,-2.7825845E-2,5E-1,-2.7595643E-2,5E-1,-2.6850954E-2,5E-1,-2.5268702E-2,5E-1,-1.8927803E-2,3.6132388E-2],"split_indices":[46,0,62,0,11,0,74,0,19,0,0],"split_type":[0,0,0,0,0,0,0,0,0,0,0],"sum_hessian":[1.2487577E3,5.856205E2,6.6313715E2,8.687853E1,5.7625867E2,2.508934E1,5.511693E2,9.08098E0,5.420883E2,2.0279717E0,5.4006036E2],"tree_param":{"num_deleted":"0","num_feature":"80","num_nodes":"11","size_leaf_vector":"0"}},{"base_weights":[7.9227774E-4,-5.565354E-1,4.848517E-1,-5.518758E-1,6.388389E-1,-5.3787196E-1,6.9335467E-1,-5.0531685E-1,7.146887E-1,-4.2592043E-1,7.221047E-1],"categories":[],"categories_nodes":[],"categories_segments":[],"categories_sizes":[],"default_left":[1,0,1,0,1,0,1,0,1,0,0],"id":91,"left_children":[1,-1,3,-1,5,-1,7,-1,9,-1,-1],"loss_changes":[3.4034467E2,0E0,1.0813718E2,0E0,3.811267E1,0E0,1.4750763E1,0E0,4.987549E0,0E0,0E0],"parents":[2147483647,0,0,2,2,4,4,6,6,8,8],"right_children":[2,-1,4,-1,6,-1,8,-1,10,-1,-1],"split_conditions":[5E-1,-2.7826771E-2,5E-1,-2.7593791E-2,5E-1,-2.6893599E-2,5E-1,-2.5265843E-2,5E-1,-2.1296022E-2,3.6105238E-2],"split_indices":[69,0,8,0,68,0,64,0,55,0,0],"split_type":[0,0,0,0,0,0,0,0,0,0,0],"sum_hessian":[1.259565E3,5.854036E2,6.7416125E2,8.685063E1,5.8731067E2,2.561213E1,5.6169855E2,9.425633E0,5.522729E2,3.2030332E0,5.490699E2],"tree_param":{"num_deleted":"0","num_feature":"80","num_nodes":"11","size_leaf_vector":"0"}},{"base_weights":[2.797148E-3,-5.5374825E-1,4.7187486E-1,-5.4894555E-1,6.284386E-1,-5.3543776E-1,6.844049E-1,-4.9776018E-1,7.03883E-1,-3.667445E-1,7.083211E-1],"categories":[],"categories_nodes":[],"categories_segments":[],"categories_sizes":[],"default_left":[1,0,1,0,1,0,1,0,1,0,0],"id":92,"left_children":[1,-1,3,-1,5,-1,7,-1,9,-1,-1],"loss_changes":[3.2026917E2,0E0,1.0673988E2,0E0,3.799312E1,0E0,1.30513E1,0E0,2.8401794E0,0E0,0E0],"parents":[2147483647,0,0,2,2,4,4,6,6,8,8],"right_children":[2,-1,4,-1,6,-1,8,-1,10,-1,-1],"split_conditions":[5E-1,-2.7687414E-2,5E-1,-2.7447278E-2,5E-1,-2.6771888E-2,5E-1,-2.4888009E-2,5E-1,-1.8337226E-2,3.5416055E-2],"split_indices":[44,0,33,0,23,0,78,0,71,0,0],"split_type":[0,0,0,0,0,0,0,0,0,0,0],"sum_hessian":[1.2247875E3,5.600847E2,6.6470276E2,8.805618E1,5.766466E2,2.606347E1,5.505831E2,8.5266695E0,5.4205646E2,1.9007269E0,5.401557E2],"tree_param":{"num_deleted":"0","num_feature":"80","num_nodes":"11","size_leaf_vector":"0"}},{"base_weights":[4.244681E-4,-5.537529E-1,4.6891734E-1,-5.489058E-1,6.239048E-1,-5.3473985E-1,6.786115E-1,-5.045225E-1,7.010405E-1,-4.2031112E-1,7.0829433E-1],"categories":[],"categories_nodes":[],"categories_segments":[],"categories_sizes":[],"default_left":[1,0,1,0,1,0,1,0,1,0,0],"id":93,"left_children":[1,-1,3,-1,5,-1,7,-1,9,-1,-1],"loss_changes":[3.1661588E2,0E0,1.0458928E2,0E0,3.6744583E1,0E0,1.4909943E1,0E0,4.679901E0,0E0,0E0],"parents":[2147483647,0,0,2,2,4,4,6,6,8,8],"right_children":[2,-1,4,-1,6,-1,8,-1,10,-1,-1],"split_conditions":[5E-1,-2.7687645E-2,5E-1,-2.744529E-2,5E-1,-2.6736993E-2,5E-1,-2.5226125E-2,5E-1,-2.1015557E-2,3.5414718E-2],"split_indices":[59,0,14,0,65,0,30,0,54,0,0],"split_type":[0,0,0,0,0,0,0,0,0,0,0],"sum_hessian":[1.2174973E3,5.5766125E2,6.5983606E2,8.686179E1,5.729743E2,2.5438196E1,5.475361E2,9.786802E0,5.3774927E2,3.090243E0,5.3465906E2],"tree_param":{"num_deleted":"0","num_feature":"80","num_nodes":"11","size_leaf_vector":"0"}},{"base_weights":[-6.942371E-4,-5.5370235E-1,4.7142187E-1,-5.494183E-1,6.288672E-1,-5.3512496E-1,6.8359816E-1,-5.00783E-1,7.044735E-1,-3.4837905E-1,7.083916E-1],"categories":[],"categories_nodes":[],"categories_segments":[],"categories_sizes":[],"default_left":[1,0,1,0,1,0,1,0,1,0,0],"id":94,"left_children":[1,-1,3,-1,5,-1,7,-1,9,-1,-1],"loss_changes":[3.1936942E2,0E0,1.06406586E2,0E0,3.681714E1,0E0,1.3875015E1,0E0,2.4655762E0,0E0,0E0],"parents":[2147483647,0,0,2,2,4,4,6,6,8,8],"right_children":[2,-1,4,-1,6,-1,8,-1,10,-1,-1],"split_conditions":[5E-1,-2.7685119E-2,5E-1,-2.7470915E-2,5E-1,-2.6756248E-2,5E-1,-2.5039151E-2,5E-1,-1.7418953E-2,3.541958E-2],"split_indices":[46,0,13,0,56,0,77,0,50,0,0],"split_type":[0,0,0,0,0,0,0,0,0,0,0],"sum_hessian":[1.2212439E3,5.623585E2,6.5888544E2,8.7709175E1,5.711762E2,2.5256477E1,5.4591974E2,9.0572815E0,5.368625E2,1.6645162E0,5.3519794E2],"tree_param":{"num_deleted":"0","num_feature":"80","num_nodes":"11","size_leaf_vector":"0"}},{"base_weights":[4.0470664E-3,-5.538109E-1,4.7003502E-1,-5.488276E-1,6.254915E-1,-5.351791E-1,6.8143576E-1,-5.0157446E-1,7.0236665E-1,-4.0075797E-1,7.083195E-1],"categories":[],"categories_nodes":[],"categories_segments":[],"categories_sizes":[],"default_left":[1,0,1,0,1,0,1,0,1,0,0],"id":95,"left_children":[1,-1,3,-1,5,-1,7,-1,9,-1,-1],"loss_changes":[3.1913422E2,0E0,1.06289536E2,0E0,3.807881E1,0E0,1.4083771E1,0E0,3.8648682E0,0E0,0E0],"parents":[2147483647,0,0,2,2,4,4,6,6,8,8],"right_children":[2,-1,4,-1,6,-1,8,-1,10,-1,-1],"split_conditions":[5E-1,-2.7690545E-2,5E-1,-2.744138E-2,5E-1,-2.6758954E-2,5E-1,-2.5078723E-2,5E-1,-2.0037899E-2,3.5415974E-2],"split_indices":[48,0,36,0,20,0,43,0,68,0,0],"split_type":[0,0,0,0,0,0,0,0,0,0,0],"sum_hessian":[1.2256499E3,5.577502E2,6.6789966E2,8.808167E1,5.79818E2,2.6268175E1,5.5354987E2,9.224407E0,5.4432544E2,2.5656154E0,5.417598E2],"tree_param":{"num_deleted":"0","num_feature":"80","num_nodes":"11","size_leaf_vector":"0"}},{"base_weights":[-1.0430616E-2,-5.5114913E-1,4.5152414E-1,-5.4594564E-1,6.0876775E-1,